
//<![CDATA[

// a few things don't have var in front of them - they update already existing variables the game needs
lanesSide = 2;
patchesAhead = 18;
patchesBehind = 8;
trainIterations = 100000;

var num_inputs = (lanesSide * 2 + 1) * (patchesAhead + patchesBehind);
var num_actions = 5;
var temporal_window = 3;
var network_size = num_inputs * temporal_window + num_actions * temporal_window + num_inputs;

var layer_defs = [];
layer_defs.push({
    type: 'input',
    out_sx: 1,
    out_sy: 1,
    out_depth: network_size
});
layer_defs.push({
    type: 'fc',
    num_neurons: 70,
    activation: 'relu'
});
layer_defs.push({
    type: 'regression',
    num_neurons: num_actions
});

var tdtrainer_options = {
    learning_rate: 0.001,
    momentum: 0.0,
    batch_size: 64,
    l2_decay: 0.01
};

var opt = {};
opt.temporal_window = temporal_window;
opt.experience_size = 3000;
opt.start_learn_threshold = 500;
opt.gamma = 0.7;
opt.learning_steps_total = 10000;
opt.learning_steps_burnin = 1000;
opt.epsilon_min = 0.0;
opt.epsilon_test_time = 0.0;
opt.layer_defs = layer_defs;
opt.tdtrainer_options = tdtrainer_options;

brain = new deepqlearn.Brain(num_inputs, num_actions, opt);

learn = function (state, lastReward) {
    brain.backward(lastReward);
    var action = brain.forward(state);

    draw_net();
    draw_stats();

    return action;
}

//]]>
    
/*###########*/
if (brain) {
brain.value_net.fromJSON({"layers":[{"out_depth":535,"out_sx":1,"out_sy":1,"layer_type":"input"},{"out_depth":50,"out_sx":1,"out_sy":1,"layer_type":"fc","num_inputs":535,"l1_decay_mul":0,"l2_decay_mul":1,"filters":[{"sx":1,"sy":1,"depth":535,"w":{"0":-0.06910107771106928,"1":-0.025567836042963157,"2":0.006499891707984565,"3":0.010677579507018796,"4":0.011693650914058515,"5":0.0049267010906179545,"6":0.019824722434055714,"7":-0.007632918420022064,"8":0.004027352035291977,"9":0.02457023776856045,"10":0.03075866763634674,"11":0.019989138001161498,"12":0.025512709960883673,"13":0.022135141660069392,"14":0.05467542072703876,"15":-0.032649233161792246,"16":-0.04175812755260023,"17":-0.02431764140897862,"18":0.06300500709266756,"19":0.051489678182059316,"20":-0.10165517163982286,"21":-0.013409240699637476,"22":0.042082139840624436,"23":0.017900318504758605,"24":0.09414753151702916,"25":0.014367629377246227,"26":-0.008029494732128347,"27":0.04751426405953454,"28":0.01526653786746217,"29":-0.050413180710084354,"30":0.0500536293021638,"31":0.0020503450487407435,"32":-0.04490320864574138,"33":-0.02750082033099257,"34":-0.030084618365213655,"35":0.033206146488308774,"36":0.01509351079700048,"37":-0.023104239706658324,"38":-0.11439944318995073,"39":-0.005086398345981646,"40":0.071116464116938,"41":0.039436502009817666,"42":-0.010035148285713752,"43":0.011094154609333114,"44":0.06833412842746404,"45":-0.07660242790190139,"46":-0.0054333017892618,"47":-0.03357773562129373,"48":-0.07930886417451816,"49":0.020368346125927667,"50":-0.022654824822534916,"51":-0.00021186836920792697,"52":0.009641236667194887,"53":0.01066819662379601,"54":-0.006348348019233034,"55":0.02472260941693529,"56":0.02490450466325597,"57":0.02046128336446768,"58":-0.02914721899736229,"59":0.04137963430627531,"60":0.06863210710088172,"61":0.11461921431028341,"62":-0.010349936104041899,"63":-0.01887483318971988,"64":-0.06694687093598234,"65":-0.0894050559931117,"66":0.06167858700826602,"67":-0.0010431803346678248,"68":0.02767989208276909,"69":0.06573978479243324,"70":0.0030383300820540967,"71":0.023462314676420338,"72":0.07431499332040521,"73":-0.024720138559375507,"74":-0.003680516338095349,"75":-0.006624717205625928,"76":0.02899414207151909,"77":-0.00781287468180939,"78":-0.05715719983547143,"79":0.019214350035748572,"80":-0.017405150626714546,"81":0.009299335045042325,"82":0.0030546596574092862,"83":0.035757121657525585,"84":0.06972739162159133,"85":-0.007796503577642657,"86":-0.009373777719442748,"87":-0.04818016385283534,"88":-0.001068133295376274,"89":0.006931032766050723,"90":-0.039228618991970825,"91":-0.013828630951395497,"92":-0.003230679874028655,"93":-0.06778147454335337,"94":0.059180554196688516,"95":-0.05627203343390102,"96":-0.040252842500738524,"97":0.0004158868783476386,"98":-0.08267311808002452,"99":0.10064133887377895,"100":-0.011652713350450017,"101":-0.02792976202255381,"102":-0.06828432665669036,"103":-0.008447885480732595,"104":0.013565975323563347,"105":-0.006659163766905426,"106":0.01442585589688526,"107":-0.09991897022386224,"108":0.01724353794784294,"109":-0.0031298837963110986,"110":0.05541592419277083,"111":-0.044016776310629724,"112":-0.019931999981409473,"113":0.013284380035258997,"114":0.0035593334093938023,"115":0.012215106737696248,"116":0.03325028035330202,"117":-0.04224946265273417,"118":-0.005200738709083813,"119":-0.017626418796391537,"120":0.006705847932178073,"121":-0.07512164773597058,"122":-0.0032388748367528303,"123":-0.0012882951320026983,"124":0.043670286198795503,"125":-0.000911921252621949,"126":-0.03016418644466717,"127":-0.030828986541350918,"128":0.01896192238354263,"129":0.07108777256589847,"130":0.008157729076785959,"131":0.07403677564957847,"132":-0.0022579519047497575,"133":-0.0010647572665476248,"134":0.056983739739595925,"135":-0.023647689624393075,"136":0.011220845712053878,"137":-0.041523008771067384,"138":0.01623313184889128,"139":-0.08395600556246935,"140":-0.08313993071197102,"141":0.017656779510150843,"142":-0.011366073837385474,"143":-0.08502319921790055,"144":-0.04980815081973704,"145":-0.05908137438660694,"146":0.05045961470189375,"147":-0.0068791312010547424,"148":-0.016747141676462497,"149":-0.006506053938404179,"150":-0.039253929571079114,"151":-0.015819450912682158,"152":0.000977595028703951,"153":0.003692425014153554,"154":-0.05097096824202954,"155":0.06444756914850838,"156":0.014977846684138454,"157":-0.045620255677742486,"158":0.09540150128351901,"159":-0.03259678298266746,"160":0.0029609507527765967,"161":-0.055667218671026475,"162":0.0005529038956875247,"163":0.0728975997933758,"164":0.007269681502286117,"165":0.011280975906298871,"166":-0.022331146996763244,"167":0.06220838715343183,"168":-0.05624808673166222,"169":-0.07368808653893683,"170":-0.08982790897552882,"171":0.06598348096863328,"172":0.049959288722629426,"173":0.03163495966295511,"174":0.06582389093884282,"175":0.0010145327443386973,"176":-0.06291063132581587,"177":-0.018133794513142665,"178":0.033297501134265925,"179":0.018510016409142595,"180":-0.11545764103263295,"181":-0.021363319035046423,"182":0.028641241571970635,"183":-0.017354477452772517,"184":0.0929451529707579,"185":-0.0033660760351679987,"186":0.061436225549296335,"187":0.03587225910367534,"188":-0.03438495109808764,"189":0.06290654142073004,"190":-0.030867604585150178,"191":0.03815129856243688,"192":-0.0560808417193369,"193":0.030958630543542597,"194":-0.04710183320478692,"195":-0.0042601122811681226,"196":0.04587897494093701,"197":-0.011047289090871033,"198":0.03778450802504754,"199":-0.08707105900197826,"200":0.07569666055833377,"201":0.06674500276775473,"202":-0.05916366866972382,"203":-0.004582484073027951,"204":0.01539808495096982,"205":0.01874197756544962,"206":0.0645944953833148,"207":0.04347960723299749,"208":-0.06554423662035498,"209":0.03322254713750305,"210":-0.06388183032226472,"211":0.07832848698199132,"212":0.07862069922640763,"213":-0.09583227810508523,"214":-0.07244425772033965,"215":-0.014243753821784893,"216":0.019758043690030796,"217":0.021659696392612778,"218":-0.04308041923406378,"219":0.0404127434754681,"220":0.012500570386300331,"221":0.03258720796693253,"222":-0.13392482599613278,"223":-0.016650370197772855,"224":0.009997930374970371,"225":0.07578772817268759,"226":0.009069136348345323,"227":-0.018616654364194976,"228":0.030522475569693563,"229":-0.026352309287288322,"230":-0.07954779933013335,"231":0.0033109366904827218,"232":-0.011113247347426558,"233":0.020601322981052873,"234":-0.00711628955882106,"235":0.050076451506358,"236":0.05500920169325769,"237":0.05277765178259087,"238":-0.06752653469114756,"239":-0.041749177269513424,"240":0.013599648577642252,"241":0.06990100950370946,"242":0.02604143506235836,"243":-0.020064258907053375,"244":-0.000962642830285463,"245":-0.009014877211106945,"246":0.04568329317708661,"247":-0.03254581964420079,"248":0.07113129619190098,"249":-0.012696939735705775,"250":0.020149076508125557,"251":-0.08817922330557777,"252":-0.031351576443248194,"253":0.07379212703306072,"254":-0.0022623321092161267,"255":-0.036113056443131654,"256":-0.03558452997122819,"257":-0.06514673193200711,"258":0.04002358369350686,"259":0.016627559341176712,"260":-0.08757980918932123,"261":-0.007349028376913503,"262":-0.018076037419200656,"263":-0.04109210528076356,"264":-0.00694121219072388,"265":0.0969210013322461,"266":-0.03343166646834157,"267":-0.09957804290164304,"268":0.01301657406298313,"269":-0.015171090694276287,"270":-0.025424058698281155,"271":0.029802267269887595,"272":0.027379908201425933,"273":-0.026122800549346,"274":-0.028466270154078557,"275":-0.012456078038864542,"276":0.02344021951374995,"277":0.04583144863177596,"278":0.026164734025987485,"279":-0.018514138028777542,"280":0.04528059189128473,"281":-0.06579843182982761,"282":0.08902410943233956,"283":0.004331807818374857,"284":-0.027262413903824178,"285":0.07980955679341796,"286":-0.04678061089345219,"287":-0.01507539431156312,"288":-0.013797781917529615,"289":-0.017626943489887685,"290":-0.00784756691381187,"291":0.026110361750824304,"292":0.01680688185298935,"293":-0.017293038229472705,"294":0.11029892149605446,"295":-0.030502000136152653,"296":-0.005946891418821818,"297":0.035425469885024576,"298":-0.011003104819420252,"299":0.017552140829015895,"300":0.09329915011613545,"301":0.0028610180822337917,"302":0.05252703762610187,"303":0.015136564715377462,"304":0.04531853220499372,"305":-0.05439453819233149,"306":0.06996467953648138,"307":0.03042017315978879,"308":-0.07122239890062154,"309":-0.028875430053401648,"310":0.029339068016576163,"311":-0.007970231739879069,"312":0.0004128133452204398,"313":0.03782092711326253,"314":-0.002207224436334492,"315":0.005854079397038617,"316":-0.007332555717631514,"317":-0.08669448354304111,"318":0.011071844227990695,"319":0.00608540332833148,"320":-0.011203232152628148,"321":-0.04643421640206531,"322":-0.0047975227575262295,"323":0.008936945797458995,"324":-0.02214416556040024,"325":-0.009203678787208902,"326":0.05741749517589351,"327":-0.022943916626530246,"328":-0.0416864820270415,"329":-0.023729283712428086,"330":0.07022985523969377,"331":0.02164378268027464,"332":0.0040955186749241585,"333":0.0008004753007506013,"334":0.056985731670385405,"335":-0.013166888683059477,"336":0.08395136245325889,"337":0.03722867676558991,"338":-0.012497945141336042,"339":0.033923687639719556,"340":-0.018250837613710113,"341":-0.00620871170180837,"342":0.03077318513467253,"343":-0.03377958834135864,"344":-0.01621656315138769,"345":-0.02085428449205234,"346":-0.042120487756976445,"347":-0.07068521894072613,"348":0.005387164646876737,"349":-0.03318170367106291,"350":-0.03819358486201168,"351":-0.03323807752236565,"352":0.004529218845463538,"353":0.0016784098682786285,"354":-0.007657464463338152,"355":0.012975997403272009,"356":-0.015002397374911597,"357":0.041015583561088156,"358":0.0016223976929196128,"359":0.05112853154797031,"360":-0.023675135891292175,"361":0.01267214790274449,"362":-0.01537943746113557,"363":-0.06520002233038173,"364":-0.0490139356777147,"365":-0.004307471547581798,"366":0.005417292965424888,"367":-0.0034359263702967787,"368":-0.010448507984975437,"369":-0.030399783478535135,"370":-0.010041293440858547,"371":0.018430360441159064,"372":-0.040423027203131234,"373":-0.08761267515326764,"374":0.03596434904319878,"375":0.05058495319020796,"376":-0.015643524807264105,"377":0.07779872677163437,"378":-0.015425524002618466,"379":0.049253448957788805,"380":-0.05840063260878134,"381":0.07008652516416673,"382":-0.04228054595900513,"383":0.03518267557527307,"384":0.004597383976004883,"385":-0.0603362663145061,"386":-0.03304868455970275,"387":0.012856023915837364,"388":-0.059088639579102556,"389":0.022424094371017212,"390":-0.005642765063695346,"391":0.031716906499696246,"392":-0.019051867374016294,"393":0.02467348744810457,"394":-0.023031211537531054,"395":0.06362028296476026,"396":-0.06165280281319767,"397":0.02860483631047097,"398":-0.0014754094038105189,"399":-0.056890887004596095,"400":0.017457092451329582,"401":-0.040087998869987033,"402":-0.018850523566008456,"403":-0.03839697325458693,"404":0.08534739895532674,"405":-0.010054596407998285,"406":0.05310259093990181,"407":0.0652873785608989,"408":-0.022779981226689686,"409":-0.04033251220269642,"410":-0.047027842960089015,"411":0.013075150766249422,"412":-0.04550125022597005,"413":-0.03332481324264113,"414":-0.015060349637023535,"415":-0.0038029236547729908,"416":0.052328759593601525,"417":-0.007060617647522474,"418":0.06662846659295626,"419":0.09476966190862153,"420":0.009538297119763573,"421":0.017989453121327142,"422":0.037462470624651384,"423":-0.04632651574975343,"424":-0.0030684630041601666,"425":-0.03975136596894394,"426":0.08800750754097594,"427":0.01512906296116235,"428":-0.016396940554664216,"429":-0.005418781083640875,"430":-0.006318226655548673,"431":0.033364848614386086,"432":0.04666907896497659,"433":0.08184734953036597,"434":0.019030839580011605,"435":-0.0407401207745224,"436":0.0144458393034735,"437":0.04203956967148065,"438":-0.03948463035542607,"439":0.012119025068494362,"440":0.02281494453410407,"441":0.020645678925658405,"442":-0.03227669669808507,"443":-0.09883225459020391,"444":-0.018862017145794958,"445":-0.04768586650188916,"446":0.02485796273319682,"447":-0.03001712655461515,"448":-0.02478947048346598,"449":-0.026392309582531925,"450":0.0096934854397741,"451":0.030160610896712264,"452":-0.028559591069699207,"453":0.02251991696073614,"454":-0.014709789381389633,"455":-0.03850168809691665,"456":0.05773183498418937,"457":-0.07474480684607344,"458":0.018175606635637904,"459":0.01833912775789239,"460":-0.0771688576645835,"461":0.04289185444037381,"462":-0.006915129872216978,"463":-0.010256856250942503,"464":-0.0010701050929684368,"465":0.040648330876162736,"466":0.08287701349082535,"467":0.046077961182759614,"468":-0.02056115824541657,"469":-0.020534932816820086,"470":0.06950310779951864,"471":-0.004933496709633048,"472":0.007879940713698857,"473":-0.012842411553351328,"474":-0.021718773931069187,"475":0.01361445681819955,"476":-0.015127321682038284,"477":-0.059222812478170905,"478":0.046846564540597525,"479":0.07502140321237191,"480":0.0309066955423478,"481":-0.015157933762666744,"482":-0.009549796928794043,"483":-0.06401301414730455,"484":-0.014191070660242692,"485":-0.04700986550896948,"486":-0.00014952421494566584,"487":-0.056927569361334585,"488":-0.019956125533835863,"489":0.03392022162659876,"490":-0.0029902180602839105,"491":0.002798777744167408,"492":-0.059841228169824894,"493":-0.005163289546352744,"494":-0.020058155162977584,"495":0.07254863568585422,"496":0.05421202198934131,"497":0.007454203921129643,"498":0.010967535122481139,"499":0.03263213104745895,"500":-0.03961911580142554,"501":0.10480541812734914,"502":-0.025117835687049152,"503":0.022043603719301055,"504":-0.0010035084630426146,"505":-0.024294687695612396,"506":0.06182902302970099,"507":-0.07071595295691518,"508":-0.021583874817381356,"509":0.009800315769037778,"510":-0.07884728445526298,"511":0.02385904145253554,"512":-0.025306433549229346,"513":-0.06371840153855139,"514":-0.009917982496035017,"515":0.002603407292489914,"516":-0.012347548632434719,"517":0.006664408434069545,"518":-0.009247963525024005,"519":0.012349715902013392,"520":-0.02743668707544968,"521":0.0133522159037808,"522":0.012300277185706641,"523":-0.01485950007925818,"524":-0.0446436101382082,"525":0.04516701591091466,"526":-0.011809178390598063,"527":-0.011724801122707794,"528":0.021983024343694178,"529":-0.037780487077045816,"530":-0.06877033573146596,"531":0.015442018471957645,"532":-0.05748685976348425,"533":0.006359078422438422,"534":-0.06488820660785678}},{"sx":1,"sy":1,"depth":535,"w":{"0":0.012262348248090115,"1":0.07585538999123416,"2":0.029553317561647332,"3":-0.051358206092241766,"4":-0.028541353993664288,"5":-0.04202265071678183,"6":0.058482963353292186,"7":0.011706814065358378,"8":-0.03232771275595012,"9":-0.04919351236025435,"10":0.011439851311865088,"11":0.013576878963861958,"12":-0.050464842475638844,"13":0.0345601984577327,"14":-0.027597020303756103,"15":-0.049350830872376766,"16":0.07416642569434745,"17":0.011203031136334645,"18":0.05236465498292981,"19":-0.0426037645435415,"20":-0.03576062524060623,"21":-0.043022856513142096,"22":0.008015330799702984,"23":0.03876661375184486,"24":0.018077402181394895,"25":-0.014098430507111152,"26":-0.018044840299366798,"27":-0.08591262861643179,"28":0.010063089246218989,"29":0.031415378804106726,"30":0.042538200476311516,"31":0.028335988380749334,"32":0.03404007764668638,"33":0.06477594180737915,"34":0.04792076113018919,"35":-0.011548130775011356,"36":-0.04350850920912694,"37":-0.009576455568158585,"38":-0.016191706455887432,"39":-0.042216111068912286,"40":-0.061483762576434245,"41":0.019040086214604877,"42":0.04195867410926801,"43":-0.09264086371898345,"44":-0.02520825982500697,"45":0.020769791518580435,"46":-0.03663539662471263,"47":0.031360102941612976,"48":-0.011984827864394811,"49":-0.050490548753954964,"50":-0.031026213775724443,"51":-0.003524217770048827,"52":0.013664593303219482,"53":-0.0750808457428356,"54":0.050942423443789644,"55":-0.032004198312576775,"56":-0.022329004102766725,"57":-0.028891325148549425,"58":-0.016208200160554992,"59":-0.07081575252002266,"60":0.005194331545053196,"61":0.006306497017417072,"62":0.044786480611386424,"63":0.057876668683688216,"64":0.02839003291547654,"65":-0.04252409829152736,"66":-0.01695769338469983,"67":0.011932026768071409,"68":0.10167530292378658,"69":-0.06874841153124928,"70":-0.005818186667417703,"71":0.018314021858333047,"72":-0.013996785827567849,"73":0.029150754026098354,"74":0.043638787059360126,"75":-0.03734332791252289,"76":0.04633499052811751,"77":-0.014648940004889487,"78":-0.011846059695044923,"79":-0.008979993955667159,"80":-0.018673696983745318,"81":0.028281171216007466,"82":-0.0003780889214836423,"83":-0.011150434442764005,"84":-0.029503097300300138,"85":-0.11808933200975447,"86":0.05393778639372095,"87":-0.020407226244637505,"88":-0.050945775981814156,"89":-0.023508518652241586,"90":-0.06358074384865024,"91":0.06433817052399854,"92":-0.007964317416348161,"93":-0.020306225868128566,"94":0.09717048660156567,"95":-0.013947671849664882,"96":0.01734779056545352,"97":-0.016838852701764672,"98":0.037814512244792126,"99":0.00862848858034795,"100":-0.02507417509531103,"101":-0.031018169241118963,"102":0.038049330156005236,"103":-0.028496203269438886,"104":-0.006598020775119171,"105":-0.039821572416118785,"106":0.04142544158383607,"107":0.04666194683482255,"108":0.05385502148867053,"109":0.05970120041557845,"110":0.021147364957391213,"111":0.033658337346219466,"112":0.022489721011709377,"113":-0.002716911688238145,"114":0.0002103615302254763,"115":0.1029986598340786,"116":-0.010910896998981276,"117":0.0020271817213796486,"118":0.020334319762076006,"119":-0.04937077567560369,"120":-0.021742902886915706,"121":-0.0026648993823824157,"122":0.005178822851867235,"123":-0.026465253646242737,"124":-0.026449828688159083,"125":0.07211613907226654,"126":0.012155223427500571,"127":0.02892232243915147,"128":-0.10735843922675614,"129":0.027908707264706147,"130":0.002087691691056672,"131":-0.016205482717134873,"132":-0.022038126273855756,"133":-0.012615170231889052,"134":0.0044347427979763215,"135":0.03958684092309404,"136":0.09725707971110849,"137":0.03541908081450519,"138":-0.0031335930090645833,"139":-0.020594278128201422,"140":-0.03935206902353108,"141":0.012822643787224284,"142":0.03467343191515883,"143":-0.014287815885868494,"144":0.06891146265123198,"145":-0.08914225128999177,"146":-0.07658901500136166,"147":-0.01209946611188014,"148":0.07208043566392837,"149":0.015821945665930513,"150":0.009533399865895836,"151":0.008005058649758538,"152":-0.019184993865096346,"153":-0.035617693888675785,"154":0.008481504174241022,"155":0.05353964935655765,"156":-0.05854262601987782,"157":-0.030398338441854755,"158":-0.03630934764642966,"159":0.09127077887959421,"160":-0.05073295650430579,"161":0.0015301896787460654,"162":-0.08345944306981105,"163":-0.03016060157633876,"164":0.05166865991437681,"165":0.023028145336601975,"166":-0.021107425063041144,"167":0.006748776948871813,"168":-0.06236709738875397,"169":-0.05549489906411356,"170":0.050987207464336534,"171":0.014463203319795262,"172":0.009908068228464507,"173":-0.06950411366843112,"174":-0.05585885882733981,"175":0.09173678929037045,"176":0.0939540471381524,"177":-0.04530394545955521,"178":-0.04673978795228614,"179":0.019985865717824854,"180":0.008189712881454205,"181":-0.044045689753869306,"182":-0.0767210628576972,"183":0.0026693555964538763,"184":-0.031841852739401426,"185":-0.03268311218708472,"186":0.06970501353864775,"187":0.008662010016329044,"188":0.031574170471855637,"189":-0.003900283256215107,"190":-0.04649502607684032,"191":-0.020769312741077076,"192":0.02498878896285133,"193":0.0285732461378358,"194":0.035995437258461174,"195":0.0968631706881749,"196":-0.019530869237955887,"197":0.02354948386395327,"198":-0.028707523731394083,"199":-0.019372118474355948,"200":0.04819140879823305,"201":-0.023210144646251506,"202":-0.033243254007856805,"203":0.0013164392818923447,"204":-0.008145258793322311,"205":-0.001331260042563015,"206":0.05225684891358897,"207":-0.057031087362842535,"208":0.017829325847703133,"209":0.01806986536531411,"210":-0.044149418509750515,"211":0.06256160276403253,"212":0.024045125312939297,"213":-0.041127895034806856,"214":0.03206969476615411,"215":-0.014634590937284931,"216":-0.038253497927794956,"217":-0.09170917268747718,"218":-0.05989428292557206,"219":0.009525520379972712,"220":-0.050315880936995926,"221":-0.054159827729129355,"222":0.006616362043742975,"223":-0.05741529469878586,"224":-0.012995988751764047,"225":-0.030890414965180794,"226":-0.06244750719658563,"227":-0.013156379379761421,"228":-0.015526895904969714,"229":-0.01428922733473588,"230":-0.06385458176019604,"231":-0.0005233851476338737,"232":-0.003719991633751434,"233":-0.06747126057782982,"234":-0.029768362969846408,"235":0.013786054691310591,"236":-0.044097474963798365,"237":0.0454657174833778,"238":0.027136284949675786,"239":-0.019108188078848665,"240":0.09146279931802821,"241":0.014975025430809035,"242":-0.03229509263544668,"243":0.07864303188239508,"244":-0.03191143620179847,"245":-0.09817237192454516,"246":0.0009846463243577774,"247":-0.05748023568865705,"248":-0.09533516881285524,"249":-0.04116284193398731,"250":0.020554637713991616,"251":-0.015896570927041883,"252":-0.011242706210145068,"253":0.0443554598924739,"254":-0.031122421017789267,"255":-0.06277499899842699,"256":0.04277448835187285,"257":0.011715211132500448,"258":-0.048331119408805905,"259":-0.05661716607033376,"260":-0.004536154023172459,"261":-0.02433635497965185,"262":-0.03296473698829977,"263":-0.031190551753711843,"264":-0.03108302852462271,"265":0.0650204533005236,"266":-0.006858251117150657,"267":0.04965796385497216,"268":-0.03319250859340838,"269":-0.02566066816352194,"270":0.026825202718893635,"271":-0.03183906637871322,"272":-0.04948436498830391,"273":0.08359638977326385,"274":-0.05468241081897183,"275":0.05381271800117631,"276":-0.0390791099539729,"277":0.04756943022431042,"278":-0.02415500747730602,"279":-0.011653524928335162,"280":-0.04483488502802865,"281":-0.06878836635170298,"282":-0.004379460000745945,"283":0.0020005854363784794,"284":-0.03041311780621907,"285":0.014511399196677375,"286":-0.02288678575546969,"287":-0.012211114423008661,"288":0.05074692047432682,"289":-0.07043313291893656,"290":0.048861972664648444,"291":0.0049543517314344825,"292":-0.002488463469256219,"293":0.006617332881265242,"294":0.0017758536693887562,"295":-0.06611298209682319,"296":0.01124185920676765,"297":0.03653060624619142,"298":0.020543204934662985,"299":-0.06327038374768894,"300":0.07822569211084887,"301":0.00737708209877648,"302":-0.004719606536543122,"303":-0.011934422182783693,"304":0.059605633264895694,"305":0.03223686935155316,"306":0.007721898173137254,"307":-0.022876469267814118,"308":0.020232707915808106,"309":-0.013409068182259438,"310":-0.017865744720269184,"311":-0.02340540672287024,"312":0.0022891890235816905,"313":0.012594849164148273,"314":0.08102006973458391,"315":-0.03434869304178171,"316":-0.02039336632642766,"317":-0.019157991477183004,"318":0.036210966348853874,"319":-0.0696620226468646,"320":0.029494761778360728,"321":0.024174003156792096,"322":-0.07748042071762999,"323":0.026204844700197027,"324":0.057378594495142474,"325":0.005446578553986636,"326":0.0007448775227358139,"327":0.03240200690934362,"328":-0.0635179292981593,"329":0.0007346679479160108,"330":0.06679108050664097,"331":0.013586411451912273,"332":0.025111469427970688,"333":0.029798209920969702,"334":0.09498760007231452,"335":0.0037579080653509576,"336":0.08204363477986965,"337":-0.0446535836936332,"338":-0.018100141846559534,"339":0.016535113749882927,"340":-0.016547692173989142,"341":0.03374581937196394,"342":-0.04112389922885349,"343":0.0838123003110252,"344":-0.003087366457776389,"345":0.06289756948640955,"346":0.0077489128688251535,"347":0.05436569042239953,"348":0.05055282737303507,"349":-0.0046572217336789245,"350":0.0482590869247449,"351":0.02827078719047748,"352":0.028456199927134544,"353":-0.0985855190760881,"354":-0.10884548909614772,"355":0.016474687075888107,"356":0.02627647187136186,"357":0.023867547960443422,"358":0.06173415402792207,"359":0.00647313410364288,"360":0.012669160749203807,"361":0.017868558859490388,"362":-0.03823416022992483,"363":0.009052973732521832,"364":-0.06187891456725582,"365":-0.017837139978144925,"366":-0.020936983531115047,"367":-0.009733025702225274,"368":0.004906811625286817,"369":-0.00045186847370319924,"370":0.06164811643511459,"371":-0.07223006729799543,"372":0.0503328613246025,"373":-0.024866185788688985,"374":0.01244069259030651,"375":-0.0020537948165232018,"376":-0.024253336947580945,"377":0.036920786777708554,"378":-0.04384319856325021,"379":0.09165882642278997,"380":-0.048469652411573756,"381":0.022717534156148023,"382":-0.02204515866800709,"383":-0.015891054499029396,"384":-0.05886487961031949,"385":0.036054901651244,"386":-0.014553117436389821,"387":-0.0343246271621456,"388":0.013246532783070043,"389":0.03488105700375875,"390":-0.04339546599433147,"391":0.055220274696846094,"392":-0.0393054920233776,"393":0.06467414329743983,"394":-0.05579252137319586,"395":-0.028531177340902984,"396":-0.042059950667228015,"397":0.007953404873342555,"398":-0.02021889422766523,"399":-0.023753875204158705,"400":0.07336017010395846,"401":-0.02655147847541328,"402":-0.030327144886891796,"403":0.0036245766247152643,"404":-0.009282097630307752,"405":-0.06807445531630947,"406":-0.041585836419226495,"407":-0.009703875034562753,"408":-0.046503861990755624,"409":-0.03561221254376535,"410":0.008039719085645576,"411":0.015015455239295032,"412":0.03268332360259988,"413":0.0064883193652086595,"414":-0.022836211981267264,"415":-0.05176023753950809,"416":-0.016725172422546987,"417":-0.07772525752458115,"418":-0.04126975745404006,"419":-0.03538642898840086,"420":0.05999178023511974,"421":-0.01735237782182943,"422":-0.009129795050054585,"423":0.004465909974983624,"424":-0.013695286596281086,"425":-0.07720555458722507,"426":0.0003642141915564001,"427":0.031188996171536993,"428":-0.023183711292991786,"429":0.026297404851756717,"430":0.06760400614296751,"431":-0.01907252222172877,"432":0.08153248271588513,"433":0.05046008426321168,"434":0.02448255589078409,"435":0.03122381310704655,"436":-0.05851390717502744,"437":0.018315853047062392,"438":-0.0022695455726082976,"439":0.008799915199772313,"440":0.014184339765985113,"441":-0.02348886473165312,"442":-0.0009917708248246208,"443":-0.012294610199141832,"444":0.010990772516383496,"445":-0.009064317035737493,"446":-0.015337015812643058,"447":0.006436222061131123,"448":0.0051562633587704755,"449":0.0013307128530010632,"450":0.09201533389605004,"451":-0.036450126513326214,"452":0.0035367323260418917,"453":-0.018524209300388516,"454":0.08073683989093282,"455":0.033634824495648474,"456":0.014957327282041012,"457":-0.0021112879262214592,"458":-0.00014421834655242022,"459":0.024127774641332093,"460":0.007699923027090454,"461":-0.09162701350182877,"462":0.05796645396605432,"463":0.0008488445259481123,"464":-0.08793846002344391,"465":0.02249476167753046,"466":0.04930197995604318,"467":-0.0743892407407534,"468":-0.050774766500715295,"469":-0.04428544259185263,"470":0.0626811648869476,"471":0.01622988185318455,"472":0.020969280518524917,"473":0.021455775206026297,"474":-0.02668313819437495,"475":-0.06211549331748685,"476":-0.012053615991271435,"477":0.0017690709456551614,"478":-0.02247361264454339,"479":0.05851480473438549,"480":0.03595572268369261,"481":-0.022137706792290626,"482":-0.035685031748819276,"483":0.03048435063128651,"484":-0.03783482259483967,"485":-0.029883459602605075,"486":-0.057923471045421435,"487":0.05469849973237666,"488":-0.07943393685871657,"489":0.005129481569333076,"490":-0.011181289229884681,"491":0.03333860864861614,"492":-0.005258489915867441,"493":-0.06620079229663879,"494":-0.02679160792106815,"495":0.029085654580476118,"496":-0.07469147950019953,"497":0.019299779647471513,"498":-0.0414575400087987,"499":0.008363487493180293,"500":-0.04343430545305371,"501":-0.014585858613010491,"502":-0.03976817444675158,"503":0.03675895073417622,"504":0.022798680291872653,"505":-0.03147290744116375,"506":-0.10008976065596287,"507":0.03308644230843539,"508":-0.06693545431419258,"509":0.023219609086955015,"510":0.06503191341424024,"511":0.03652090324066983,"512":-0.05187798182580675,"513":-0.002490437236567141,"514":-0.04926225160455393,"515":0.02623669934168205,"516":0.035230793766262876,"517":-0.03470776382199975,"518":-0.0020035838022590584,"519":-0.06640214612241044,"520":-0.005963418912098344,"521":0.05589560763312671,"522":0.013586874994866969,"523":0.06887767936930504,"524":0.032698194547086154,"525":0.04586471412736682,"526":-0.01665110104642054,"527":0.021022750757935197,"528":-0.014006263944555933,"529":-0.031230259657366272,"530":-0.017322916263153257,"531":-0.02848154071853779,"532":-0.02292161482237017,"533":-0.009589465401385276,"534":-0.022840860584307992}},{"sx":1,"sy":1,"depth":535,"w":{"0":0.04942308461611809,"1":-0.00864931392997296,"2":-0.008956122062141194,"3":-0.02979878826695281,"4":0.058604395235156065,"5":0.11859714265601852,"6":-0.048320541280268275,"7":0.026014669183160023,"8":-0.01937212246109406,"9":0.08816729156947296,"10":0.0018400568533706748,"11":0.07730931361507193,"12":0.06869476631860241,"13":0.04797126313880191,"14":-0.024416431568248607,"15":0.020868616084244805,"16":-0.021909664681123563,"17":0.033336179783899425,"18":0.008895416404054085,"19":0.03873769515726291,"20":-0.06214101486842039,"21":0.08405432872615773,"22":0.08535808446557969,"23":0.01587251443006321,"24":-0.07093398935484067,"25":0.06176508848162489,"26":0.05405996722936922,"27":0.09098514879453408,"28":0.0022132330547784307,"29":-0.025358920329164647,"30":0.0329450330362656,"31":-0.01247019861774346,"32":0.03142897572200707,"33":0.008548493677095976,"34":-0.08177239059587407,"35":-0.03404272391854846,"36":-0.09265887104791606,"37":0.008880203124114536,"38":0.024681318835936827,"39":0.08099618953065937,"40":0.010929954835358418,"41":-0.01746825463514532,"42":0.04388089327768915,"43":-0.003136195890033687,"44":0.04818009333814526,"45":0.031829955745153106,"46":-0.02652598594264782,"47":0.03080515743107565,"48":0.001041370902546903,"49":0.029486715990582293,"50":-0.030157639632114392,"51":0.044624841003048775,"52":0.1290075067796222,"53":0.05701849318677749,"54":0.044580865468371624,"55":-0.02916715420784356,"56":0.05201826631799634,"57":0.08192143364537079,"58":0.09590914006736387,"59":-0.015510116603840066,"60":-0.10250133477199093,"61":-0.03958018264996013,"62":0.07749752312163222,"63":0.1279195433112849,"64":0.05767095388200813,"65":0.07368187846489152,"66":0.0036412940717736007,"67":0.01913478167793214,"68":0.002296381463012552,"69":0.06049887600946045,"70":0.06549111965314823,"71":-0.006576615218417582,"72":0.011522999037365155,"73":-0.02685820112837343,"74":0.035119435015090114,"75":-0.020157990834366084,"76":0.006970339661966699,"77":0.03852524487185844,"78":0.05714008640102662,"79":0.03384170177659969,"80":0.010580371491599107,"81":0.0619369351074813,"82":0.05499050821021226,"83":0.05412734501992732,"84":-0.028496664213053878,"85":-0.11662987048680602,"86":0.004093603787197337,"87":-0.01951567444084653,"88":0.001585421025993103,"89":0.012882131103962127,"90":-0.0548149957425333,"91":0.07662343087184555,"92":0.1287741933231027,"93":0.05244933219120995,"94":0.02613108268972883,"95":0.013653922052203673,"96":-0.022848104603500924,"97":0.1649871197975724,"98":0.04749836122534791,"99":-0.07705257899354512,"100":-0.008798445918900947,"101":-0.011382648626896603,"102":0.10229313980848453,"103":0.09453096108589831,"104":-0.05111331323574481,"105":0.024062220716822694,"106":0.04304399349666401,"107":0.1407889303745379,"108":0.0340959062078657,"109":-0.021030037669536948,"110":0.005125844785546858,"111":-0.05853306800658379,"112":-0.006433532716602107,"113":0.014258455030993836,"114":0.03262856117443772,"115":-0.049883520039035255,"116":-0.043083403875931195,"117":0.003840800085868853,"118":0.03125090701953627,"119":0.04322036925750873,"120":-0.02727989871318499,"121":-0.04671682212584539,"122":-0.02982037670966255,"123":0.046529302917750315,"124":-0.08539671145013789,"125":0.0342375555310659,"126":0.05006400359664802,"127":0.03381101991595668,"128":0.014935826936137967,"129":-0.00230690530843856,"130":0.040979441717984684,"131":0.024942451016014996,"132":0.060330995704393264,"133":-0.03334266034373393,"134":0.005135435268465971,"135":0.0638446138892432,"136":0.04014602417064074,"137":0.04383623459973107,"138":0.05041313704380496,"139":0.011672965766404206,"140":-0.03960617216203737,"141":-0.03430333540430712,"142":0.019982823744219766,"143":0.005639244081354764,"144":0.021530175514629688,"145":-0.05764171575188285,"146":-0.044678851759851194,"147":-0.047025568460968,"148":0.04085576882368575,"149":-0.0063223677622774544,"150":0.045497135567466596,"151":0.042015282877071104,"152":0.037849767937671454,"153":0.03622027144882895,"154":-0.028444767572170505,"155":0.04770318267985348,"156":0.025798556327092492,"157":0.00943895337683349,"158":0.020820046010373034,"159":-0.042047584209774246,"160":-0.009658126486319857,"161":-0.08063342642316665,"162":-0.006010654665343059,"163":0.06712258368844184,"164":0.027618790764200877,"165":0.06874899748683058,"166":0.02923342802778241,"167":0.06885537110009377,"168":0.08056550013108783,"169":0.1434974525688482,"170":-0.027074340949953292,"171":0.026988954236569225,"172":-0.01446566391839555,"173":0.05312899253185503,"174":-0.05976076813593651,"175":-0.05315666757753288,"176":-0.01249216765106972,"177":-0.00656722277786451,"178":0.054432538484629873,"179":0.01610574381264157,"180":0.046535272286424685,"181":0.033586349258854564,"182":0.01741882310783762,"183":-0.02568282285191056,"184":-0.0963431462002763,"185":0.04196334840232028,"186":0.025224197858091518,"187":-0.03344175346858404,"188":-0.027606978856390053,"189":0.01622080935867604,"190":-0.019555596839894183,"191":0.045290168380352255,"192":-0.0003507284554086631,"193":0.10516911317101724,"194":-0.03158518080799494,"195":0.027038838269153348,"196":0.011521780975626473,"197":-0.005517086724111762,"198":-0.0002685967488789656,"199":-0.03856693419562777,"200":0.03217934289036312,"201":-0.027819882974699197,"202":-0.006106875508048317,"203":0.09140992833253288,"204":-0.06801164530647451,"205":0.007351977399657895,"206":-0.04995323529171779,"207":-0.01751373531595121,"208":0.10995827249528388,"209":-0.045090418473550456,"210":0.012001511722926966,"211":0.026460433060751375,"212":-0.03703759234172416,"213":0.053921208563219254,"214":-0.012063665825064627,"215":-0.020472198288683876,"216":0.032691639882081326,"217":-0.027376851003743055,"218":0.057300086304536854,"219":0.0006971472113569372,"220":0.02038972977714458,"221":-0.024499507622465146,"222":0.07114994799223899,"223":0.06735720624130838,"224":-0.011416076052997218,"225":0.023225118264051034,"226":-0.05335078681072084,"227":0.04773749281254541,"228":0.06194086879313646,"229":0.003608293168936663,"230":-0.0027688895604999915,"231":-0.036881467277544766,"232":0.0038201681660108436,"233":-0.0025793514360669856,"234":-0.020000250752042276,"235":0.04067515865721795,"236":-0.07068528446936477,"237":-0.04796329002724526,"238":0.0012151576549284408,"239":-0.018037145905075522,"240":0.04211418784469393,"241":0.032252993209774164,"242":0.01952488364155526,"243":-0.04359615289357782,"244":-0.009648723386454594,"245":0.08609996339850316,"246":-0.00047547327481106384,"247":-0.0007653669142266308,"248":0.06477346367855583,"249":0.017830461597478857,"250":-0.0208516594263601,"251":0.0779766045665034,"252":-0.043218278648412004,"253":0.09803279698782122,"254":0.030069512813930964,"255":0.047003256097658444,"256":0.02820467666413245,"257":0.036054712400181044,"258":-0.009094384053025276,"259":-0.1012439027077952,"260":-0.06537227402544411,"261":-0.0377520250008702,"262":-0.040941574706117846,"263":0.03461231968741263,"264":-0.02452840750345761,"265":-0.024962628779661284,"266":-0.0273367457272978,"267":-0.03597288460073926,"268":-0.05230167500984429,"269":-0.033098021762430783,"270":0.012522948037844329,"271":-0.028165960216890686,"272":0.02448339267671272,"273":0.020684017009834743,"274":-0.015895059250116986,"275":0.007444074844428441,"276":0.03487150370932558,"277":0.013563103237136588,"278":0.06993644234655001,"279":-0.02632759903209076,"280":0.07197869043518712,"281":-0.022258606439824653,"282":0.02519566858048467,"283":0.008743365904701894,"284":0.023350700834793604,"285":-0.009236365332607122,"286":0.08238893795214648,"287":0.020815472181843122,"288":0.01822118324101941,"289":-0.014394715533717042,"290":-0.004039292527054072,"291":0.012171601935148244,"292":0.027242288517579857,"293":-0.01186857737552797,"294":-0.04595075980627269,"295":-0.002965976797896527,"296":0.021491270408730744,"297":0.014712005126901517,"298":0.021927495556175194,"299":-0.09581382078453494,"300":-0.005208805856270985,"301":-0.0535165736499973,"302":0.06612195753649662,"303":0.04690327713673879,"304":0.03666952926990455,"305":-0.006954622838796202,"306":0.024322691152346115,"307":-0.014730831200010359,"308":0.0064010779006202605,"309":-0.07319281488322786,"310":0.009205372454112277,"311":0.014581469316928719,"312":-0.04293412883595574,"313":0.048571712348276896,"314":0.04025329274444689,"315":-0.00406493978584582,"316":-0.028629242477747913,"317":0.01856431810464691,"318":-0.07734624996668339,"319":-0.022283473832896313,"320":-0.034010361498801184,"321":0.005147311957079458,"322":-0.03594345908279465,"323":-0.03443442499660952,"324":0.03903860739780471,"325":0.032401920869556226,"326":0.007351679743731083,"327":0.015036988492560188,"328":-0.07538254951386916,"329":0.03524944960759717,"330":-0.06765065210085994,"331":0.002679449732033924,"332":-0.07757235813566322,"333":-0.05436488318933028,"334":-0.05911049379379743,"335":0.035067740633544155,"336":0.013857378003927823,"337":0.037730409918994484,"338":-0.01432737522336297,"339":-0.025986690389332514,"340":-0.022682068882384793,"341":0.037763846980688416,"342":-0.04087687163863712,"343":0.045462186252675604,"344":-0.0001505687531026352,"345":0.03611125719860399,"346":0.08128092947848282,"347":-0.0027833708560656323,"348":0.01033900059121468,"349":0.05044502178526708,"350":-0.02692966155482033,"351":-0.032777706210648454,"352":0.05181564782345847,"353":-0.00006846679729230296,"354":0.013142396327349048,"355":-0.042295794283885295,"356":-0.012353590152231494,"357":0.04864187927857043,"358":-0.0535046548979093,"359":-0.05561112327289959,"360":0.02143524341394128,"361":-0.04635647450485148,"362":0.024032148192280355,"363":0.06955241679073025,"364":0.05542106254417637,"365":0.1060371197707579,"366":-0.013216638931952742,"367":0.04915570960332374,"368":0.03689385854939749,"369":-0.07555784346013815,"370":0.0016129558034551406,"371":0.05152224811604116,"372":0.022551450038642527,"373":0.035628343628256856,"374":-0.046863768982233385,"375":0.056220333842645964,"376":0.007716533650449292,"377":0.002544825598680977,"378":-0.01388566783936614,"379":0.04131362242493771,"380":0.008447534336218733,"381":-0.11474531242573746,"382":0.03750978203440985,"383":-0.022002812410745,"384":-0.012337516848302603,"385":-0.013633854205572497,"386":-0.06046886314150647,"387":0.025569918376024965,"388":0.011258389199030347,"389":0.09230846577334566,"390":0.04089185198774854,"391":0.026443599143365297,"392":0.05971980310857348,"393":-0.001536465724975009,"394":0.05973333874600474,"395":0.022910585540432262,"396":-0.024863425961053027,"397":-0.05554494079050204,"398":-0.05383844228561011,"399":-0.07885132107228335,"400":0.008861243298179054,"401":-0.0956020993188692,"402":0.0026218174791915803,"403":0.04142435817740974,"404":0.008292200727063654,"405":0.039300060901398384,"406":-0.015614292469491406,"407":0.02580205823112339,"408":0.06684933251808446,"409":0.0448658640504363,"410":0.004456926663961195,"411":-0.0835576462801079,"412":0.01574811159538989,"413":0.079090680716522,"414":0.076026605752153,"415":-0.0027931059814228967,"416":0.013958368582468836,"417":0.01205568260479791,"418":0.053368518363436465,"419":-0.02296803067950599,"420":-0.03650627779945438,"421":0.06219705910914294,"422":-0.07254732648531695,"423":0.019964666209186837,"424":0.01865962158120663,"425":-0.005014676565841338,"426":0.034146980371350964,"427":-0.026418186044741183,"428":-0.03507859901230968,"429":-0.0211560032987208,"430":-0.03801986461579434,"431":0.03302067363920258,"432":0.012600919745343117,"433":0.041625005469588076,"434":-0.01217962067218891,"435":-0.03289819933760185,"436":0.03931998487125988,"437":0.04090413481253277,"438":-0.003914960472521032,"439":-0.041265184331641044,"440":-0.00598626806310194,"441":-0.0036285695493319904,"442":0.055489495996604625,"443":0.08148954083226587,"444":0.03406984735461836,"445":0.020532532805744724,"446":0.0383851379752371,"447":-0.06967060618867987,"448":0.06801315591994711,"449":0.03361863482168587,"450":0.0044778327839839335,"451":-0.009058025752359021,"452":0.06590442384683286,"453":0.05541569445565312,"454":0.03487886046355496,"455":0.059676932644413,"456":0.007276519537351353,"457":-0.007557736535058364,"458":0.09409243701596577,"459":0.06089135482260159,"460":0.05533974522063848,"461":-0.008165499849077334,"462":-0.054414699016110145,"463":0.06562447597712398,"464":0.033797587978027344,"465":-0.01033624857884091,"466":0.007852467091351392,"467":-0.01861494387885745,"468":-0.04081969749960431,"469":-0.03635664811317036,"470":0.023108591538163158,"471":0.04020738104704211,"472":-0.05773590755769135,"473":-0.004033709953879195,"474":-0.03576997346094179,"475":-0.03990131881127785,"476":-0.010390106262482874,"477":0.01248969795673209,"478":-0.0002546192458447704,"479":-0.07741825959858209,"480":-0.007779418804341401,"481":-0.010292788228953612,"482":-0.06678835069266183,"483":0.004312358953274322,"484":0.004853708201174513,"485":-0.06208560355610631,"486":-0.020450796845141027,"487":0.04954411047075074,"488":-0.06742670429186856,"489":-0.011828419872907014,"490":0.007810843956793019,"491":-0.00918885443295415,"492":-0.013460167633009331,"493":0.014089552911074922,"494":-0.04141841037697938,"495":0.04009623679172787,"496":0.07097688885595715,"497":-0.0033050522106580537,"498":0.02547511218067238,"499":0.02570175107906082,"500":0.01007938517489286,"501":-0.03907080785709856,"502":0.11102297938242121,"503":-0.03776815801875075,"504":-0.007985801846718406,"505":-0.013120642877992555,"506":-0.025985930398936888,"507":0.011387620000595382,"508":0.007602640959765725,"509":-0.04081529681422021,"510":-0.02632553718207491,"511":-0.04432573428938303,"512":-0.0004955221696558716,"513":0.05153734714215511,"514":-0.01274773351845773,"515":0.022997840924086747,"516":-0.03170236892443679,"517":-0.04689662241118292,"518":-0.06970322758384169,"519":0.02132625210317183,"520":-0.09227135177711872,"521":0.05930552256614917,"522":0.01145405983233652,"523":-0.046884273820064985,"524":-0.0346315283389605,"525":0.046461389671587985,"526":-0.07506277967012072,"527":0.008743201353267524,"528":0.0026242027932671646,"529":-0.019260777270681435,"530":0.023740369567331575,"531":-0.09712633158248243,"532":-0.02468179568649097,"533":0.011278925527441704,"534":-0.0761273732925535}},{"sx":1,"sy":1,"depth":535,"w":{"0":0.0852928012537702,"1":0.05946935039944383,"2":0.1047717343738196,"3":0.024308612404055345,"4":-0.01153708579919632,"5":0.0550214220788032,"6":0.004304925620639882,"7":0.04083492373104418,"8":0.029669508497845217,"9":-0.05798758408703412,"10":-0.019350127731031907,"11":0.12806039021881824,"12":-0.018228049913161497,"13":0.04745775657619532,"14":0.03797600336795007,"15":-0.06460104072867662,"16":-0.05602355118002086,"17":-0.015070836594499381,"18":0.004482072111071555,"19":0.04624449319406288,"20":0.009286515346257553,"21":0.09852186644018125,"22":0.16415657415171256,"23":-0.02001263490289232,"24":-0.05486403791337997,"25":0.031424533805639074,"26":-0.0011063519187878969,"27":0.04878774286282831,"28":-0.03160764598720346,"29":0.015876608046509307,"30":-0.0510621099569073,"31":0.008353485523933205,"32":0.009422357012852382,"33":-0.00828608304039159,"34":-0.023752754302281093,"35":-0.055865766884298985,"36":0.011752058436124138,"37":0.013521554531487531,"38":0.04514493529620241,"39":0.009016478664354467,"40":0.007911306110767435,"41":-0.029136839850907918,"42":0.13941756633204652,"43":-0.04763629788260214,"44":0.05292374349239905,"45":0.044295969438524097,"46":0.05121397878785975,"47":0.09345328024880895,"48":0.055243632863470324,"49":0.019091821241346774,"50":-0.01821311198785166,"51":0.07695932526281869,"52":0.20998797748194278,"53":0.016975314842946922,"54":-0.03948683142489076,"55":0.08238748424563172,"56":0.0739210007356841,"57":0.13090120689241863,"58":0.09696401779930715,"59":-0.14282948923235442,"60":0.04252747440557447,"61":0.0567263904664309,"62":0.08108078089051246,"63":0.0007887941534960094,"64":0.02075453533656978,"65":-0.02309076928586651,"66":-0.01824671277141057,"67":0.09629826040932865,"68":-0.00243256385766449,"69":0.022689354656963805,"70":0.0002482595328843019,"71":0.04487500198805336,"72":-0.00981029342285978,"73":0.028558565583291205,"74":-0.1005262380550243,"75":-0.034483422168385826,"76":0.04767681442704792,"77":0.022879065715486507,"78":0.11844572106886866,"79":-0.022963453592871764,"80":0.0435565830794295,"81":0.12666221473177222,"82":0.019382709547196612,"83":-0.000489301027435585,"84":0.06028023917319813,"85":-0.05573683926675724,"86":0.03977385643320056,"87":0.03536252019174087,"88":0.09210357251205827,"89":-0.03167372075230636,"90":0.021654932567858356,"91":0.07504937214021652,"92":0.17072131268624202,"93":0.04637559925979749,"94":-0.029905900752389004,"95":0.02592387447799262,"96":0.08017050834015073,"97":0.16722844058231529,"98":-0.02723144483476118,"99":-0.08171575161170655,"100":-0.026587352894830447,"101":-0.007061845373340893,"102":0.1453892095515607,"103":0.02249528327511992,"104":-0.029678304449535686,"105":-0.04833647925739002,"106":0.06404284013600846,"107":0.11282552035723718,"108":0.061737659396078955,"109":0.0018879221909866577,"110":-0.010650942938334707,"111":0.03821783202301836,"112":-0.042215825717084016,"113":-0.0015602876128061446,"114":-0.048958490173138636,"115":-0.008101051306208732,"116":-0.02651259888095347,"117":0.06653649999509358,"118":-0.007051793327960261,"119":0.014921434083325667,"120":0.04268694267219999,"121":-0.041694380991317684,"122":-0.016473156406314884,"123":-0.05152688271769795,"124":-0.07535614496337391,"125":-0.019776207296678606,"126":-0.07643272784611838,"127":-0.028662323609242618,"128":-0.025009264958296654,"129":-0.052602945840070074,"130":-0.06994641651571287,"131":0.031168235189611697,"132":0.0670065533106741,"133":0.04767412223623939,"134":-0.05184074018505609,"135":0.020785821011115622,"136":-0.005482651713828308,"137":0.06274004949086331,"138":-0.03965042224335202,"139":0.012957366652062322,"140":0.03631656720711366,"141":-0.034929619302887426,"142":0.0532745011399071,"143":-0.01014856450586837,"144":-0.0002517482671695206,"145":-0.06768711866045761,"146":0.04565235384761177,"147":0.014003031126513313,"148":-0.010361107992780645,"149":-0.05974375320666338,"150":0.023469396451281432,"151":-0.05816199562762009,"152":0.050237941909659745,"153":-0.013573943510819149,"154":0.08127523157547878,"155":0.0314078690916451,"156":-0.022689238714275778,"157":0.07324212404908896,"158":0.023886703729428613,"159":0.007327729120349115,"160":-0.0015670201896271108,"161":0.015742600370305424,"162":0.04254149560254334,"163":0.036311319551688676,"164":-0.028535574267474516,"165":0.007579070603026989,"166":0.011914764961552016,"167":0.03260559585645423,"168":-0.034908952322281264,"169":-0.006928379954006848,"170":-0.06251416118638671,"171":-0.030034697780804778,"172":0.06289870065322468,"173":0.017271442043351883,"174":0.009497398041492067,"175":0.020208387293003727,"176":0.05808802319691506,"177":0.0825181912421012,"178":-0.04727766043086154,"179":0.02158357884784226,"180":-0.09433804890008074,"181":0.04089981703949469,"182":0.0025164190744403686,"183":-0.016052185111367488,"184":-0.03168264143328024,"185":0.005364539029262998,"186":0.031912046049819676,"187":0.0424703575973257,"188":0.03640330291404196,"189":-0.019291869820744455,"190":0.046070128924513,"191":0.08012033171002136,"192":-0.07540536500621485,"193":0.011551559717341123,"194":-0.0740717424454041,"195":0.13644462881127584,"196":0.08151758806688944,"197":-0.04730947321487994,"198":0.0005838779613062236,"199":0.0319580504943257,"200":-0.020596239531132928,"201":-0.01841054528668429,"202":-0.10687825840611744,"203":0.01379249314485942,"204":-0.06673123399791771,"205":0.02869383031699604,"206":0.05341933411639297,"207":-0.018749773501395704,"208":0.0008010509685361436,"209":-0.09363559287929175,"210":0.020565915328275435,"211":0.05710256243739894,"212":-0.02025017520758665,"213":-0.023786878210550335,"214":-0.07135861070573771,"215":-0.01343112920893456,"216":0.07310703587139207,"217":0.0020812975765274414,"218":0.026421933111311566,"219":-0.01438010792241136,"220":-0.04062109317344246,"221":0.03699155818011532,"222":0.0006042687899265145,"223":0.09456112169392149,"224":0.025862767616430447,"225":0.07686161453737989,"226":0.082807577681298,"227":-0.005434452685202483,"228":0.057214845773936804,"229":-0.024270911989638405,"230":0.05412073953677977,"231":0.074264874239141,"232":0.018033356561773253,"233":0.01817140355518119,"234":-0.04790511183059709,"235":0.003284020424615302,"236":0.013338345882412513,"237":0.08983912109884537,"238":0.03694493015966254,"239":-0.0135766615835899,"240":0.09876409386718174,"241":0.05639683397403046,"242":-0.021443545763661642,"243":-0.024259718733270746,"244":-0.018954146230376268,"245":0.00022368103815206288,"246":-0.052123143427113605,"247":-0.041250499132890715,"248":0.009898327394754302,"249":0.025853460380751127,"250":-0.06306754141358172,"251":0.05122787051438543,"252":-0.02621980130157787,"253":0.011932720207381552,"254":0.01710366723615158,"255":-0.06661708693225835,"256":0.023962240787023994,"257":0.01999185380989577,"258":-0.02915575898971686,"259":-0.07789371339559462,"260":-0.03097028899130539,"261":-0.1278809021919629,"262":-0.026725813117269688,"263":-0.006518073726445063,"264":0.0316306687447321,"265":-0.06542806831041623,"266":0.03511363151604705,"267":0.05925570342857659,"268":0.047078819307901046,"269":-0.017544619023198125,"270":-0.03897887159274717,"271":0.05077615847188286,"272":0.07426147997668835,"273":0.0030397143964946906,"274":0.042047647392563295,"275":0.045662096249579356,"276":0.048126530060351135,"277":-0.039355838799504314,"278":-0.03979916785972399,"279":0.02009238529680026,"280":-0.016456485469600046,"281":0.06021584197562329,"282":0.023959256622674743,"283":0.11840548743368103,"284":0.058044856804219315,"285":0.002411988115993812,"286":0.02169363001213103,"287":-0.03627224432155546,"288":-0.009882171155561123,"289":-0.0038242734462052377,"290":0.005842780327232572,"291":-0.04909850155126773,"292":0.010329949540475444,"293":-0.005470426299857788,"294":-0.007612173195971396,"295":-0.01594601379211686,"296":-0.02220414412644673,"297":-0.005643314875968961,"298":0.04160925833238484,"299":0.08493286086950927,"300":-0.029568828069686446,"301":0.12523441099658678,"302":0.026941277634295584,"303":0.07606582013551978,"304":-0.05857070020085652,"305":0.000604831353730511,"306":0.02163112032701195,"307":-0.015416026520580413,"308":-0.0388733555941512,"309":-0.019973262851745017,"310":0.0728294838471832,"311":-0.035428246854404384,"312":-0.017316314605726815,"313":-0.06784773510861732,"314":0.010240898599642306,"315":-0.08049625625363194,"316":-0.055854039467148335,"317":-0.02824680479432101,"318":-0.04164165263707921,"319":-0.004865580842217171,"320":-0.005866025418521667,"321":-0.016956893441018847,"322":-0.03941459042750175,"323":-0.016903871804176487,"324":0.0007855793767841946,"325":-0.02549700750302589,"326":-0.028795957056439926,"327":-0.04573046597488131,"328":-0.006125057092395593,"329":-0.01647575510567438,"330":-0.01262570426803363,"331":0.028051343644470702,"332":-0.010972751001839675,"333":0.0035057350286421454,"334":0.038754658719455104,"335":-0.03953020009901513,"336":-0.015904935069637548,"337":-0.027461052467844936,"338":-0.01968926564805458,"339":-0.06480998637099192,"340":-0.03611235524240764,"341":-0.029112635726540357,"342":-0.010106181185858907,"343":-0.015476521606472799,"344":0.015796916063199166,"345":-0.013150209836423286,"346":0.014157301683437222,"347":0.05337551425796707,"348":0.01258758086796036,"349":0.07985616552941892,"350":-0.02206004365755137,"351":0.018662607752378744,"352":0.07170858603262338,"353":0.06440683527109915,"354":-0.08350426809940674,"355":-0.022100825489843847,"356":-0.04768640569692641,"357":0.03891822168342769,"358":-0.010915210801080927,"359":0.01680426001443116,"360":0.011824737637932575,"361":0.09052212600812222,"362":0.06467564812114178,"363":-0.02981800008578192,"364":-0.021463949147202586,"365":-0.01223451839021949,"366":0.09366171151927817,"367":0.02284454369405957,"368":0.06876499599200267,"369":-0.02477911076083049,"370":-0.010131509417550418,"371":0.011144429447772526,"372":0.07513881219654127,"373":-0.06586071289697247,"374":-0.010913309430944857,"375":0.015864223894662275,"376":-0.019630872321287313,"377":0.028848206029385776,"378":-0.029825051656880673,"379":-0.013224288125090163,"380":-0.02809384983056467,"381":-0.03510905644424288,"382":0.005539182766673773,"383":-0.016583621325777738,"384":0.05815186225563252,"385":0.0080464253291985,"386":0.026408473120141822,"387":-0.06677766652717915,"388":-0.039605643592405905,"389":0.008446096556729276,"390":-0.012628110813315113,"391":-0.03724119207148848,"392":-0.02418098038406735,"393":-0.09514062825550917,"394":-0.04131867970934522,"395":0.01305482753887734,"396":-0.02225041509070564,"397":0.001458682665249077,"398":-0.08942464998129862,"399":-0.0199603496737141,"400":-0.006263254639788633,"401":-0.031150339582462692,"402":0.12480434337599328,"403":-0.04926062904927194,"404":0.07024173360926027,"405":0.0038326300980399456,"406":-0.042548278820258,"407":-0.0009297166775236514,"408":-0.009537325378807937,"409":-0.06048570061491469,"410":0.009320977520742593,"411":-0.002202801268340441,"412":0.04440421808926302,"413":0.042315082328787244,"414":-0.0224309963299184,"415":-0.009397600765077162,"416":-0.015784722151555068,"417":0.026069154322988237,"418":0.022348397652986116,"419":0.04939563562293904,"420":0.019836823275810038,"421":0.02002287288570201,"422":0.025227843567829866,"423":0.0971898483133049,"424":0.03849517349147019,"425":0.008471791578314966,"426":-0.022488976264703853,"427":0.0010263060403071362,"428":0.004383971924395327,"429":0.042265573678755296,"430":0.01572671301368599,"431":0.0475367247486274,"432":-0.008568084717051309,"433":0.06160812968682886,"434":0.009238270173297135,"435":-0.04885164752991515,"436":0.038402300263098314,"437":-0.012582748923618998,"438":0.014277114005050428,"439":-0.05362157779938374,"440":-0.04092265975128198,"441":-0.04882332929798514,"442":-0.0012840792137736189,"443":-0.003430066516378442,"444":-0.05902604390002355,"445":0.038564468583486215,"446":0.02418494156854359,"447":0.04707214402392868,"448":-0.017055759102980267,"449":-0.030304631897586372,"450":0.06945564286297906,"451":-0.01974288088961183,"452":0.0453874936996774,"453":0.10351544767402736,"454":0.05623147969136117,"455":-0.0740657592911655,"456":0.0002557347589423869,"457":-0.023667615952155004,"458":0.01307379799469086,"459":-0.03567768615235344,"460":-0.04854825507330237,"461":-0.02772888326748956,"462":-0.0465704124464897,"463":-0.004152491542460916,"464":0.01152849324228784,"465":0.03536642826018703,"466":0.03141871481598025,"467":-0.0739566267639073,"468":-0.07046766665627097,"469":-0.05223591728737807,"470":0.020317326325617148,"471":0.04645661382732116,"472":-0.039266057004538196,"473":0.04555277532500466,"474":0.06622629296439764,"475":0.008078645072444062,"476":0.029357376346588988,"477":-0.009845469485649742,"478":0.0018621989267073498,"479":-0.04336957181929444,"480":-0.0021986572997149292,"481":-0.015507771634047146,"482":-0.06025253289801742,"483":0.02590919991053718,"484":0.019674359520706487,"485":0.05264098080972239,"486":-0.0689536843290172,"487":-0.010195011557292976,"488":-0.10413601757157626,"489":0.019469625743903974,"490":-0.016052516085168795,"491":0.021754726461505777,"492":0.07327995307869839,"493":0.014360045249506265,"494":-0.03777110844244348,"495":0.023579276116207193,"496":0.0063282070775709885,"497":0.05109489973521382,"498":-0.07780550535953773,"499":0.0001296699451409943,"500":0.00032034573484002475,"501":-0.033494892235677705,"502":0.06831453211173796,"503":0.02735871211674397,"504":0.09592479788240077,"505":0.06661332328780264,"506":0.09336131579472748,"507":0.025007086745340208,"508":0.0028028810749193755,"509":0.01741913631742218,"510":-0.007753221280161184,"511":0.023928251465683097,"512":-0.033852771977740094,"513":-0.019050794690445804,"514":0.010473509428809265,"515":0.012104339018611566,"516":-0.010070677819510383,"517":0.04189423688609995,"518":0.002490048902343326,"519":-0.006187031957933785,"520":-0.01599846767069907,"521":-0.07970519037387486,"522":0.0626791865251886,"523":-0.03663301639822451,"524":-0.03802752551826151,"525":0.00848377168576878,"526":0.0003667032322580645,"527":0.04586412558982391,"528":0.07167613676646127,"529":-0.05623080529420859,"530":-0.039985959672633305,"531":-0.00016865068998799052,"532":-0.017429569294293797,"533":0.0027183551472673554,"534":-0.0019421356147978493}},{"sx":1,"sy":1,"depth":535,"w":{"0":0.031276024749247434,"1":0.006271309411191145,"2":-0.07920124387424765,"3":0.02132924436414553,"4":-0.014305476554068759,"5":0.03293075403002138,"6":0.003983478477326302,"7":-0.0615098620371469,"8":-0.04017195271909581,"9":-0.025830964671280387,"10":-0.043699890290817583,"11":-0.008816448180920792,"12":-0.003834493423014354,"13":0.032083157916443235,"14":-0.005777018399528788,"15":0.03454792539793446,"16":0.02339089994082668,"17":0.05013524031839467,"18":0.028195916711693077,"19":-0.0391475198989456,"20":0.004270786889070041,"21":-0.002079013074765035,"22":0.023996555760710827,"23":0.04142359157775601,"24":-0.06993051738933731,"25":0.0106646206678419,"26":0.00218444136762582,"27":0.02767962375059724,"28":-0.06816283218966708,"29":0.02287824884823539,"30":-0.060602170804187505,"31":0.022895551023437707,"32":-0.06044886524598653,"33":-0.04256863867110603,"34":-0.011964382737932447,"35":-0.07943858631802606,"36":-0.029944847091764634,"37":-0.01052247791251105,"38":-0.03129940247906691,"39":0.05377400027639941,"40":0.05783947953374727,"41":0.03343804461863526,"42":0.06308804202699143,"43":-0.08516146921351439,"44":0.01588730805538185,"45":0.01950062683772175,"46":0.01772942206763261,"47":0.12792633921200314,"48":-0.05729267395493557,"49":0.06471391034221292,"50":0.022791362840683935,"51":-0.007378949158357794,"52":0.011201713133806149,"53":-0.020031259584041203,"54":0.06764509897149014,"55":0.0011699098853042798,"56":0.001072203764737365,"57":0.09970155761637917,"58":-0.02123176590648003,"59":-0.022438039391901258,"60":-0.010961083278966178,"61":0.03223685158081083,"62":0.03090699727682764,"63":-0.024326137239693842,"64":-0.010389932896932083,"65":-0.02578141411346472,"66":0.04144158370818081,"67":0.10196175092382605,"68":0.042941540233482206,"69":-0.04067308890581466,"70":-0.012713855577434496,"71":0.031110854629618476,"72":-0.038662768685951344,"73":0.03305468836624989,"74":-0.022147967150880882,"75":0.07659323048603034,"76":0.02779345594219319,"77":0.00029015312702041754,"78":0.034227852520038723,"79":-0.0304280928969864,"80":0.07861012562925293,"81":-0.00046306138899916916,"82":-0.0411673704876999,"83":0.04510457536152802,"84":-0.05275032578909295,"85":0.03906548083546956,"86":-0.005706519067334976,"87":0.029762844165159588,"88":0.07017891164341859,"89":0.014739492052434116,"90":-0.04393169644930336,"91":0.0241699457962854,"92":0.12520566144047293,"93":0.012396786780288157,"94":0.020191671889937736,"95":0.012412413892743076,"96":0.0037061589748721554,"97":0.04832756563460482,"98":-0.03428958164291487,"99":-0.0017425226319350326,"100":-0.06273002805222226,"101":0.021182638864689383,"102":0.04049495686864934,"103":0.045875403141793045,"104":-0.00871041313973135,"105":0.007204727376489959,"106":0.005389836630383749,"107":0.003976208774644203,"108":-0.0073607243384738175,"109":-0.03865527436617434,"110":0.04912551387158746,"111":-0.022495796615540034,"112":-0.01621164574484823,"113":0.055117438082413664,"114":0.0923820296261211,"115":0.0019794260281340154,"116":-0.013507214233801643,"117":-0.019387825236503325,"118":-0.029045496524749886,"119":0.0185887786383102,"120":-0.05416002842371691,"121":0.038368991023939834,"122":0.060718819509627354,"123":-0.0040526076664320985,"124":-0.114455442889631,"125":-0.049873018557470575,"126":-0.037556420002995104,"127":-0.03207360346055871,"128":0.004450801606570197,"129":-0.010555936416947393,"130":-0.02617742019405684,"131":0.057005237994472394,"132":0.0441405443545638,"133":-0.007876251923962668,"134":0.014674840193608606,"135":0.011404373114578583,"136":0.04639044728238584,"137":0.0483357024056875,"138":0.06295057033891696,"139":-0.09221855902715005,"140":-0.030240337705720818,"141":-0.012645434289899109,"142":-0.0008785883952812945,"143":0.008971040326148025,"144":0.044582619727541434,"145":0.13750193510544068,"146":0.01934775049110302,"147":0.03816714149356692,"148":0.07832352572176174,"149":-0.03024909458469118,"150":-0.02292444484018109,"151":-0.036663385232224864,"152":0.06155218219707984,"153":0.03839148201686679,"154":0.05530608631109776,"155":-0.017708783481927726,"156":-0.09122055354596995,"157":0.07565753541279134,"158":0.0668927492656631,"159":-0.02757097405125343,"160":0.029135368948970834,"161":0.05060300424892931,"162":0.004192495666632353,"163":0.03359661112117218,"164":0.036324693803809274,"165":0.04199347046975612,"166":-0.04558605870594853,"167":-0.0027667802823054034,"168":-0.014666298362363646,"169":-0.07467554043516807,"170":0.04444138238945121,"171":-0.0007316837729217635,"172":0.02658503008841405,"173":0.037792920107108885,"174":-0.014826435936233506,"175":0.011709837998191048,"176":0.07800663799758269,"177":-0.05404997136703846,"178":0.020407638082747693,"179":-0.0007500267516537682,"180":-0.0012285215412112067,"181":0.06995406604218833,"182":0.06295650408655615,"183":0.06227931266209045,"184":0.08928076327841956,"185":-0.021239024206668847,"186":0.016803218361886366,"187":-0.010803116219737459,"188":0.0011813129702708406,"189":-0.02049284097595955,"190":0.08673041543006635,"191":-0.03457420223723792,"192":-0.015634063181679852,"193":0.030294590148293127,"194":0.020229345918253917,"195":-0.07891005561968205,"196":-0.008818633404128074,"197":-0.04687806131505178,"198":0.05006760236147653,"199":-0.005821607452565747,"200":0.0033678343194535752,"201":0.011266672821790037,"202":0.007499783669979652,"203":-0.041903902107124656,"204":0.009416445917243645,"205":-0.04147600907503958,"206":0.027638710974292772,"207":-0.05003171169069598,"208":0.010136405843165197,"209":0.0028227894366509416,"210":0.0724933705884349,"211":-0.014757336953598292,"212":-0.028355209141359625,"213":0.005835422948833912,"214":-0.05569612279390511,"215":0.042586471634622106,"216":0.08236850194383948,"217":0.09871236910246482,"218":-0.002492292078995654,"219":0.018391217274389755,"220":0.04628507893154791,"221":0.03208032020997575,"222":0.05409555954099614,"223":-0.002230168323991534,"224":-0.023669918775130527,"225":-0.008942493467105175,"226":0.012434186552791094,"227":0.007664121273894494,"228":-0.009579969153437276,"229":-0.028489243569519398,"230":0.026833737768664243,"231":0.12469812937242224,"232":-0.05296264908326219,"233":0.03304444804152327,"234":0.007699139413716053,"235":-0.022942411114403746,"236":0.002053835003837735,"237":0.012273756729352643,"238":-0.014925024777870865,"239":-0.10034282777437097,"240":-0.018637346573942223,"241":0.04454643761959941,"242":-0.0880101739313769,"243":-0.035914139148158566,"244":0.05052329229258821,"245":-0.014090042110169235,"246":0.05360667601669503,"247":-0.02978449681317203,"248":-0.047034558402993594,"249":0.015357062261295342,"250":-0.03788592592581152,"251":-0.013922397232749618,"252":0.005373194286006815,"253":-0.07647713641174698,"254":0.06395333116754597,"255":0.004441610077106381,"256":-0.0032503274280652923,"257":0.03970833154391412,"258":-0.011390090165452896,"259":-0.011312999983042235,"260":-0.03264506005645999,"261":-0.03542276499522591,"262":0.012314601203490488,"263":-0.015814541785708076,"264":-0.00034728795950042697,"265":0.04915138010061103,"266":0.03721665765144216,"267":0.028454245445698967,"268":-0.016735501442724152,"269":-0.011751244512379995,"270":-0.06307470870441921,"271":0.08856619727007174,"272":0.05676038429325962,"273":0.08428523151643992,"274":0.01930250014118466,"275":0.014322629877830064,"276":-0.022535981804248505,"277":0.054941986047266335,"278":-0.024669275571537325,"279":-0.0720156574247228,"280":0.07136889869850345,"281":0.029263600924641583,"282":0.05407123405573786,"283":0.02601863953762745,"284":-0.011774986596205888,"285":-0.0824878394692782,"286":0.0004387736057076403,"287":0.01964130532700393,"288":-0.006872253421404373,"289":-0.07954846506217987,"290":-0.03661306738047865,"291":-0.04509477031675691,"292":0.02777352749949537,"293":-0.00888018216870126,"294":-0.02770719428604428,"295":-0.02473159914327392,"296":0.010423773681810944,"297":0.05477710448777825,"298":0.035458637045934105,"299":-0.0058370649820502435,"300":0.019481867446386653,"301":-0.01238100904968883,"302":0.03324078788038633,"303":0.03769443158946319,"304":-0.04081126814786994,"305":0.0702235679595761,"306":-0.004143446238175066,"307":0.061771206928340254,"308":-0.005466691924578525,"309":-0.026286982441325064,"310":0.08193982104193231,"311":-0.030694721363141313,"312":0.00811625712759088,"313":-0.046977555618203236,"314":0.0029809036106511924,"315":-0.010639220951561579,"316":-0.041417676114557926,"317":-0.0002242585210858785,"318":-0.023802566713400693,"319":0.07519468157997479,"320":-0.028912325380829905,"321":0.01718397448398287,"322":-0.029845178570956223,"323":0.00261768281830954,"324":0.030170695538395187,"325":-0.013177113353020048,"326":0.02004245810264557,"327":-0.07538942042843512,"328":0.07823043440197008,"329":-0.04627378370381937,"330":0.06028606913502785,"331":0.07495505368542282,"332":0.02957961708597969,"333":-0.06656031920951966,"334":-0.019603700235256732,"335":-0.04011987362843734,"336":-0.023058083596573457,"337":-0.02112855710271087,"338":0.05001516015732435,"339":0.02800087746337515,"340":-0.007915056864009545,"341":-0.009313522073428412,"342":0.02551012291383983,"343":0.04245923544473921,"344":-0.01387162505199681,"345":0.07735959176373149,"346":0.019510618390045656,"347":0.013416296687436807,"348":-0.0038477196994610866,"349":0.04964271067369214,"350":0.031146275646180093,"351":-0.03093280519337925,"352":-0.08409200743523455,"353":-0.03056061574551319,"354":0.006789160944276362,"355":-0.06072448194957809,"356":0.041555486131928214,"357":0.015573044345222739,"358":0.010348842630224451,"359":-0.07349962428704643,"360":0.0195178623657748,"361":-0.02864948347635991,"362":0.016794367877901426,"363":-0.04330466347402331,"364":0.0040628153504810504,"365":0.012406379212605028,"366":-0.015155410055909976,"367":0.011418552135937949,"368":-0.07294740726336696,"369":-0.0018344454899640562,"370":0.08073002393339812,"371":0.07545284707978543,"372":-0.02819686945903482,"373":-0.014242628621916092,"374":0.028020587105731687,"375":0.01954512802287799,"376":0.05334052257870194,"377":-0.017436575295957685,"378":-0.005220041280641665,"379":0.014599334566569372,"380":0.007704954005552989,"381":0.04217681025831245,"382":0.07206638553805117,"383":0.05575876288002527,"384":-0.06708976260229957,"385":0.07215714902122197,"386":-0.020544498250000782,"387":-0.008130914591014107,"388":0.055824119918888485,"389":-0.0622519724367493,"390":-0.041710490032580635,"391":-0.08504715626566277,"392":-0.013463215456605483,"393":-0.059099884558378064,"394":0.0157274162998239,"395":0.001987631507494145,"396":-0.08033309706515936,"397":0.014801391302235326,"398":-0.10990678597042113,"399":0.045796425203824605,"400":0.02611316007917718,"401":0.03414904155531429,"402":0.02915848275668451,"403":-0.04946585202022664,"404":0.026495074096205218,"405":0.05504469950487569,"406":0.009632572371626014,"407":-0.04234396408367424,"408":0.035919098911892045,"409":-0.0030070715296640275,"410":0.032711649994004395,"411":0.03871346521654126,"412":-0.05260940177962775,"413":-0.03376861761526225,"414":0.08875724509650625,"415":-0.0214949582805889,"416":-0.008880323982946024,"417":-0.022496350622702117,"418":0.03324280308092311,"419":-0.013116148156135338,"420":0.014674686311779112,"421":-0.027571526182239542,"422":0.07631278131708984,"423":-0.05694851668891633,"424":0.021714184866700553,"425":-0.046242495518538755,"426":-0.02094092998698526,"427":-0.0560941141718623,"428":0.002099079358198052,"429":0.052715345968284776,"430":0.11753221715272788,"431":-0.012523551840593975,"432":-0.04854194582752289,"433":-0.008364553462995004,"434":0.03469148346098979,"435":-0.027254899658951684,"436":-0.05287243784964008,"437":0.0029792835137734085,"438":0.07429535299781308,"439":-0.04466017407854288,"440":-0.08803105052048536,"441":0.04298171791057856,"442":0.013401461483208537,"443":0.007631221240632322,"444":0.01662404548386573,"445":-0.06791079052534205,"446":0.020301515064429957,"447":0.01780603143327558,"448":0.000121654446564533,"449":0.009440549107852504,"450":0.01051434289523453,"451":0.0029982175239848616,"452":0.025575453456864305,"453":-0.02224141929888295,"454":-0.04519218561085061,"455":0.05604014977220023,"456":0.03300024826502793,"457":0.031147069378923475,"458":0.017224148124086416,"459":-0.11453997521087537,"460":0.05655408434391465,"461":-0.048057689976868476,"462":0.02225740724407913,"463":0.004925121335685118,"464":-0.02384128259357786,"465":-0.012897911668239313,"466":0.06477357301907068,"467":-0.050930150189805685,"468":0.022674437438392748,"469":-0.038550474054219255,"470":0.007679812797321991,"471":0.06730384686631433,"472":-0.018098246367856556,"473":0.011288318980464155,"474":-0.004104579657306849,"475":0.015682936389955833,"476":0.027582672502652283,"477":-0.04806394712011448,"478":0.026639956560612934,"479":0.011881278399933377,"480":-0.028049882832237864,"481":0.03604954440912181,"482":-0.10768323332348669,"483":0.05780856058789237,"484":0.04431232363549839,"485":0.04183962866896882,"486":0.0052828411910674535,"487":-0.03727103882295354,"488":-0.02021070730936329,"489":0.020410636987745073,"490":0.06032327023321687,"491":-0.04043374877127275,"492":-0.004529120164518346,"493":-0.041597640818793157,"494":0.03687238717629114,"495":0.014563724156828791,"496":-0.07845001074784555,"497":0.009212233128910624,"498":-0.030763111152536948,"499":-0.040519102395798944,"500":0.06869944990369507,"501":0.07368482854279135,"502":0.05446131230323942,"503":0.07514084465297662,"504":0.04509509916333345,"505":0.006164530311717764,"506":-0.060231209993763024,"507":0.05013427811638775,"508":0.023091988113814552,"509":-0.013943546159855557,"510":0.10991077447932218,"511":-0.029476016018685252,"512":0.03667194561871378,"513":0.09214109916023501,"514":0.031979957913163395,"515":-0.0027734324423403867,"516":0.02369754461181141,"517":-0.006998138749217853,"518":-0.04141058267758149,"519":0.05345807713794643,"520":-0.006385978306092252,"521":-0.07481514868387297,"522":0.020503171493342617,"523":0.08420451929180053,"524":-0.029783362893292798,"525":0.041897443443757454,"526":0.037069559273596654,"527":-0.04686918129252707,"528":0.044720851585797375,"529":0.03447244857101652,"530":0.03864349275401687,"531":-0.016524115381084368,"532":0.024941733348550085,"533":0.001965371331549003,"534":-0.1018679624226871}},{"sx":1,"sy":1,"depth":535,"w":{"0":-0.046767192869003944,"1":-0.057330233475136695,"2":0.008702047308315078,"3":0.0037912838924542497,"4":0.018560153676961042,"5":0.03009586111098724,"6":-0.08540170026162493,"7":0.027398509692991124,"8":-0.08433494113747116,"9":-0.06747780426682404,"10":-0.00011956140625233589,"11":-0.027281511348145538,"12":-0.03095335887186153,"13":-0.04494099774833795,"14":0.038444525254821935,"15":-0.03054088244060621,"16":0.033398670416509915,"17":0.03192344638142767,"18":0.08650740959724941,"19":0.007487855005746745,"20":0.043708720545458525,"21":-0.009804729357177664,"22":-0.051150147749231455,"23":-0.04553836037974875,"24":-0.05311027424035728,"25":-0.029940714267797194,"26":0.015234057561312794,"27":-0.005279849766075397,"28":0.003407373234451796,"29":0.008871876574630563,"30":0.00896600820717768,"31":-0.025497761628423238,"32":0.023015761073206773,"33":0.015186100225384427,"34":-0.004338182927255479,"35":0.05201609393112162,"36":-0.039064842808549216,"37":-0.04270799642124689,"38":-0.03307541917042166,"39":0.04627333903462739,"40":0.04350822560664366,"41":0.017668519167863633,"42":0.033936037056734765,"43":0.008737658326947038,"44":-0.028722883941315648,"45":0.031569493435504144,"46":-0.02465451511483471,"47":-0.04832978265520981,"48":0.05743926774930913,"49":-0.023096560146973033,"50":-0.0360371210377542,"51":-0.03664348987007719,"52":0.052166734741399434,"53":-0.07725463349365948,"54":0.01057317206701219,"55":0.04279050118227602,"56":0.026284452525094124,"57":-0.03681133120235533,"58":0.04836926562241604,"59":-0.021413764789739956,"60":-0.061909039663609514,"61":0.06349406348981969,"62":-0.04943870597616722,"63":-0.09576964997762594,"64":-0.02179920280103274,"65":0.02211111750696423,"66":0.010196223676739597,"67":0.025570170512939118,"68":-0.028093679827445185,"69":0.04599751110247152,"70":-0.018553862333931453,"71":0.005295853676734666,"72":-0.04595058423047749,"73":-0.00961921163705601,"74":-0.03407234909044393,"75":0.048176679103456965,"76":0.04434624822918753,"77":-0.030863689128919732,"78":0.0063563205371358214,"79":0.01206200859241483,"80":-0.0012518423639259937,"81":-0.013657205683834472,"82":0.0024817476914355623,"83":0.020379521695501047,"84":0.07956778856100959,"85":-0.009741252148750958,"86":0.014360186586821347,"87":0.044042871255331024,"88":0.00886227669205434,"89":0.05530939967312494,"90":-0.0018948233495616098,"91":0.013069563207462326,"92":0.030093580547105935,"93":-0.019178578725303888,"94":0.05231025518169786,"95":0.002777313143272968,"96":-0.055492149743185094,"97":0.03232253142345271,"98":-0.07412920030086452,"99":-0.03524554189580173,"100":-0.06777136568469228,"101":-0.09002939422881512,"102":0.014717609464237657,"103":-0.02905483607770117,"104":0.04729028485669824,"105":0.007742032614027008,"106":-0.010867654473092365,"107":-0.03717135199004657,"108":0.03436325807236362,"109":0.009203378893601944,"110":-0.05363522527861789,"111":0.01586080523195694,"112":0.01826276774528815,"113":-0.06214831402828881,"114":-0.00915185170464533,"115":0.04507330430327878,"116":0.04504252806970038,"117":0.08030917028325062,"118":-0.0524480349399457,"119":-0.034698372846783246,"120":0.0026270389203417346,"121":0.029921599202692252,"122":-0.045087647680677995,"123":-0.018259648230814288,"124":0.05001768401569253,"125":-0.031859245278054685,"126":0.029415390499569732,"127":0.015209036182258369,"128":-0.00009029247541669224,"129":0.06762152698732614,"130":0.044048956046945933,"131":-0.016474476427901372,"132":-0.04755965876843517,"133":0.03229102961843971,"134":0.05579328409832415,"135":0.006796976945961695,"136":-0.10389036048457032,"137":-0.041026805664794996,"138":-0.08493764857680461,"139":0.05874382197677727,"140":-0.004606884047914243,"141":-0.011477373377462434,"142":0.0163117909555965,"143":0.06456617552092897,"144":0.01627720840363405,"145":0.052165420259207666,"146":-0.00941120577342732,"147":0.022370571620042877,"148":-0.05484025794470683,"149":0.029769682274927788,"150":-0.09632037757423965,"151":-0.02260925915782045,"152":-0.06104411244106291,"153":0.04646548004903976,"154":0.07284326493198275,"155":-0.013627410458699037,"156":0.0000760518409670475,"157":-0.0003643459987386954,"158":-0.002047467197440727,"159":0.00010618166648026774,"160":-0.06928641053398944,"161":-0.007942379909420337,"162":0.024159531513432097,"163":-0.01172315979063119,"164":0.024030307232396887,"165":-0.03724100956576072,"166":0.04816737613683782,"167":-0.05501103918687376,"168":-0.04590079808000164,"169":0.029206821045714242,"170":0.040736329112700614,"171":-0.027266815810211325,"172":0.09829413182551207,"173":-0.050470243238563396,"174":0.017923799127099023,"175":0.022858186833038318,"176":0.036237812985950545,"177":0.0034118188635329106,"178":-0.023312912293148347,"179":-0.007821927485054192,"180":0.036009376644922694,"181":-0.04772882117980704,"182":0.03976686902273437,"183":0.039851044543754655,"184":0.033977553926516114,"185":-0.008484441889718886,"186":-0.025804662727434813,"187":-0.09060088687735848,"188":0.043558897753307825,"189":-0.031194202420684537,"190":-0.042590191032637455,"191":0.027855363362343448,"192":0.05977314787561995,"193":-0.0033816858268872303,"194":-0.06745656276904925,"195":-0.01779039515191226,"196":0.06307940076606978,"197":0.0036205285344493546,"198":0.012660197692761322,"199":-0.056983937698147004,"200":-0.05267735531789654,"201":0.044240506550857345,"202":-0.0012638640668071383,"203":0.00382088999621579,"204":0.029781461047290448,"205":-0.018000277598914354,"206":-0.05781560864446749,"207":-0.002327290653485204,"208":-0.04631491877925354,"209":0.03273441803559816,"210":0.04628483323748655,"211":-0.0007126345915806476,"212":-0.005261871898155781,"213":-0.007469757157002385,"214":0.09012278780727057,"215":-0.014064732123246878,"216":0.007640801183942173,"217":0.0017467351436072705,"218":0.04283913382448662,"219":-0.013015317496964192,"220":0.034416482092642246,"221":-0.057302754370462027,"222":0.0546338590223271,"223":-0.0199147664250987,"224":-0.00411871900935794,"225":-0.05184707256158576,"226":-0.029338921777868742,"227":-0.020173538376554858,"228":-0.0785052725620682,"229":-0.04107819448375727,"230":-0.0007861709603454988,"231":-0.039788829807939,"232":-0.062263516218934334,"233":0.01553852431525065,"234":0.09420481611357834,"235":0.018170879115290892,"236":-0.02350503420076749,"237":0.03784865924390977,"238":-0.023092211946151003,"239":-0.005541722077812587,"240":-0.011338205929070446,"241":0.032365176595253856,"242":-0.003693855913018605,"243":-0.04183928953247955,"244":-0.03341739507596143,"245":0.03293989643931613,"246":-0.060593072913363986,"247":0.01274441736766062,"248":0.028082927825715566,"249":-0.009738850518731195,"250":0.036058676489333516,"251":0.014711012686688786,"252":-0.017533034221679577,"253":-0.019934460978249555,"254":0.09606286621953772,"255":0.035715927179312046,"256":0.04916947621589483,"257":0.05809548800643926,"258":0.00696876657676051,"259":-0.004009418714691564,"260":0.026653764314602674,"261":-0.017009707278338435,"262":0.03639733932719894,"263":-0.009496295571504268,"264":-0.01678494077633304,"265":0.012291117270557624,"266":-0.04511376693601552,"267":-0.012245355134432156,"268":-0.04355972711333988,"269":-0.03649870259920741,"270":0.020974232281745744,"271":-0.042271514897881994,"272":-0.03303257801613996,"273":0.013074378824087303,"274":0.006085245575256094,"275":-0.05460679976303429,"276":0.002868125503894374,"277":-0.061959781167833156,"278":-0.019606858613760336,"279":-0.03783764095173839,"280":-0.044060607960242325,"281":0.0029351096740731176,"282":-0.046144083322353646,"283":0.004055455927055558,"284":-0.0018661683864831563,"285":-0.034952497312228964,"286":-0.0019222467971432202,"287":0.053939116871449755,"288":-0.09495138022236127,"289":0.0018003654114108624,"290":-0.0023661715315918415,"291":0.020349696536754478,"292":-0.01431178633148416,"293":0.035852446565051606,"294":-0.014669467653976921,"295":0.03605480078403007,"296":-0.0873111933524157,"297":0.01955088419236468,"298":-0.058877460657188935,"299":-0.05796311789649357,"300":0.0091778093448048,"301":-0.016296187411357462,"302":0.0325870806543703,"303":-0.0008233145737724574,"304":0.010438818018536166,"305":-0.05654726090122793,"306":0.011902286408164315,"307":0.0298554987975544,"308":-0.0041152027149543805,"309":0.005149759822984597,"310":-0.04785385920063408,"311":-0.008272045566319124,"312":-0.04319952975572511,"313":-0.02837873878385701,"314":-0.05064048621917589,"315":0.010156360292942918,"316":0.024917914939995792,"317":0.00737391600341838,"318":0.018610568468585005,"319":0.0032006487648591165,"320":0.021680926388276532,"321":0.06652432319355296,"322":-0.08730375017836553,"323":0.04241649374947956,"324":0.02888797613788976,"325":-0.02266968970659161,"326":-0.0015903323477381383,"327":0.10383552646295961,"328":0.08300440633131151,"329":0.021381200694505186,"330":0.016254428097323893,"331":0.04559908953138135,"332":-0.059784556167390944,"333":0.03021870179820638,"334":-0.004010843320319428,"335":0.004069514414636931,"336":0.060659499550430214,"337":-0.009763264164266247,"338":0.0038681265328169598,"339":-0.031450584701055107,"340":0.027087627796542016,"341":0.023246554380214182,"342":0.02272278854174704,"343":0.023437541663712112,"344":0.004272774100748902,"345":-0.003861574912302637,"346":-0.02397129691126182,"347":-0.019118189586151357,"348":-0.054734971868779306,"349":0.000839708560995292,"350":0.006501624557305234,"351":0.001203087723504541,"352":0.0005942377169480287,"353":-0.08089824809529614,"354":-0.02983109299959784,"355":-0.08410616656282625,"356":0.009968969940476744,"357":0.03338551904566966,"358":0.026939910810366025,"359":-0.02256453648235539,"360":-0.036800955799727905,"361":0.04023995176614887,"362":0.016911277097277938,"363":0.07533244029728432,"364":-0.012312656830566739,"365":-0.05559737505948309,"366":0.0006030420449118802,"367":0.0031911073520667762,"368":0.014359119956509443,"369":0.01122659221714024,"370":-0.017505043507063823,"371":0.010496784556364784,"372":0.04701955634270115,"373":0.027384680734116217,"374":0.0024156624254999073,"375":-0.04008050389703356,"376":-0.02446285817860984,"377":0.11772726924402174,"378":0.0016543617944422618,"379":0.022185826477706786,"380":-0.03951107779699565,"381":-0.045934733079152135,"382":0.0024767455400197882,"383":-0.018875911166968802,"384":0.04301711517406599,"385":-0.03905112272865349,"386":-0.05070630962743694,"387":0.0330214296981442,"388":0.006063789539461522,"389":-0.08193007350400204,"390":-0.0220339397548419,"391":-0.07277707910662154,"392":0.039000041677241415,"393":-0.04313710088391723,"394":-0.030594869397949847,"395":-0.026015853562186504,"396":-0.0717452452905862,"397":-0.0345945436954295,"398":-0.11073213046945457,"399":-0.06657158818108987,"400":-0.00043577113649189754,"401":-0.041988433593675455,"402":0.044895324794807186,"403":-0.06223809387278042,"404":0.03576094173111179,"405":0.03427688849295237,"406":-0.010885648412219128,"407":0.0696140515341657,"408":0.030351969402206136,"409":-0.0523101442788597,"410":-0.10790442717015361,"411":0.06273295790916993,"412":-0.02175509397494437,"413":0.0066384648373854745,"414":-0.0323606869055565,"415":0.0832662842466406,"416":-0.010821900104458642,"417":-0.11282324574629195,"418":0.03643530307923979,"419":0.008521378307447617,"420":-0.06986014177088125,"421":-0.05868773625829884,"422":-0.05550150748670276,"423":-0.015670180114268403,"424":0.059397751148313575,"425":0.05863307064794535,"426":0.07803844771281995,"427":-0.04439046005793966,"428":-0.016864019255714166,"429":0.017968127260979353,"430":0.05749105663267943,"431":0.028882234132188014,"432":0.016635785739421337,"433":-0.007206999324398124,"434":0.021526399633452462,"435":-0.04448027410639612,"436":-0.08200358135734173,"437":-0.01327490701512927,"438":-0.04819722676765349,"439":-0.04292582589103358,"440":0.03368065415013379,"441":-0.012214135194344226,"442":0.03917490516585925,"443":0.0018883096078783504,"444":-0.02052572244607722,"445":-0.015255224594312418,"446":-0.04633120418490202,"447":0.0555334560068304,"448":0.03657479107507829,"449":-0.0017692618520538845,"450":-0.034844529051695994,"451":-0.07241423621967935,"452":0.04252557300562479,"453":-0.0024247752473434284,"454":-0.07289819571874884,"455":-0.024989590923443883,"456":0.0095307423889871,"457":0.04790246197549343,"458":0.030296162844934693,"459":0.10005089517777532,"460":0.03442203836812326,"461":0.009283964957996542,"462":0.04160666362066973,"463":0.021375845951301556,"464":-0.007596711654720732,"465":0.0451219424102037,"466":0.0412729809456175,"467":-0.026334516828535475,"468":-0.051541376668544185,"469":-0.06307739493628535,"470":-0.031501041938956933,"471":-0.026697457385271083,"472":-0.005623071765438472,"473":-0.014938985826714006,"474":0.0919713744985363,"475":-0.007261543064359745,"476":0.09432446336003325,"477":-0.03774271420813455,"478":-0.0231906759596447,"479":0.01637497788634929,"480":-0.023625101115438415,"481":0.029298653748030194,"482":-0.01595618114190948,"483":-0.038203620583646895,"484":-0.010798796915985336,"485":-0.02827336794957925,"486":-0.03116632428085929,"487":-0.04978632038637555,"488":0.0019372488609145284,"489":0.10340675638083555,"490":-0.02144815644095687,"491":-0.025830008136030317,"492":0.029549708208298827,"493":-0.06807274123604874,"494":0.06547612489085078,"495":-0.06789181631096122,"496":-0.030504893881584172,"497":-0.03058140990606807,"498":-0.07094159267231422,"499":-0.01916177301552286,"500":-0.07334551942647027,"501":0.014214039040536943,"502":-0.056652179627584225,"503":-0.03500182099611036,"504":-0.0014127833616635038,"505":-0.07086018097718334,"506":0.057028802396525156,"507":0.011152196262978632,"508":-0.0034114388460888046,"509":-0.030121076886887737,"510":-0.07662597786939977,"511":0.012461753895001943,"512":-0.0026778386023403435,"513":0.018373769866024483,"514":0.029109296640869746,"515":0.0288598405538207,"516":0.0208625137441831,"517":-0.020699702572355403,"518":0.03657390755615242,"519":0.004056392655020031,"520":-0.022987643870971377,"521":-0.03618184633365976,"522":0.05935466058009914,"523":-0.038925311678378406,"524":0.004368145228413942,"525":-0.05354006888835639,"526":-0.03219879028926385,"527":0.03735464340597921,"528":-0.00001979140665364853,"529":0.003588196984285812,"530":-0.01706018729938969,"531":-0.06332918575017854,"532":-0.0055927931352028675,"533":-0.04823898961165915,"534":-0.05249260553115665}},{"sx":1,"sy":1,"depth":535,"w":{"0":-0.008462414628167176,"1":-0.026462924719497887,"2":0.04642299509376896,"3":0.011723722336846584,"4":0.03501194710894244,"5":-0.0025682110375674933,"6":0.01875180569950934,"7":0.00206215384115135,"8":-0.00829156264873781,"9":-0.11144798191570265,"10":-0.07157709852146603,"11":0.03015887140702448,"12":-0.028680870237875588,"13":-0.028406875352007522,"14":-0.0402007294529738,"15":-0.08403776896547663,"16":0.02349874016976408,"17":-0.010438899192524588,"18":-0.045886869216730526,"19":-0.03334619895500602,"20":0.012533705699453722,"21":-0.016071102953543293,"22":-0.010462146664709899,"23":-0.04308715022193355,"24":-0.0728110110844688,"25":-0.05620224835303019,"26":-0.030313757326676096,"27":0.07417280967494905,"28":0.00009599598381149361,"29":0.03491906226744054,"30":0.0015887018138437412,"31":-0.0875338884442753,"32":0.0677455826231732,"33":-0.0635370332009992,"34":0.052100535267281804,"35":-0.03873300389087983,"36":-0.02407325507897947,"37":0.052262738310765104,"38":-0.03390404966764309,"39":-0.04100533328128846,"40":0.03446090478312646,"41":-0.07207436000324784,"42":-0.032959152385871555,"43":0.043021928836672496,"44":0.04681645756821311,"45":-0.03997554849667926,"46":0.1151789014066551,"47":-0.028408737276634847,"48":0.0252292098759986,"49":-0.045476126317556875,"50":0.03368111037891042,"51":-0.0491557232841609,"52":0.04719515126948082,"53":-0.02320328551871421,"54":-0.04099363289464854,"55":-0.0070598466831879635,"56":-0.04283889227899555,"57":0.04490640505484851,"58":-0.011984888604799782,"59":-0.08756948733594737,"60":-0.039027602887432046,"61":0.061164076760853066,"62":-0.00717392557403868,"63":-0.04903759129119363,"64":0.02638709586678784,"65":-0.011463913475317772,"66":0.07814188791720057,"67":0.005489464699578773,"68":0.07986785768664928,"69":-0.01655226163547486,"70":-0.05119503833002509,"71":0.0259884991470153,"72":0.0357265846021988,"73":0.03744188122912665,"74":-0.01525312065281981,"75":0.035023454214319634,"76":0.034224628230129346,"77":0.02694388399231491,"78":-0.006047348995675111,"79":0.022392704079641453,"80":0.020228121437254137,"81":-0.057430528367624266,"82":-0.023158025654900556,"83":0.024514604572916994,"84":0.034235153514635526,"85":-0.009690917746521727,"86":-0.0724908514629247,"87":0.06769845208666146,"88":0.06214160876636927,"89":0.058962523894708116,"90":0.017590056506099634,"91":0.04036975949104565,"92":0.05212601904729824,"93":-0.03358279776991637,"94":0.07809391613294903,"95":0.03752226184863907,"96":0.028014649081853707,"97":0.022041020670010292,"98":0.05480139332893842,"99":-0.05354940658225583,"100":0.08079087267900661,"101":-0.048826867451482625,"102":0.044814910870292365,"103":0.009193397506642834,"104":0.05617572781877386,"105":0.0013792233252711184,"106":-0.07394687177563272,"107":0.015794440802847236,"108":0.09422682359669712,"109":0.06026063592380031,"110":0.008674851492872643,"111":0.005808835695531352,"112":-0.056446626596096276,"113":0.10295179900441492,"114":0.018347309289430475,"115":-0.029515207415659793,"116":-0.07505734447827574,"117":-0.007061971063098957,"118":-0.008964154237204654,"119":0.05964909797998684,"120":-0.03903807244231368,"121":-0.030964198437215408,"122":0.031788057675471014,"123":0.009337097901967071,"124":0.01016998235174558,"125":0.007469997497923239,"126":0.020585193964909078,"127":0.019727290845659433,"128":0.04209803694232159,"129":-0.0036717224078160592,"130":-0.04802252309788316,"131":-0.01552891986459213,"132":-0.03693837597988706,"133":-0.012815895984032781,"134":0.029742366282747658,"135":-0.09107451593679688,"136":0.05397001397032978,"137":-0.02945684198037795,"138":0.04439358098583678,"139":0.03297540707205499,"140":0.04416228837396852,"141":-0.02647450338297845,"142":0.015330965884700173,"143":0.02273694150826924,"144":-0.04061925165676275,"145":0.030545419754220766,"146":-0.0218868818771582,"147":-0.033078907379798815,"148":0.001033420547034592,"149":-0.019521263219845958,"150":-0.020067645058287762,"151":-0.011258913543732162,"152":-0.06216883920862695,"153":0.01041416187752081,"154":-0.01755026094881764,"155":-0.0730673435654293,"156":-0.07044966299150741,"157":0.06784065564820957,"158":0.10253272877702833,"159":0.0022980651940645346,"160":0.050603977875537415,"161":0.11184124604520876,"162":-0.017897814384060795,"163":-0.0017678447220418649,"164":-0.012614946569455061,"165":0.012877825934175571,"166":-0.05393279309691522,"167":-0.1156063395695675,"168":0.03084993322958939,"169":0.0353406097952398,"170":-0.02620169502360727,"171":0.037130389792785004,"172":0.0305025142150324,"173":0.08956036354596253,"174":0.00982770201994019,"175":-0.007138986618741831,"176":-0.05497843567200693,"177":-0.033656321077031204,"178":-0.07291565761975971,"179":0.040317676561015606,"180":-0.042664661922746525,"181":0.03772178311022894,"182":-0.02385630006288814,"183":-0.02585482819747203,"184":0.03990875010510242,"185":0.07706975405898278,"186":-0.01360726214615368,"187":-0.080856346358231,"188":0.018988157609095786,"189":-0.03303800883996989,"190":0.07403745394884119,"191":0.03882041975393945,"192":0.05944684031223881,"193":-0.019470083629904565,"194":-0.03022627923922907,"195":-0.01812991743586885,"196":0.09134182098578886,"197":0.12081106293410808,"198":0.055636178369032674,"199":0.1266267811135948,"200":-0.06471612576183365,"201":-0.0869394642881003,"202":-0.004747998918914096,"203":-0.003416478716651738,"204":0.08711447356505864,"205":0.03176677275741948,"206":-0.08491785339232581,"207":0.07707507061842143,"208":0.005554298228525,"209":-0.019179850993960544,"210":0.022199980964816287,"211":0.012733127594148153,"212":-0.02441377696186601,"213":0.024640788680321754,"214":-0.021550258150562007,"215":0.04243382778253183,"216":-0.023975840296581303,"217":0.00027657544946127184,"218":0.08728233396979047,"219":-0.06975792194475237,"220":0.00765307763154911,"221":-0.04594350775201791,"222":0.06100679873404702,"223":0.03464315131381561,"224":-0.02428351360302209,"225":0.008752766941317467,"226":0.07022431410972994,"227":-0.06328002645139626,"228":0.04820174393801499,"229":-0.01176753058297163,"230":0.010061797368635616,"231":0.045191310151015504,"232":0.012599732585817968,"233":-0.08086306138274371,"234":-0.02444448229225185,"235":0.011340252905211104,"236":0.019928695240001588,"237":0.028207182326444924,"238":0.06877277876859035,"239":0.09506223874940585,"240":-0.06542525599387207,"241":0.0006981681517716279,"242":0.06710410506800663,"243":-0.03085512047367267,"244":-0.006488266417351577,"245":0.020778535998229417,"246":-0.024836555845612642,"247":0.09478128481130027,"248":0.011110650189173867,"249":-0.05320192164878262,"250":-0.010694055482935031,"251":0.05604364249040728,"252":0.017723916133718414,"253":0.03162741003614802,"254":0.04656953030586148,"255":-0.0068878541467836596,"256":-0.03320721418237348,"257":0.008835689183293841,"258":0.08548248068198376,"259":0.03938520315271014,"260":-0.021414563965495733,"261":-0.0598903603782627,"262":0.051614876567216084,"263":-0.04482239580660524,"264":0.024231611383294542,"265":-0.04976248499878343,"266":0.019592051428591904,"267":-0.04476408410860274,"268":0.025433901852087257,"269":-0.03450449837831408,"270":-0.015310048320588214,"271":-0.01133036624570829,"272":0.01757708556760388,"273":-0.02622454364772222,"274":-0.11135811030889048,"275":-0.055478490073457926,"276":-0.036332589365897686,"277":0.08783618155095471,"278":-0.008429589891722166,"279":-0.016701195128666836,"280":0.013884139559214291,"281":-0.049123315336138715,"282":-0.07580009574523958,"283":0.10144010304486242,"284":0.02362114141208703,"285":-0.0020042812736431282,"286":-0.005543673413089607,"287":-0.032067403529146804,"288":-0.06411440454855202,"289":-0.013735581200099373,"290":-0.034283390414898,"291":-0.024238126871267116,"292":-0.018773084947326796,"293":0.02415657968294953,"294":-0.028773061303768537,"295":-0.0568960475510887,"296":-0.053380904537477215,"297":-0.0655274729137558,"298":0.07931923607308525,"299":0.053300118627437,"300":0.0850264759795343,"301":0.007726993331165874,"302":-0.012634167960556277,"303":0.008526619544334285,"304":-0.06804557931743033,"305":0.05294818696509044,"306":0.02491433923385232,"307":0.0012688709553506847,"308":0.0022127070862002986,"309":-0.025120855407663838,"310":0.017795018562269165,"311":-0.08910960367067551,"312":-0.022039730913218123,"313":0.005952588302420879,"314":-0.046156589104261916,"315":-0.049947096036760445,"316":-0.1071233753530702,"317":0.02321244684950046,"318":-0.024648836739328637,"319":-0.024113441705967405,"320":0.06627340611025098,"321":-0.03395955426919324,"322":0.052217746266076434,"323":-0.08828598564391717,"324":0.012616195290474001,"325":-0.02239182191588771,"326":-0.026984688668223976,"327":-0.011709604308559728,"328":-0.03785991568695987,"329":-0.06558663588137716,"330":0.019990026512499065,"331":-0.016063426786734357,"332":0.015338927529255501,"333":-0.03862813002286996,"334":-0.0061754014920370245,"335":-0.0032105007214782814,"336":-0.05229095568406431,"337":0.038393962248741885,"338":0.031125798209785713,"339":-0.019028030168332592,"340":-0.09804647356364102,"341":-0.04964509406579055,"342":0.039720579121195004,"343":-0.04937285032381654,"344":0.026275936159294567,"345":0.07216238243885957,"346":0.03245948417639199,"347":-0.05293308142101269,"348":0.0074677508463011555,"349":-0.03547419685154466,"350":0.004340841526611212,"351":-0.01563461304630751,"352":-0.06436601570019991,"353":-0.013730443510304918,"354":0.09809917261452258,"355":0.010579957620265394,"356":-0.031141907275871763,"357":0.054830411318882034,"358":0.03250673453404842,"359":0.014874383546886397,"360":0.036286963036163154,"361":0.02669704208174021,"362":0.06300944168370032,"363":-0.05750778147485054,"364":0.03517705766067192,"365":0.010712209027838381,"366":0.02496360523206812,"367":0.021354214280552824,"368":-0.0057215733570471754,"369":0.04498918447083322,"370":-0.02409535864299564,"371":0.08079455982413061,"372":-0.027382442174674407,"373":0.034735851850789715,"374":0.016941165454264488,"375":-0.027338656254462735,"376":-0.036143494225114065,"377":-0.00916536223931083,"378":-0.037839338853736124,"379":0.029085522372825284,"380":-0.0021908339949681093,"381":-0.07583623269045102,"382":0.00785636570272121,"383":-0.006839436629754588,"384":-0.04452178169707132,"385":-0.005505008270947732,"386":0.0355789103120261,"387":0.07207845044440661,"388":-0.007974772810489389,"389":0.023328080951334776,"390":0.01713628581602183,"391":0.008694139102689418,"392":0.09276587310382736,"393":-0.010411370248968831,"394":0.04120577689651339,"395":-0.04124313183202173,"396":0.007857595711991926,"397":-0.10295029486057965,"398":-0.014020013944117405,"399":-0.05938971056616068,"400":-0.008596647206744357,"401":-0.08982215731774595,"402":-0.021481416884541277,"403":0.07683815906647713,"404":-0.043459242460818136,"405":-0.029304589213472218,"406":-0.016659980162522844,"407":0.05095227228435581,"408":0.013695414211332862,"409":0.030056996191878387,"410":-0.06692124084211114,"411":0.04854777458102976,"412":0.04345397820242981,"413":0.07911303415892015,"414":-0.020317376624222835,"415":0.025575042967392127,"416":-0.031499996162743335,"417":0.016062614435366735,"418":-0.06410530770057728,"419":0.047083368970889605,"420":-0.03205804924596422,"421":0.018018304569332323,"422":-0.11965650023481514,"423":-0.029107498510290413,"424":0.011464252090788728,"425":0.007302942601483904,"426":0.006817897737713373,"427":-0.062177290409277566,"428":0.021083681863877834,"429":0.04008819538030469,"430":0.01459718472464583,"431":0.013609263584970721,"432":0.06017996311330512,"433":-0.04302057682891779,"434":-0.0035822456901578315,"435":-0.04057034304547132,"436":-0.014790721252865836,"437":0.047742494393673396,"438":0.003667028556166223,"439":0.011646121235271926,"440":0.03637558843737613,"441":-0.004612983975493409,"442":-0.03686121612591345,"443":-0.03209528995059327,"444":0.0008438003598414786,"445":-0.049378435518795234,"446":-0.05531591222099508,"447":0.04801267204306696,"448":0.06516994519498416,"449":0.044714421764209256,"450":-0.032480205988164645,"451":-0.03757939939271837,"452":0.0001342074124666165,"453":0.010066361378550881,