
//<![CDATA[

// a few things don't have var in front of them - they update already existing variables the game needs
lanesSide = 1;
patchesAhead = 13;
patchesBehind = 7;
trainIterations = 100000;

var num_inputs = (lanesSide * 2 + 1) * (patchesAhead + patchesBehind);
var num_actions = 5;
var temporal_window = 3;
var network_size = num_inputs * temporal_window + num_actions * temporal_window + num_inputs;

var layer_defs = [];
layer_defs.push({
    type: 'input',
    out_sx: 1,
    out_sy: 1,
    out_depth: network_size
});
layer_defs.push({
    type: 'fc',
    num_neurons: 50,
    activation: 'relu'
});
layer_defs.push({
    type: 'regression',
    num_neurons: num_actions
});

var tdtrainer_options = {
    learning_rate: 0.001,
    momentum: 0.0,
    batch_size: 64,
    l2_decay: 0.01
};

var opt = {};
opt.temporal_window = temporal_window;
opt.experience_size = 3000;
opt.start_learn_threshold = 500;
opt.gamma = 0.7;
opt.learning_steps_total = 10000;
opt.learning_steps_burnin = 1000;
opt.epsilon_min = 0.0;
opt.epsilon_test_time = 0.0;
opt.layer_defs = layer_defs;
opt.tdtrainer_options = tdtrainer_options;

brain = new deepqlearn.Brain(num_inputs, num_actions, opt);

learn = function (state, lastReward) {
    brain.backward(lastReward);
    var action = brain.forward(state);

    draw_net();
    draw_stats();

    return action;
}

//]]>
    
/*###########*/
if (brain) {
brain.value_net.fromJSON({"layers":[{"out_depth":255,"out_sx":1,"out_sy":1,"layer_type":"input"},{"out_depth":50,"out_sx":1,"out_sy":1,"layer_type":"fc","num_inputs":255,"l1_decay_mul":0,"l2_decay_mul":1,"filters":[{"sx":1,"sy":1,"depth":255,"w":{"0":0.147474553914816,"1":-0.042044005399199655,"2":-0.04852134998097024,"3":0.04436309834252844,"4":0.17942949280751883,"5":-0.021293619402884892,"6":0.10163812129283215,"7":0.01250734740078197,"8":-0.015630566083869334,"9":-0.032359182059459875,"10":0.014021794290073551,"11":0.006511229011765198,"12":-0.045268570827532204,"13":-0.03581691045034861,"14":-0.026602204845833675,"15":0.0286141593576272,"16":-0.040096311733256625,"17":0.005363715857792639,"18":0.01343582099088432,"19":0.09469185325327971,"20":-0.03092085335473754,"21":-0.02374220839967704,"22":-0.04264047768966209,"23":0.07659134911003614,"24":0.09821787552596467,"25":0.08338392824272586,"26":0.059362974823097756,"27":0.01625000294747482,"28":0.05605770990735946,"29":0.025072832201159807,"30":-0.07994746972876583,"31":0.04403867819461842,"32":-0.10399719416880861,"33":0.04843885247086474,"34":0.03958180172781949,"35":-0.08355811511243133,"36":-0.09437479203346323,"37":-0.002022120037270301,"38":0.025822551402552782,"39":0.002452272499932299,"40":-0.09544748027126339,"41":0.029876077174805494,"42":-0.0981273696642215,"43":-0.04612088673113222,"44":0.04276791303925757,"45":-0.043463112791155355,"46":-0.12356516752440845,"47":-0.04633885252387278,"48":-0.01978551036761991,"49":-0.07914260324931213,"50":0.10366278099680029,"51":0.051933540982633586,"52":0.09501635409359244,"53":-0.024364343023129214,"54":-0.035622911924707956,"55":0.07369819524780619,"56":0.013389494917558876,"57":0.11173870110601461,"58":-0.12610013658130606,"59":0.03072235905005738,"60":0.026440170148235586,"61":0.05496470325914,"62":-0.03681757269707168,"63":-0.03846762824580655,"64":0.07620673272792862,"65":-0.006833050232837026,"66":-0.052236782804970246,"67":0.025216024618545285,"68":-0.04073178022910951,"69":-0.05048009698343162,"70":0.010444872749120069,"71":0.02880530776332767,"72":-0.08562668160105359,"73":0.10439690641436707,"74":-0.04129676968067943,"75":-0.022125956703871574,"76":0.02513203886630185,"77":-0.07247401060889089,"78":-0.020130261189966987,"79":0.01279014162634286,"80":-0.02669073508099443,"81":0.012936957744655147,"82":-0.011573603667698792,"83":-0.04333114413420274,"84":0.006425847651447338,"85":-0.04452547730109037,"86":0.03278449153529937,"87":0.06148294879465897,"88":0.03666437004108386,"89":0.09581248550413572,"90":0.07789598858299882,"91":0.004579174278529694,"92":-0.06940995847628476,"93":-0.0009388036502826051,"94":0.02069127232599261,"95":-0.00868975261005542,"96":-0.10785687314833993,"97":-0.009488820368514261,"98":0.09809563313848303,"99":-0.022900996940800684,"100":0.050286241185726686,"101":0.005081557179314418,"102":-0.00919674917268516,"103":0.011167410360393428,"104":-0.051100940856842546,"105":-0.06540530867861968,"106":-0.04088561788417471,"107":0.06020828987123542,"108":0.015079573157238147,"109":0.06454780815646007,"110":0.06698953139025993,"111":-0.02202422395189732,"112":0.01831055291460015,"113":0.11612986653432984,"114":0.02548643772603251,"115":0.015215577269524223,"116":-0.024186750679149993,"117":-0.0569928120119812,"118":0.047949041306289936,"119":0.102435546346714,"120":0.028291812500430644,"121":0.03583372392280712,"122":-0.04812955150418041,"123":0.11190632094522661,"124":0.13009447881394778,"125":0.09884757765954875,"126":-0.06093836386916206,"127":-0.032869524137701396,"128":0.053686134997414564,"129":-0.0006266185162747781,"130":0.06554009840670612,"131":-0.10849461906874437,"132":0.0018096136777357367,"133":-0.01560308675888552,"134":0.07759397758806909,"135":0.10378793806412184,"136":-0.08018141187285356,"137":-0.026090417553460754,"138":0.06695678557322755,"139":0.033659902205968886,"140":0.01152543331043828,"141":0.12826466609173598,"142":-0.020488275274210977,"143":0.008152242671485049,"144":0.024284860702594457,"145":-0.006156855208682984,"146":-0.011416495441013159,"147":-0.04873334988392923,"148":0.06353133715701714,"149":0.014317409489155778,"150":-0.031142750943182397,"151":-0.0067916176578688234,"152":-0.030784383109217873,"153":0.13427927277276971,"154":-0.021935756138447737,"155":0.038053056115963754,"156":0.023282476186181768,"157":0.03319837207624185,"158":-0.007300187627512012,"159":-0.09135862316529861,"160":-0.06299923053898818,"161":-0.05680287722623531,"162":-0.0857654482035124,"163":-0.07804407104160116,"164":0.02238429475165177,"165":0.0811077647030849,"166":0.05383669497412852,"167":-0.04814991077113713,"168":-0.08180574303869176,"169":-0.027788403596042836,"170":0.05505490775528583,"171":0.06534006277406325,"172":-0.05940025849689451,"173":-0.02519436097776646,"174":0.03883216166034852,"175":0.0653696386897997,"176":-0.03721481657385092,"177":0.0390997148551507,"178":0.02803131617203065,"179":0.05420673617146542,"180":0.04860018183745178,"181":0.028394740414415733,"182":0.06992970676229454,"183":-0.03293324713818517,"184":-0.05895302392960358,"185":0.0920303775267148,"186":-0.009684644508073836,"187":0.05865624743939065,"188":0.026642061014999486,"189":-0.1067667952025221,"190":0.035111253139708296,"191":-0.04027601423586013,"192":-0.0332038715267803,"193":0.06039839759489179,"194":-0.035382860020792335,"195":-0.023839414947156048,"196":0.040581390210171854,"197":-0.016375714190292424,"198":-0.03467719438016291,"199":-0.13506346337619346,"200":-0.006605186127549568,"201":0.01794851780311102,"202":-0.060057123116157574,"203":-0.028714941326344764,"204":0.02285598210299583,"205":0.031889732302528215,"206":0.04314171086699664,"207":-0.05974962860169683,"208":-0.016012404989165972,"209":-0.013603768178027989,"210":0.08624909418106193,"211":-0.030040576753993988,"212":0.032933171632880655,"213":-0.07843391170088838,"214":-0.09498606562101752,"215":-0.1032458329019119,"216":-0.03867607607033279,"217":-0.0004970692690196768,"218":-0.061863501704821196,"219":0.007157042965898167,"220":0.024060054018201694,"221":-0.02081389567984157,"222":-0.08800429733991749,"223":-0.04387511822636813,"224":0.0953232480258609,"225":0.002220132219643874,"226":0.05120763119604445,"227":-0.008386442967357128,"228":-0.01367646712318202,"229":0.00025020373529667717,"230":-0.031532894495847244,"231":0.14348012479386463,"232":-0.060245792742788046,"233":0.01176941588608017,"234":-0.11553824977978272,"235":0.07727102584613431,"236":-0.06812465991395622,"237":-0.057095515817109116,"238":-0.04146598934872934,"239":0.012538648302086737,"240":-0.13564628326450215,"241":-0.07653925274483975,"242":-0.07562229559174598,"243":0.026047971668898034,"244":-0.00421878620216943,"245":-0.06689438631206038,"246":-0.10765403846324252,"247":-0.010338950601005944,"248":0.049474642267420946,"249":-0.060529287973422836,"250":-0.05638177560475073,"251":0.06314978807628355,"252":0.06025713693715143,"253":-0.03520855692231185,"254":0.03227569756178789}},{"sx":1,"sy":1,"depth":255,"w":{"0":-0.11714023650676533,"1":-0.052045729897013115,"2":-0.02057115500638327,"3":0.07948705869607514,"4":-0.017423498523754063,"5":-0.08182903815708865,"6":0.0766615976704281,"7":0.18147256225340339,"8":0.09610837734754786,"9":-0.0752724786387178,"10":0.010463564270150492,"11":0.01967350018174155,"12":-0.08402671198015686,"13":-0.011360057084563056,"14":-0.03862740745586354,"15":0.13522823195563516,"16":0.16957019132787796,"17":0.04338621746547926,"18":0.08158351587621145,"19":-0.11163545808143063,"20":-0.004444226616957172,"21":0.031031762995882246,"22":-0.06306662022564713,"23":0.16368330707180728,"24":-0.007918100644958527,"25":0.05111419832535222,"26":0.05552179185784905,"27":0.04622584123370068,"28":-0.038992236837071766,"29":-0.040845460524933,"30":-0.008313051167015962,"31":0.02447339675080353,"32":-0.07324224878877697,"33":-0.028980451526755144,"34":0.05659155651765255,"35":-0.021486240314145,"36":0.09964071169550234,"37":-0.03804427736995856,"38":-0.00385889885486435,"39":0.034711762904424466,"40":-0.05391647888229639,"41":0.06633889842542164,"42":0.14655477134871353,"43":0.025381740998235848,"44":0.020613179264771797,"45":0.08231668503566456,"46":0.15139407873399777,"47":-0.050059867254643765,"48":0.033292562336971344,"49":0.058697042077369116,"50":-0.12469696923961072,"51":-0.051019991057339766,"52":-0.1458196697314546,"53":-0.01853469354989874,"54":0.012178551296672512,"55":0.09789507210349971,"56":0.12077031781657872,"57":0.13584833775739355,"58":0.09603374599097983,"59":0.040274490710922185,"60":-0.07088095710332082,"61":0.05503459559383813,"62":-0.0002656022646449502,"63":-0.010924723343413621,"64":0.044818994594970456,"65":0.03391886632497354,"66":-0.07550099386667132,"67":0.04138118770420338,"68":0.0477152598131643,"69":-0.11502006767448364,"70":-0.08757613830437,"71":0.010543753419663597,"72":-0.006573505514785184,"73":0.10176321334873703,"74":-0.022689544449864932,"75":-0.0011570508465776866,"76":-0.09288992022185333,"77":-0.038676684698728855,"78":-0.02033553980695889,"79":-0.049317345733152634,"80":0.12007351001901174,"81":0.06507530326537471,"82":0.0595203660624106,"83":-0.003238815906019871,"84":0.03988395639796148,"85":0.04725053224685655,"86":-0.03143026142787702,"87":-0.12420947335809793,"88":-0.003213124003198931,"89":-0.09993658809752101,"90":0.02955106367773487,"91":0.03753373607239638,"92":-0.04111816273065397,"93":0.06582865506994143,"94":0.06304570920500449,"95":-0.03765107496638021,"96":-0.023799902645737694,"97":-0.0035351532559986564,"98":-0.019010975184547505,"99":-0.07440385867580813,"100":-0.060492396975716865,"101":0.006211413951090882,"102":0.051765715244365365,"103":-0.042654508049098455,"104":-0.0704143517380319,"105":0.10594046762469457,"106":0.07900947955138163,"107":-0.008875560723892095,"108":0.10421265235099922,"109":-0.0020254903156761,"110":-0.008537678802894093,"111":-0.009030697662903982,"112":0.011845486602767404,"113":-0.025647948943859394,"114":0.027479916913175934,"115":0.03181468136572642,"116":0.007202685133533265,"117":-0.016476683245421186,"118":0.0024105369220633398,"119":-0.10158056473426988,"120":-0.07541921497513342,"121":-0.02535277116183007,"122":0.0388765991162662,"123":0.01239935060064959,"124":-0.10325920073190518,"125":-0.06563029688628155,"126":-0.04570898319185557,"127":-0.028093552353630407,"128":0.06655278228154587,"129":-0.025329612129775508,"130":-0.038307854504705835,"131":-0.062349076212673805,"132":-0.04564993370848808,"133":-0.16116092040574112,"134":-0.061379111288877755,"135":-0.022237877669831346,"136":0.04071004965345702,"137":0.07839589393714423,"138":0.11612376640507055,"139":-0.06072306513438263,"140":0.00045469422221589185,"141":0.03380015159127447,"142":0.015411538186112154,"143":0.01091005906147659,"144":-0.005354689073233302,"145":-0.07126740355897185,"146":0.08956369590016215,"147":-0.020686113027748414,"148":0.08496831599316734,"149":0.018161333654661466,"150":-0.0695337888350857,"151":-0.07297615394005838,"152":0.00522746130138164,"153":-0.023310770684149034,"154":0.017098623934970532,"155":-0.17142164938671298,"156":0.040191827567383855,"157":-0.061032452527183256,"158":-0.03165368835111267,"159":0.004410109795796013,"160":0.027716903195434912,"161":0.11389507409041906,"162":-0.0013842469152044996,"163":0.03535963093437858,"164":-0.0045815514847081925,"165":0.0754509522090914,"166":0.09418866666422591,"167":0.035817098871354355,"168":-0.1011470872823965,"169":-0.05678032000807606,"170":0.02165702231351199,"171":-0.06720557872625636,"172":0.017479920905471222,"173":0.026796245882698567,"174":-0.004382345125741971,"175":0.07825234667537563,"176":-0.019614111120751277,"177":0.027088619120760146,"178":-0.020801462940071735,"179":0.014561586097054756,"180":0.007892233542805245,"181":-0.022457304491851033,"182":-0.024945208317362196,"183":0.04393757873512101,"184":-0.02506116052611816,"185":0.04130924126188004,"186":-0.041756907278042384,"187":-0.03894435780747865,"188":-0.045835827302755816,"189":0.011576595987191952,"190":-0.12710385118872491,"191":-0.1005473182488809,"192":-0.034900693554481985,"193":0.0034112796791872634,"194":-0.0764086235094525,"195":0.05206013081366258,"196":0.009998474309304714,"197":-0.18082463846195104,"198":-0.08183565920582098,"199":-0.03584872648436082,"200":0.08926108593446785,"201":-0.06001365746737339,"202":-0.01005451399524293,"203":-0.042923639364658976,"204":-0.054192482596851436,"205":0.0828781105506273,"206":0.1062636381577696,"207":0.014899008525052293,"208":-0.029890373074492514,"209":-0.08031509102463745,"210":0.007908071178937957,"211":0.06317601552463767,"212":-0.08989718829774396,"213":0.005367251497928358,"214":-0.04745008084530552,"215":-0.010547853379373898,"216":0.0839340743346603,"217":-0.004928494601440818,"218":-0.01908305089055273,"219":-0.01527107436591567,"220":0.0307861062059522,"221":0.05728629367998122,"222":0.046214211163594504,"223":0.02690257341868234,"224":-0.02685516065380889,"225":0.029832821834270086,"226":-0.015176226847919597,"227":0.00395634509848522,"228":-0.007773519620348545,"229":-0.05187111205795404,"230":-0.13947833676388605,"231":0.1206147401953996,"232":-0.015314875607280377,"233":0.07830816641825046,"234":0.08220107219210336,"235":0.11330185090719103,"236":0.020386832107400513,"237":-0.0032943643552249794,"238":0.0131539531955087,"239":0.08944346984314566,"240":0.06806527828867967,"241":0.02100580763355549,"242":-0.044152801451545834,"243":-0.011635838966801834,"244":0.09007628523083648,"245":0.0011219079779205019,"246":-0.07682438451386667,"247":-0.039567452244346255,"248":-0.04268380675579587,"249":-0.005937320401061389,"250":0.004143836559309938,"251":0.021310447806366793,"252":-0.00788064462528469,"253":-0.0627327788200328,"254":-0.009366218889977513}},{"sx":1,"sy":1,"depth":255,"w":{"0":0.03800578012979852,"1":-0.009483740742489167,"2":0.1364061629042144,"3":0.07911204981473637,"4":0.04855825313510261,"5":0.12070705363811783,"6":0.04307725626922209,"7":0.06019805540001799,"8":0.045606596032287464,"9":0.08978904855858433,"10":0.16062146235639954,"11":0.030680631042472945,"12":0.09277724974715966,"13":0.0058596207396004905,"14":0.04514947970498466,"15":0.07954204311924706,"16":0.037530317630871377,"17":0.019301382762720393,"18":0.01003422533898112,"19":-0.001076069345817641,"20":0.1268396313858188,"21":0.07914682349690423,"22":-0.08233306894501816,"23":0.03282804433604254,"24":-0.0550182293782612,"25":0.005515898645380394,"26":-0.003601480683233728,"27":-0.007919048438173598,"28":-0.0018978170784646772,"29":-0.040751048542613855,"30":-0.07749541382585967,"31":0.031144492630212257,"32":0.0593415491196831,"33":0.031492907425736245,"34":0.03608679807965048,"35":-0.03459462004520941,"36":-0.044932779502640165,"37":0.032542301432468876,"38":0.0037400957141472822,"39":0.02676887869187779,"40":-0.04476090397320353,"41":0.002819447273000803,"42":0.04752419080080144,"43":0.09009498606666437,"44":0.030267503940200436,"45":-0.118900615388602,"46":0.05287935626475784,"47":-0.0005965405996099342,"48":0.03915871378324862,"49":0.05486626695173305,"50":0.04774633291088656,"51":-0.021380021865514253,"52":-0.04157951469863082,"53":-0.058477508640739084,"54":0.0709423083416479,"55":0.022693330010380458,"56":-0.06683128294485409,"57":0.033277250438835844,"58":0.000552435928783907,"59":0.06461149956883981,"60":0.007698604418080523,"61":-0.03110237814922517,"62":0.0008228871167933134,"63":-0.004222589062962906,"64":0.023794341171900043,"65":0.05116156308997556,"66":0.04039107006212545,"67":0.08210868653721823,"68":-0.0850240995993436,"69":0.032244701433517146,"70":0.06163091722013062,"71":-0.05069946785437867,"72":-0.05301601282202776,"73":-0.004995389479338901,"74":-0.057822647408354896,"75":0.062118500564006675,"76":-0.013489357596498936,"77":-0.014871193319501994,"78":-0.06635046015746973,"79":0.051567093435412346,"80":0.05446387965760599,"81":-0.13495603297847933,"82":0.027530142779035333,"83":-0.06027057798438024,"84":0.013537762296868578,"85":0.06344959033560557,"86":-0.14177869546421407,"87":0.07398519037535178,"88":0.012033335095073506,"89":-0.08515718911408991,"90":-0.02859271377123996,"91":0.1549884956099546,"92":-0.08643194849797775,"93":-0.10255981789971742,"94":0.09121672216612281,"95":0.07711922903091634,"96":-0.06209048609522005,"97":0.01878561614903827,"98":-0.09234140895374292,"99":-0.022805152293087903,"100":-0.04115704874599715,"101":0.01055512640612907,"102":0.003094132630219859,"103":0.0745634189924161,"104":0.017439835686111724,"105":-0.012476090650583875,"106":0.0808909666796973,"107":0.09319447725576874,"108":0.07575407012215486,"109":0.1410094076646223,"110":0.06176522404554842,"111":-0.07860268430109747,"112":-0.11909220293280315,"113":-0.008667393759800137,"114":-0.02704026289079855,"115":0.08815466493471925,"116":-0.05994819619932917,"117":-0.015785592806174614,"118":-0.007461894034762391,"119":0.02766232051564465,"120":0.15636361717113192,"121":-0.006515452544716881,"122":-0.04588264181545019,"123":0.12223329777792259,"124":0.04492801590888671,"125":-0.12397222846556193,"126":0.0034476762033703225,"127":-0.12359316451023727,"128":0.0734488894241764,"129":-0.06950436161361159,"130":-0.034497192382317035,"131":-0.041355727895525544,"132":-0.019423442479048293,"133":0.07504332299642097,"134":-0.03161763566951051,"135":0.03514570703618274,"136":-0.02790805250776364,"137":0.04369478502820607,"138":-0.008409384299267077,"139":-0.08241140879346139,"140":-0.03663809858522564,"141":-0.049291382978760345,"142":0.0851440419280358,"143":-0.06441617215788473,"144":0.03724305967693604,"145":-0.04899499909360173,"146":-0.014592600430496868,"147":-0.036552321159263844,"148":-0.02878408953418381,"149":0.062249015025999735,"150":0.1261379394311021,"151":-0.16579560758426234,"152":0.05423560689427997,"153":0.06884399775788941,"154":-0.07434913610000725,"155":0.03184784699081644,"156":-0.036040349574837455,"157":0.054911216362138686,"158":0.018721551706021355,"159":0.04204010506670823,"160":0.0075235771407366385,"161":-0.037279043011521185,"162":0.040959238713002,"163":0.010055680470292492,"164":-0.09221898372373824,"165":0.07433376673458551,"166":-0.02724461270446797,"167":-0.04548139509411846,"168":-0.03139512522818499,"169":0.0518774739754589,"170":-0.10471482088907684,"171":0.11440657038084341,"172":-0.04408050706556262,"173":-0.11711730418611031,"174":0.10969702281559811,"175":0.024095091041915363,"176":-0.04230265175017911,"177":-0.022369960645154213,"178":0.06644497808710824,"179":0.021934527060140242,"180":0.08952596916182809,"181":-0.11260678315199815,"182":-0.03174033794021568,"183":0.03447644901359202,"184":-0.07956785746973323,"185":-0.025949578236576266,"186":0.05785967696567076,"187":0.058463868400385005,"188":-0.001028606275778613,"189":-0.017118693442037133,"190":0.0166145784363692,"191":-0.08947931435015516,"192":0.01484269298630403,"193":0.09205056509144267,"194":-0.07045351312219927,"195":0.003324570212622076,"196":0.07743551715388577,"197":-0.0366111369328406,"198":0.09763457211017423,"199":-0.03165000995160037,"200":0.14262307362372176,"201":-0.03358660926695134,"202":-0.04747421749356108,"203":-0.025068193546479305,"204":0.016288155146196845,"205":-0.04469340574037957,"206":-0.04388326103993278,"207":-0.004043097533818492,"208":-0.03651046628173912,"209":0.08416603221165443,"210":0.0857726984616658,"211":-0.033846494268313425,"212":-0.06138695207570046,"213":-0.02773316737669379,"214":0.045070024757662856,"215":0.014243162768634758,"216":-0.022778759026729874,"217":-0.0012524571502043706,"218":-0.03176008997780177,"219":-0.043313587192424376,"220":0.02508519777514679,"221":-0.01965780381090916,"222":-0.004833568555802849,"223":0.0467511727186864,"224":-0.05298030403180295,"225":-0.06873263807377092,"226":-0.024861685917984357,"227":0.06971755657861022,"228":0.15730005178564646,"229":0.04609793694719839,"230":-0.02983708856552963,"231":0.004102312553821404,"232":0.019665625983949945,"233":0.03912561951189407,"234":0.026893940210986435,"235":0.03068249089091412,"236":0.05379691226092253,"237":0.019401286796168288,"238":0.03274338765907279,"239":0.04316914607018569,"240":0.02319417119879522,"241":0.14158435444132117,"242":-0.017494628130084285,"243":0.009660332433829086,"244":-0.08539950973295875,"245":0.059605247800536075,"246":-0.12640276198728886,"247":0.08094427282122293,"248":-0.02759220911947283,"249":-0.06147242711070834,"250":-0.10535890949840979,"251":-0.052781900589938056,"252":0.09345065037094624,"253":0.05950026803847045,"254":0.08709119654169348}},{"sx":1,"sy":1,"depth":255,"w":{"0":-0.019500046592038196,"1":0.03274125715029078,"2":0.027094978499083964,"3":0.03301792029090983,"4":-0.06582625124571258,"5":-0.008580485778554284,"6":-0.019749466525100928,"7":0.012882040234622567,"8":-0.05305985735553475,"9":-0.033354585882434624,"10":-0.06143319746810895,"11":0.0005424953663948555,"12":0.08401348448864375,"13":0.00008870465833101088,"14":-0.08234958772624593,"15":-0.16843316267827282,"16":-0.05317536691328284,"17":0.0023314044718701844,"18":-0.0952948388222028,"19":0.06858872887172646,"20":-0.07573450866560873,"21":-0.09849481585011487,"22":0.0215283958508323,"23":-0.04044355712750503,"24":-0.014030544796689016,"25":-0.11707007248938468,"26":-0.06112851697412727,"27":-0.038884808412853626,"28":0.04851395780038467,"29":0.12246283605834296,"30":-0.06286680874823473,"31":-0.05714058775563259,"32":-0.03689685158887576,"33":0.09909983381156204,"34":0.005148358571637124,"35":0.006595345807723437,"36":-0.004017168629959095,"37":0.017137758509742404,"38":-0.1182389741761354,"39":-0.057089763199512644,"40":-0.04593804914273659,"41":-0.0687221328395844,"42":-0.023843665184492265,"43":0.037822629572465724,"44":-0.028375927009753114,"45":-0.024199367674162257,"46":-0.0501848658970657,"47":-0.050268785084919346,"48":-0.059573413607707446,"49":-0.022225884144262034,"50":-0.0017813858763681858,"51":-0.05868314119322191,"52":0.13724179076562665,"53":-0.011481063229507715,"54":-0.033408791867985205,"55":-0.0578756481044562,"56":-0.027820865024763053,"57":-0.009734799462131963,"58":-0.07605349230166829,"59":0.08941846588038856,"60":-0.09227616753499512,"61":0.0017005711171869684,"62":-0.07012017677057795,"63":0.12031356234866801,"64":-0.041023243032155175,"65":-0.018904267189276534,"66":-0.0012529393559847892,"67":-0.08086992604717676,"68":-0.016974897392383656,"69":0.06576648338963663,"70":-0.005884613836740235,"71":-0.07586017010488959,"72":-0.031690668617124856,"73":-0.05021788340594307,"74":-0.11923200802372677,"75":-0.10522302443497726,"76":0.08404391260135514,"77":-0.029771083653963356,"78":-0.10400603436775438,"79":-0.0018578141509506426,"80":-0.16537389701050695,"81":-0.11721194113786426,"82":0.05874605026020566,"83":-0.1053157485573758,"84":-0.028097869024417688,"85":-0.026239447227929074,"86":0.029730452503195472,"87":-0.09210825707031729,"88":-0.032301821219199035,"89":-0.023235928939635827,"90":-0.02371190520501286,"91":-0.12456583319590284,"92":0.059919324494538295,"93":0.044664177344534726,"94":-0.033382575351195834,"95":-0.06952201735136891,"96":0.0203013388389943,"97":-0.031911502580743406,"98":0.046453639721559754,"99":-0.018046601355478687,"100":0.02505368406840916,"101":-0.07806446761277247,"102":-0.034509543161251176,"103":0.14409017891689516,"104":0.013958444533554042,"105":0.010927887685006247,"106":0.032809353690618,"107":0.07942349844116584,"108":-0.009335074332220226,"109":-0.027334257907576383,"110":0.023899353765998454,"111":0.14714962614676272,"112":0.06712881545313881,"113":-0.10233297056853165,"114":0.0834880512393878,"115":-0.051211873858899554,"116":0.01615774155746552,"117":0.06788764335204533,"118":-0.03545019398671986,"119":-0.0075371510652922965,"120":0.122230438649629,"121":0.1259426241360974,"122":-0.0479165747260849,"123":-0.03989431050806078,"124":-0.07842505773582824,"125":0.04354661744254697,"126":0.047783845200533664,"127":-0.06265129316965283,"128":0.14003241155900656,"129":-0.02248435826109472,"130":0.005682594709817071,"131":-0.052034232619661405,"132":-0.014044667053584915,"133":0.04731920197409491,"134":0.08577694442804255,"135":0.001825970947883425,"136":0.01149751795071386,"137":-0.05653750566819206,"138":-0.04599086916804847,"139":-0.04665665045102155,"140":0.10664610041220109,"141":-0.10789236022647804,"142":0.03193218606775834,"143":-0.05575860216207927,"144":0.01757879191624822,"145":-0.005592538307263243,"146":0.009656358332527218,"147":0.049118291060833125,"148":0.0031114210557344844,"149":0.02312954145098947,"150":-0.054980934319262806,"151":-0.01921124452860592,"152":0.05384805042602907,"153":-0.07780659772490087,"154":0.005091953128609365,"155":-0.011530301318119109,"156":0.0013296807103141634,"157":0.01285835922408946,"158":-0.002764451695588892,"159":0.06772425753975553,"160":0.1029448151447545,"161":0.014140969397395993,"162":0.04988226103138045,"163":-0.02123909805946668,"164":0.037424346646092184,"165":-0.026016027666991688,"166":-0.04107750056846458,"167":-0.05063835172507068,"168":0.04270080343724317,"169":-0.029378567235384297,"170":-0.038801610091461394,"171":-0.00928278180624254,"172":0.03822529822168879,"173":0.028726756604005258,"174":-0.02451722639129803,"175":0.07493089516304557,"176":-0.015673561261266476,"177":-0.1503723959357581,"178":0.10774206064158295,"179":-0.05754796674143145,"180":0.03119442728294644,"181":-0.10078662817495132,"182":0.007451058579858898,"183":0.0982200483051336,"184":-0.1263001627843148,"185":-0.008763892357807631,"186":-0.0011830817901264529,"187":-0.006302584313721409,"188":0.0726938188966609,"189":-0.1469908240751097,"190":-0.0022998304541930075,"191":0.01723734112257677,"192":-0.03595493977051929,"193":-0.0009307783233302769,"194":-0.04490176096600536,"195":0.12887586675908075,"196":-0.04133069161585018,"197":-0.08086144413635421,"198":0.056714169300294645,"199":-0.1053947289119844,"200":0.016212127188628016,"201":-0.020240898719242895,"202":0.037152578108736435,"203":0.006368135815529984,"204":-0.005356405016639381,"205":0.017846417219342266,"206":-0.06537173390708652,"207":0.04289656929948374,"208":-0.02533070465828372,"209":-0.021637318588777106,"210":0.04615120627037523,"211":-0.03465804609370025,"212":-0.14835005712725152,"213":0.04892542479899352,"214":0.022708568797843668,"215":-0.10516253857622249,"216":0.12620775753687888,"217":0.05188978257751103,"218":0.087101273489867,"219":-0.056933348596647344,"220":-0.016099212420689752,"221":0.04687909889067335,"222":0.12086187640145139,"223":-0.005173638515719603,"224":-0.005985800577417333,"225":0.0663440235202425,"226":-0.09608679054253007,"227":-0.06123533869122479,"228":0.1421322823264008,"229":-0.025832560710841862,"230":-0.060138045802145344,"231":0.024606587687259096,"232":-0.03171618177173085,"233":-0.13480629929854623,"234":0.04808195250282094,"235":0.020189560010613866,"236":-0.0822103336288884,"237":0.03991316860552585,"238":0.04808573287985581,"239":-0.09212654308007578,"240":-0.050483316656742244,"241":-0.02182993399748366,"242":0.011145196750423554,"243":0.10678632653479624,"244":0.060192055595151825,"245":-0.05139799395355745,"246":0.12910051470696665,"247":-0.021304143866917896,"248":0.06041177906863548,"249":-0.05915168605724824,"250":-0.01856988569116811,"251":0.07492900785909057,"252":0.014737604512309236,"253":0.00039105969400279265,"254":0.027109256445354928}},{"sx":1,"sy":1,"depth":255,"w":{"0":0.006407229368148189,"1":-0.11445108274137977,"2":-0.030132661359783243,"3":0.07386312063068484,"4":-0.04615133103845209,"5":-0.026680836687343557,"6":0.014053023017053284,"7":0.025985129768234333,"8":-0.019224777855642437,"9":-0.05782978517507131,"10":0.05598889911913335,"11":-0.03183741437024057,"12":0.010470598488171633,"13":-0.004272098611375254,"14":0.04963849784250015,"15":-0.05287470366476532,"16":0.007862137344055782,"17":-0.021465658235898778,"18":-0.0354712445838312,"19":-0.1057234880471218,"20":-0.00391887043207099,"21":0.05578189404673583,"22":-0.025202545769622955,"23":-0.09092672006823375,"24":-0.010524509847225857,"25":-0.030625225495675517,"26":-0.10827466227081356,"27":-0.0012173534302409384,"28":-0.05839352182516472,"29":0.07137587053580843,"30":0.06504800118205839,"31":-0.06899652801119857,"32":-0.056625045682918505,"33":0.05266814519465002,"34":0.019951254930101286,"35":-0.08426450297409209,"36":0.1441328135470321,"37":0.015745651186914837,"38":-0.044185326680681966,"39":-0.01063911312061923,"40":0.06100808101997386,"41":0.05438727950554127,"42":-0.0587316592850534,"43":-0.00036803809023308896,"44":-0.06378805819313839,"45":-0.05166543064682611,"46":-0.02467576252678753,"47":-0.06343397425746179,"48":-0.004558002874451997,"49":0.004206425887941894,"50":-0.021489528108290693,"51":0.06506920900764296,"52":0.09027660382780116,"53":0.1377112260613413,"54":-0.10489847769490601,"55":0.04041375964595263,"56":0.12469800396928063,"57":0.0665416341536559,"58":-0.09441597695567193,"59":-0.21271517097639983,"60":0.01268986138922533,"61":-0.015205617145838563,"62":0.021665040990398562,"63":0.08075544557228169,"64":0.06285688927939456,"65":0.12528179089994157,"66":0.10743233620582024,"67":0.1421390823525547,"68":0.03558859261464709,"69":-0.0072094036330791955,"70":0.011808487849303068,"71":-0.05445852629481018,"72":0.06433641221036235,"73":-0.047772594674251836,"74":0.0050244953874400075,"75":-0.03130512130205344,"76":-0.06497338818662556,"77":0.024566060871726685,"78":0.03371565386744622,"79":0.014664158188359722,"80":-0.13718455435130306,"81":0.03240443556402167,"82":-0.13314556172285594,"83":-0.08486449528106683,"84":0.033220851415104134,"85":-0.05533169850860385,"86":-0.033924197390823405,"87":0.053918285984354185,"88":0.044953783313758565,"89":-0.11540399661534742,"90":-0.05156415145130868,"91":0.054703743994656974,"92":-0.035160026891956096,"93":-0.02142794585889963,"94":0.02422035459370513,"95":0.007456195986116798,"96":-0.021536777898853113,"97":-0.08910551139550506,"98":0.13528202726676689,"99":-0.048211884262084635,"100":0.05027668346708938,"101":-0.099173135991231,"102":0.023518037522071007,"103":0.008062352293957593,"104":-0.0379682102094603,"105":0.08755709000408993,"106":0.02204921540439928,"107":-0.044390781167948395,"108":0.02760641141071807,"109":-0.0974102278165612,"110":0.037287950184415525,"111":0.03183609570954521,"112":-0.04013437664540215,"113":0.05366476202634484,"114":0.03385361715327622,"115":0.051393334015876056,"116":0.05181613803604314,"117":-0.030884219933441846,"118":0.05420847434568334,"119":0.01652426013165218,"120":-0.08708039970837561,"121":-0.033441624711536465,"122":0.1007750890441758,"123":0.058996345972012545,"124":-0.06098598609143161,"125":-0.05035920233744963,"126":-0.02332689420244538,"127":-0.029960232862030662,"128":-0.1424310605653291,"129":0.01621719774174744,"130":-0.027358549023167488,"131":0.03014444906134128,"132":-0.06666555259057273,"133":-0.02822229355165176,"134":-0.18234014244875663,"135":0.008656442350622622,"136":-0.1813177761989363,"137":-0.03698022188271977,"138":0.037245830233831184,"139":-0.0013656506076230365,"140":0.09151317230437037,"141":-0.05723168876021997,"142":0.05762399981953137,"143":-0.008613387313933076,"144":0.08415539072630797,"145":-0.007012618006841398,"146":0.03764081192104552,"147":-0.13641197169825453,"148":-0.09538145225166753,"149":0.03373850339675623,"150":0.03913669897039775,"151":0.010562974773214518,"152":-0.010267258347567828,"153":-0.0721776088742214,"154":0.10409517875869718,"155":-0.08073600797736795,"156":-0.06594315151280876,"157":0.06427835689358437,"158":-0.10184101223194343,"159":0.18628652149100558,"160":-0.03204050611746238,"161":-0.030515113120426058,"162":0.03139728010602171,"163":0.163339562828749,"164":0.007278336445233018,"165":-0.04783631035965629,"166":-0.07923269007549585,"167":-0.016528653148240115,"168":0.036867881452549094,"169":-0.07393919108742597,"170":-0.021276184292529615,"171":0.10289293580030082,"172":0.011541116862073493,"173":0.012292450159115585,"174":0.037639809834307335,"175":0.028257262345139006,"176":-0.07528856294051782,"177":0.058769863201634374,"178":-0.02853028360193199,"179":0.0895431758125579,"180":0.1424221832522863,"181":0.13992416982737396,"182":0.054665489985942825,"183":-0.004277420491115943,"184":0.10065910399410742,"185":0.09218900353168769,"186":-0.028478381533710226,"187":0.08065183610640934,"188":0.0031757785210844176,"189":0.09832948388347511,"190":-0.07390704723098761,"191":0.10395254190589946,"192":-0.0293212863077176,"193":0.049355541059386665,"194":-0.03609807148245435,"195":0.02928791914189578,"196":-0.08337740666473284,"197":0.034633529264735056,"198":0.11064246816747325,"199":0.0943613797026028,"200":0.020407515937126853,"201":0.03824182855958776,"202":-0.009958900840854752,"203":0.005387821763868846,"204":0.08796813458676614,"205":-0.07010546804262999,"206":0.010944740833031492,"207":0.11814937227243445,"208":0.02218744153322797,"209":-0.08843534461493217,"210":-0.030576306123019485,"211":-0.029377904329561024,"212":0.07835283377083758,"213":0.05812283926932216,"214":0.026664348450755094,"215":0.011862054765614622,"216":0.030318166012412273,"217":-0.02850112724317723,"218":0.07651129831117424,"219":-0.0029186966461685246,"220":-0.0512388172635973,"221":-0.045838981500783756,"222":-0.013754823805810116,"223":-0.13260412282640197,"224":-0.007880075913931984,"225":0.04211806249729867,"226":-0.04190074918815977,"227":0.011477838131776203,"228":-0.03349378586879373,"229":-0.0144047289635533,"230":0.01652159132892058,"231":0.04131507820116942,"232":-0.029497355547075582,"233":0.03254610071759779,"234":0.029856191963744335,"235":-0.11937414009997335,"236":0.03158352652358437,"237":0.020524108672605075,"238":0.007294629531287189,"239":0.025460250985163965,"240":-0.05537019741284902,"241":0.06132927553863879,"242":0.034835409446130505,"243":-0.049732837551086435,"244":-0.0058524991226970025,"245":0.08958085641561993,"246":0.015344653488066405,"247":0.027465743282299573,"248":-0.08510213800383029,"249":-0.07973586947658819,"250":-0.051267200521758455,"251":0.007277984678271401,"252":0.043644641075743326,"253":0.00012158144040437347,"254":-0.012723918247375992}},{"sx":1,"sy":1,"depth":255,"w":{"0":-0.0420320686825268,"1":0.02912453116198346,"2":-0.0549295044264464,"3":-0.05112794851970287,"4":-0.07628924286295723,"5":0.020204634763326425,"6":-0.04727921522965327,"7":0.08572820666718098,"8":-0.09579217451186009,"9":-0.00003771663107038836,"10":-0.061410953060075414,"11":0.0427097053242125,"12":0.053302148140330685,"13":0.023306724869869174,"14":0.03170255515260123,"15":-0.040466198292329815,"16":-0.06764346744427507,"17":-0.057874148639220226,"18":-0.0016055764334906542,"19":0.05727526150615005,"20":0.03760249853386994,"21":0.006469897808841034,"22":-0.015158878447108894,"23":-0.003142785393640957,"24":0.004631874499974909,"25":-0.043420240524401195,"26":-0.11599614214479456,"27":-0.06241902606995589,"28":-0.1326058046868044,"29":0.03217567626924915,"30":0.07103334101876002,"31":-0.033992568978560796,"32":-0.046343329746521035,"33":0.06052446610947247,"34":-0.08863484521858718,"35":-0.059757158562566755,"36":0.10287980541764523,"37":-0.018189364523600125,"38":-0.081556135503201,"39":0.14013835360047405,"40":-0.03771827545772539,"41":-0.0492997664203923,"42":-0.05493571260685981,"43":0.08889766724104542,"44":0.1730090999823719,"45":0.05289884415064102,"46":0.06500911135882974,"47":0.14665501617227922,"48":0.026936319016522915,"49":0.014895453047384976,"50":-0.05973950589126634,"51":0.0883459988751054,"52":0.05867743439545849,"53":0.088495758760495,"54":0.007832565284716786,"55":0.009647847366339604,"56":0.01930299336000019,"57":0.007215096553471502,"58":0.0632292778225533,"59":-0.03883186957448911,"60":-0.08228395293575806,"61":0.016108237766702567,"62":0.07705126069387817,"63":-0.03857531327050237,"64":0.015511407131159541,"65":-0.18575822533651873,"66":-0.017430395736601607,"67":-0.012629918497917642,"68":-0.06207062850070319,"69":0.08306129263274167,"70":-0.05045537669647464,"71":0.050379968931672583,"72":0.05926814798504881,"73":-0.05613936728662893,"74":-0.12113995206727332,"75":0.0796533330948321,"76":0.0732058981054792,"77":0.023587479182349807,"78":0.02672684644412695,"79":0.12471639951237526,"80":-0.011641609649067979,"81":0.02896206232742149,"82":-0.00807818758054281,"83":-0.013453904170613628,"84":-0.04416053070255465,"85":-0.017580583954857155,"86":0.030197418404345113,"87":0.015819538271178313,"88":-0.0762055424181107,"89":-0.02291975028501874,"90":0.02447387541060501,"91":0.0006408785259367281,"92":-0.023741586356639807,"93":0.07048690719906199,"94":0.08043427359369293,"95":-0.04751881267388734,"96":0.041952488744436287,"97":-0.009022515211911223,"98":-0.05910973762593129,"99":-0.1018129916852777,"100":0.03901080600959544,"101":-0.021503500346511627,"102":-0.10192841361271814,"103":-0.026763546241032648,"104":-0.03406680523727147,"105":-0.013169315807099603,"106":0.057005106728717385,"107":0.036059283164812446,"108":-0.044388612731460636,"109":0.06736929384799976,"110":-0.05088586060713099,"111":-0.03697625511535152,"112":-0.0013291951399603077,"113":-0.05428724412545345,"114":-0.061073749436730225,"115":-0.0803062213298492,"116":-0.0985543917769919,"117":0.08287676609880616,"118":-0.06105697317118901,"119":0.06091256684129713,"120":0.013290674018123795,"121":0.029826717915539924,"122":-0.029707613675567287,"123":0.05378411882282754,"124":-0.10049697877077342,"125":0.002188505166750825,"126":0.004253980107363441,"127":-0.08336762419078449,"128":0.022424499747463536,"129":-0.0005160258292324078,"130":-0.04145617139591665,"131":0.030505998412216472,"132":-0.13051680794536472,"133":-0.10016717738255317,"134":0.00389845902075497,"135":-0.006081120473605786,"136":-0.11140315864440839,"137":0.10944704436454146,"138":0.04698727754943938,"139":0.08280658529975377,"140":-0.06367494573955768,"141":0.042031596864305396,"142":-0.00044767272905262316,"143":0.005621112357767891,"144":0.015281158173057006,"145":-0.05837131649327801,"146":0.04984990534331343,"147":-0.03853442791938293,"148":0.0005311150034252015,"149":-0.08075797320396598,"150":-0.0044295397837283085,"151":0.030616897221522384,"152":-0.0076125414895143175,"153":0.03660667905726871,"154":-0.014595139534016532,"155":0.05480510969049033,"156":-0.03280243628091369,"157":-0.009984084605935948,"158":0.06491274845250339,"159":-0.06012860132725932,"160":-0.06238911258639658,"161":0.016152550691431553,"162":-0.06514240010390498,"163":-0.021715914983577257,"164":0.07120689446397839,"165":0.03126941816384612,"166":0.0012117922683280195,"167":0.09886759837075482,"168":0.016965007577240974,"169":-0.025544417967390588,"170":0.07527237406811746,"171":0.09733614215010952,"172":0.10255700634141637,"173":-0.03735341765938119,"174":0.009314657878686579,"175":0.024539195880653345,"176":0.09721720966383277,"177":-0.03015623802634457,"178":0.027935538327157488,"179":0.12056728177801873,"180":0.049018274263304455,"181":0.015359088246589747,"182":0.07453511592502514,"183":-0.06302351933198781,"184":0.03978317454976793,"185":-0.00025001181842517856,"186":-0.002847724897696351,"187":-0.012712589669798005,"188":-0.05424466286969949,"189":-0.017293741098546606,"190":-0.019719509029637414,"191":-0.06688186150006722,"192":0.013932993641731914,"193":-0.005263907781368916,"194":-0.00048248767587599957,"195":0.09851552161692671,"196":0.052028707047405816,"197":0.0794409251233355,"198":0.048179034299286425,"199":0.03868695239024362,"200":0.027282625110735776,"201":0.022830540887833525,"202":0.02032038458719884,"203":0.04176613977928492,"204":0.06982669223395799,"205":0.1316232983634023,"206":0.008725868915863706,"207":-0.03028672727437017,"208":-0.03137787110704101,"209":0.029797727092938025,"210":0.10023930535293024,"211":-0.002043335402249891,"212":0.019034391049625385,"213":0.03678211688429253,"214":-0.04274674663562481,"215":-0.07562601349746521,"216":0.06202066333607301,"217":-0.04853840089613041,"218":-0.1057503324579379,"219":-0.007931244666347063,"220":0.006040931676930764,"221":-0.03292801975486471,"222":-0.1091867326303588,"223":-0.0679985423109847,"224":0.10244416156422087,"225":0.04010788168149564,"226":-0.05943067431633493,"227":-0.10765936769914954,"228":-0.060448076081722105,"229":-0.028711224602607662,"230":0.024599681103962948,"231":0.04431162773912596,"232":-0.062251797553201677,"233":-0.051729120932130064,"234":0.005167253912198486,"235":0.17283165365025552,"236":-0.052988527255163356,"237":0.030273195332158814,"238":-0.004108265007852106,"239":0.08393954324034236,"240":0.124636706960517,"241":-0.0013850724201434884,"242":-0.007447550449463468,"243":0.03736751302559001,"244":0.018535517024480055,"245":-0.10006845955823442,"246":0.018077872271165307,"247":-0.04552276127445858,"248":-0.009759995349795497,"249":0.054167688134503705,"250":-0.021719812780582163,"251":0.015300069097605446,"252":-0.10021422445732431,"253":-0.0016563210003958317,"254":0.052921045121712786}},{"sx":1,"sy":1,"depth":255,"w":{"0":0.00906791339881001,"1":-0.0018879462354438085,"2":-0.019998729138327346,"3":-0.11358198297528221,"4":-0.014788037560437776,"5":0.020004915379683165,"6":-0.09636537095593992,"7":0.010500263911512217,"8":-0.019738857451835706,"9":0.03318195133345095,"10":-0.11890233707434478,"11":-0.010379711869972526,"12":-0.06215768820719241,"13":-0.03155765041931148,"14":-0.20816243703231024,"15":0.00008932354801346742,"16":0.021530179466675483,"17":0.07297750336036311,"18":0.018998381779497656,"19":-0.017946141797046664,"20":0.027610637606208063,"21":-0.11395864555138648,"22":-0.060414757088804574,"23":-0.05628019309039247,"24":0.0438079920517364,"25":0.029219757266151395,"26":-0.043694370373693434,"27":0.08820083840312942,"28":0.06113799149269592,"29":0.029465499880358494,"30":0.15758262026830563,"31":0.03331176559060637,"32":-0.013965679607959493,"33":-0.07285978187397238,"34":-0.09740680538101651,"35":0.01459994074029039,"36":0.06356866106305123,"37":0.06044443398677251,"38":-0.04257554302171329,"39":-0.08799740020510251,"40":-0.07525324522639835,"41":-0.019187498766239878,"42":-0.09431668428183587,"43":-0.04147312720306139,"44":-0.04671780314316344,"45":0.06731784268571814,"46":-0.02334311267127421,"47":0.01796795490977507,"48":-0.11013759079599603,"49":-0.002823273011570001,"50":-0.022349126509042493,"51":-0.11997588984247691,"52":0.07881601344940652,"53":-0.075785922478093,"54":-0.01495340782409498,"55":0.03683090001874793,"56":0.04985438639029341,"57":-0.010629780052975497,"58":-0.05466414120268521,"59":-0.01652020524996044,"60":-0.0019191317660891983,"61":-0.051909612133749186,"62":-0.0031636850799385496,"63":-0.015667342969803398,"64":0.02345664438362166,"65":0.04870822843915954,"66":0.06955863004152654,"67":0.04399629123082475,"68":-0.0381488046987116,"69":0.006099482234132839,"70":0.068263624464674,"71":-0.014430762041133416,"72":0.02071091954252931,"73":0.020867049919854972,"74":-0.00441794515711423,"75":-0.010949236007879774,"76":0.12812323809046539,"77":-0.08905451934064865,"78":-0.03339945940115566,"79":-0.05649347694165021,"80":-0.08918798494469325,"81":-0.05566253915122111,"82":0.020399968486282557,"83":0.00416870152266396,"84":0.009872816841622174,"85":0.04548931882328207,"86":-0.13278926485280074,"87":-0.012146941110192974,"88":0.021019410934304466,"89":0.05302873027817816,"90":0.18444102516060076,"91":0.022757605765589776,"92":-0.08349623770247788,"93":-0.07641845395890154,"94":0.051379155975264074,"95":0.051167247398994045,"96":-0.07117653413142773,"97":0.005304005581847704,"98":-0.08363426681113204,"99":-0.03848564880245038,"100":0.08184760859029966,"101":0.020188146793093924,"102":-0.03413527172376192,"103":0.0539776957231595,"104":-0.021271782114933906,"105":-0.09360109019442714,"106":0.022058313005942763,"107":-0.02135024558160301,"108":0.15019520849784568,"109":-0.042576417615389536,"110":-0.056012937592908464,"111":0.007382004025232924,"112":0.020162418046727516,"113":-0.07550054500247659,"114":-0.048138936942969314,"115":-0.012981691452758688,"116":-0.05837791386670472,"117":-0.057546239957277215,"118":-0.05723017413292939,"119":0.03242956882872027,"120":0.12915943648470438,"121":0.049733450600080165,"122":-0.05088206999327743,"123":-0.013497140760192568,"124":-0.12200057568684819,"125":-0.05600289531420409,"126":0.032557136438343764,"127":0.04017765694749727,"128":0.008180161995546649,"129":-0.1567653208846869,"130":0.0162140428117166,"131":0.021243193482815906,"132":-0.0464221703787631,"133":0.12226642792295196,"134":-0.061211424432773776,"135":0.001253955981888321,"136":-0.08341931371896283,"137":0.046469258006729186,"138":0.0022412289052692494,"139":0.041864349176278695,"140":0.018369100118391834,"141":0.018846528150972833,"142":-0.07834617654194798,"143":0.07127861042333383,"144":0.0036107055952047775,"145":-0.040738589697813514,"146":0.004826518961986015,"147":-0.006425874975256275,"148":0.014573767178856169,"149":0.052392580026593465,"150":-0.006778873504335887,"151":0.008680447168307273,"152":-0.05813024160352942,"153":-0.023361539395415666,"154":-0.009818571296635875,"155":0.1011489409071163,"156":0.009636375792097668,"157":0.002564642271366755,"158":-0.1515719806863967,"159":0.02617240566478498,"160":-0.05586038705933736,"161":0.04532641723955969,"162":-0.06578893623422088,"163":0.019222625063308605,"164":0.027324521460021258,"165":-0.005231720153195764,"166":0.020173791555588835,"167":0.14915540543021089,"168":-0.003445486674881133,"169":-0.10952882255730842,"170":0.09275976977879684,"171":0.022873890816811064,"172":-0.08318930032187054,"173":-0.10087969303009023,"174":0.08715881640448535,"175":-0.0005959693750185403,"176":-0.01963840693668281,"177":-0.03609403001220179,"178":0.03638938206561006,"179":0.07790633554002008,"180":-0.15464107874804459,"181":-0.037044977871234064,"182":-0.03251085357829142,"183":0.052146581171969277,"184":0.043260263670852304,"185":-0.06450307954009071,"186":0.008538867184532976,"187":-0.016784508728822985,"188":0.01745708375805092,"189":0.0325041540839755,"190":-0.008383596691626747,"191":0.04480902598337694,"192":-0.07694529666332058,"193":0.0535204395268287,"194":0.08562290541508133,"195":-0.05950309609958316,"196":0.03375514211055559,"197":-0.02719129633162479,"198":0.009369214613540875,"199":-0.042940848086594825,"200":0.05913809229931824,"201":0.020758486850634205,"202":-0.058959603344703196,"203":-0.08822867634609731,"204":0.030860777977774718,"205":-0.007478781682799762,"206":-0.08657605285055862,"207":-0.0722634834973428,"208":-0.0893202488109452,"209":0.07324381255756786,"210":0.08162576593182704,"211":0.01690070378054518,"212":0.07530881735669463,"213":-0.019122249595227493,"214":0.009896374850337623,"215":-0.03593751697872011,"216":-0.05070857911373141,"217":-0.07388532145496399,"218":0.08705301507002246,"219":-0.028957467155920683,"220":0.043018038005826244,"221":0.11688400041587814,"222":-0.03431074295174185,"223":-0.05950874891514632,"224":-0.12057843462517187,"225":-0.0043661039984894704,"226":0.02672254683634875,"227":0.026818409195870047,"228":0.03463887716513125,"229":0.021385710148820337,"230":-0.027984662189272223,"231":-0.07332307444644692,"232":-0.0013584020102761912,"233":-0.019979163872223434,"234":0.06632363447793214,"235":-0.02814923258909017,"236":0.027770056097432515,"237":0.011546419705670597,"238":-0.03908959093820514,"239":-0.04169021815040875,"240":-0.02172531262377322,"241":-0.04260499658300739,"242":-0.010797538186011762,"243":0.09280308129527372,"244":0.0541741941655448,"245":-0.0032301386540374193,"246":0.03033703525384996,"247":0.015861151862863614,"248":-0.09379359092339537,"249":0.028432323160403925,"250":0.02728170957363685,"251":0.04905019209451659,"252":-0.01937503867939472,"253":-0.060389131064044824,"254":-0.032188005721167694}},{"sx":1,"sy":1,"depth":255,"w":{"0":0.041541010035538777,"1":0.028939442534926123,"2":0.016422677590895086,"3":-0.1252122870002185,"4":-0.013662766407705453,"5":0.010990101142166498,"6":-0.0308461106200199,"7":0.08764534258159998,"8":-0.06654497613584093,"9":0.0364393707373821,"10":0.015901716299066778,"11":-0.08015969839196287,"12":-0.034273306268651764,"13":0.07328399906781038,"14":0.015290992204026282,"15":0.06769361593303047,"16":-0.0346619103799628,"17":-0.1333363145645076,"18":0.018479931467357782,"19":0.015214165206541974,"20":0.03400012816516931,"21":0.08957172786329282,"22":0.045723570718943514,"23":0.100206791910782,"24":-0.12492934101470517,"25":-0.05528529081519322,"26":0.030829626793174376,"27":0.002525517721190616,"28":0.10415352602865115,"29":0.07071925023830852,"30":0.12800110019746178,"31":0.004509856590078512,"32":-0.05569731031932913,"33":-0.09905219344451158,"34":-0.06839306628763205,"35":-0.029025608114265362,"36":0.04152807562008178,"37":-0.0446300711673843,"38":-0.02993125552771383,"39":-0.004717415360884111,"40":0.11030541107621959,"41":0.06199151759439916,"42":0.2248315012086903,"43":0.006193855975627736,"44":0.06921646487414473,"45":-0.019332445306051986,"46":-0.08663566377472218,"47":0.08718716086167796,"48":-0.04772510268027704,"49":0.02956985198927292,"50":-0.08179403799545208,"51":0.020373730000802805,"52":-0.006094055275013825,"53":-0.03917900608494975,"54":0.1246859434652561,"55":0.04375687706732136,"56":0.004302023885024515,"57":-0.026483962099696483,"58":0.04862871697104642,"59":-0.08532196746199629,"60":0.01923111964075042,"61":0.04740554840604345,"62":0.03723359256464298,"63":-0.01133531235818421,"64":-0.07804487633108954,"65":-0.02190059858529815,"66":0.059968893427586406,"67":0.06099590386718317,"68":0.07091836968084331,"69":0.028575939463464928,"70":-0.04411427590952009,"71":-0.06233206339696215,"72":0.09385293550376954,"73":0.10511316734798022,"74":0.03315199171749948,"75":-0.011676500651781859,"76":0.025518416344081286,"77":0.09002248748877081,"78":0.05706236076246848,"79":0.01467701271645209,"80":0.00883706574935732,"81":0.02077625317778595,"82":0.03868992218712514,"83":0.010318115932882522,"84":0.05665515286737557,"85":0.060572494567954334,"86":-0.024290527824637895,"87":0.016299756580218303,"88":0.04507303536740387,"89":0.037535137200610684,"90":-0.1463647213289937,"91":-0.053505511870799306,"92":0.09080511828288958,"93":-0.019319671432613168,"94":0.0683275690879653,"95":-0.05262481816239684,"96":-0.09039004163842755,"97":-0.06409571214772292,"98":0.035826665687342066,"99":-0.03275976370891609,"100":0.03518352586025901,"101":0.07629009673516314,"102":-0.0811323270377873,"103":0.020690912123541374,"104":0.0692546553971459,"105":0.04128680014352448,"106":-0.06946464010060538,"107":-0.08570700349448077,"108":-0.002705989450263585,"109":0.04249219353115282,"110":-0.10025025946773979,"111":-0.024474189437190975,"112":-0.024066139888785323,"113":-0.0779693171877849,"114":0.01785728555880842,"115":-0.10695427952224336,"116":-0.015966584730689556,"117":0.020245959586337788,"118":0.003063553468838184,"119":-0.08717836482761933,"120":0.07973638819614665,"121":-0.08421812707942612,"122":0.041307605021572116,"123":-0.025784495388071926,"124":0.0060193020085331965,"125":-0.029682019315248935,"126":-0.0714308925613523,"127":-0.019412560439736496,"128":-0.0639478891902127,"129":-0.08071467332397053,"130":-0.021903311685020094,"131":-0.10756628175698989,"132":0.07658701452431355,"133":0.018766995406569252,"134":0.13104329347513408,"135":0.011575702277328067,"136":-0.0010529066250938028,"137":-0.021778428053779723,"138":0.036992006853683715,"139":0.005027995968904719,"140":0.06795718419807177,"141":-0.09333043855269683,"142":-0.03414430691584852,"143":-0.05768886171656681,"144":-0.04030309203557274,"145":-0.10476551152213623,"146":0.09031997238406898,"147":0.050906936675839225,"148":0.06477828599865681,"149":-0.03701115078242926,"150":-0.009070054372441232,"151":0.0673996146926195,"152":-0.03503032226543413,"153":0.007233674214928431,"154":0.08853892299947891,"155":0.08712904924624149,"156":0.06541577143944138,"157":-0.05742914395567854,"158":0.08580887287873283,"159":0.040368104181772634,"160":-0.05665950700494743,"161":-0.012384286589608606,"162":-0.04596146394319252,"163":0.07052562395371291,"164":0.00134862491444847,"165":-0.033182123998812256,"166":0.03785235201449623,"167":0.014889531262273123,"168":0.0028425537685676,"169":0.00869355083900976,"170":-0.019025352216414777,"171":-0.048410967434631844,"172":0.03294862526254552,"173":-0.09182753458817078,"174":0.017377709385887743,"175":-0.0845544013300573,"176":-0.022841110648241486,"177":0.06865419650139261,"178":0.015685217339293338,"179":0.010693942502483397,"180":-0.03594867570458858,"181":0.05174875447430258,"182":0.06744273117871323,"183":0.04354573207005721,"184":-0.07046628036751106,"185":-0.019186385720283302,"186":-0.06712896867527614,"187":-0.011172664106344522,"188":0.023977412128381632,"189":-0.009754150186430907,"190":-0.02257413813442826,"191":0.0643012610607013,"192":0.04751867903428505,"193":-0.07001735122383855,"194":0.044048189454902624,"195":-0.09414995315506353,"196":-0.06153857558097041,"197":0.05529558298149985,"198":0.03896002844914159,"199":-0.0417976732767172,"200":0.04171188985948234,"201":-0.05662945613547931,"202":-0.09606969849611625,"203":0.049112374482060364,"204":0.026817103094394144,"205":-0.024460563937273826,"206":-0.007022068056118066,"207":0.10185850613311512,"208":-0.06403969116527662,"209":-0.10684155092965332,"210":0.02253124735181439,"211":-0.026042568725787467,"212":0.02186160422877435,"213":-0.036997132664356294,"214":0.11715504020659348,"215":0.0015324093560813682,"216":0.04208343407029621,"217":0.05101694506253841,"218":0.050230157251488876,"219":-0.060531521366411475,"220":-0.042439886457054786,"221":0.06739968900524974,"222":0.09249254538312013,"223":0.10408582675210404,"224":-0.10331332318881091,"225":0.05956644825826549,"226":0.0590403790188804,"227":0.11756199977928468,"228":-0.03112603164452991,"229":-0.03759027120359517,"230":0.07875379408321782,"231":-0.005659958705533431,"232":0.04740209280428557,"233":-0.03878348463662728,"234":0.09076256358355904,"235":-0.07288236638593985,"236":0.002118706612047827,"237":-0.07280675417839519,"238":-0.07755063996630362,"239":-0.20987630714870723,"240":-0.065748878924,"241":-0.04530333075255007,"242":-0.1664871591832444,"243":0.033104022560114556,"244":0.02066497218465159,"245":-0.1399497557741784,"246":0.1309171602524174,"247":0.03359920455767228,"248":0.07373117435996511,"249":0.0545596953008422,"250":0.023271902379145837,"251":-0.11827683342150097,"252":-0.06572059189876957,"253":0.024378592888310156,"254":0.08030639746181821}},{"sx":1,"sy":1,"depth":255,"w":{"0":0.18651159119952057,"1":-0.01967443429119805,"2":-0.016499193565508795,"3":0.0040482800742408466,"4":0.020763398427088776,"5":0.06350296074943002,"6":-0.014916908991566573,"7":-0.0540115998050119,"8":0.021693801893419136,"9":-0.10241878587746275,"10":-0.004197200479263047,"11":-0.05097458898620009,"12":-0.06668916801492364,"13":-0.021079361814305253,"14":0.11598377156814386,"15":0.007903675471838675,"16":-0.07911389288653742,"17":0.0566645864626197,"18":-0.005132679987242589,"19":-0.0009534832840650546,"20":0.09105546796816065,"21":-0.011693138671905188,"22":0.06873756725622972,"23":0.047538428824272026,"24":0.02748575524451433,"25":0.06002742426397848,"26":-0.007478958277747121,"27":-0.0073124050477250254,"28":-0.008179684281453034,"29":-0.1086291198058817,"30":-0.07311507566055414,"31":0.06019714078430932,"32":-0.05463595659580658,"33":-0.05542444884774994,"34":-0.02321888315318524,"35":0.0942123119618092,"36":-0.022402956294005134,"37":0.08524671450504795,"38":-0.1289910126587205,"39":-0.04134958117710921,"40":0.003769339207615042,"41":-0.02837158047799632,"42":-0.07347835532448613,"43":0.011184516531814261,"44":-0.011761501135943814,"45":0.025822228655592375,"46":-0.022858945452763412,"47":0.0029103992592420767,"48":-0.067338572862133,"49":-0.06450632112376041,"50":-0.02304068037839703,"51":0.045082382472268374,"52":0.09030098299578466,"53":-0.06479919765491307,"54":0.029745868602748027,"55":0.13075648044258312,"56":-0.002157076736390444,"57":-0.03344699733629538,"58":0.033818073180178286,"59":0.06563638199018318,"60":-0.09310198610756844,"61":0.08939550505248792,"62":0.050420959599497904,"63":-0.04212411167133798,"64":-0.061728285990635685,"65":-0.12182713543095282,"66":-0.0331134342923997,"67":0.033992606159356134,"68":-0.12821866036622895,"69":-0.005288486334424447,"70":0.0338126306114634,"71":-0.025252413393034273,"72":0.07239775927269157,"73":-0.12770248658051708,"74":-0.04161099085471702,"75":-0.09933387637121897,"76":0.07002067296443062,"77":-0.05946836796829971,"78":0.06800259764700795,"79":-0.07180297384558634,"80":0.06731030482464366,"81":0.026067443626647247,"82":-0.032793731844655546,"83":0.07836138092436803,"84":0.052827709009018974,"85":0.07465562118828799,"86":-0.013149568937488391,"87":0.011362899124509511,"88":0.09830282967383412,"89":-0.10109496114,"90":0.013737307347727856,"91":-0.07982725473763018,"92":-0.0033253444115424703,"93":-0.027655099392182303,"94":0.008205119418394472,"95":-0.14250076251364,"96":-0.055649099924330515,"97":0.09575948222239697,"98":0.016280018012706343,"99":0.017969117374565448,"100":0.03403915535696322,"101":0.04237575099934884,"102":-0.02432077560330677,"103":0.08909787311796258,"104":0.018317108949220114,"105":0.014756177958675261,"106":-0.03137660760138837,"107":-0.08442351158406318,"108":-0.04281177487999304,"109":0.022689119305512085,"110":-0.00828432443076112,"111":-0.028029465271816555,"112":-0.05448050799908355,"113":0.03445362654414721,"114":0.018796962392240976,"115":-0.02789817972309487,"116":0.0348670859653591,"117":-0.0922671648582522,"118":-0.06529233367441652,"119":0.0180603867983046,"120":0.023582863060724605,"121":0.11507663046837849,"122":0.010718643636634686,"123":-0.0016009330794823225,"124":-0.015853703341547388,"125":-0.02748684097794777,"126":0.06934017235189918,"127":0.017891950194704454,"128":-0.01925340733211835,"129":-0.01772259476815256,"130":0.011770765364222658,"131":-0.04483791089642199,"132":-0.09221018133763757,"133":-0.03856888578068089,"134":0.024870608038234297,"135":-0.08300554583947017,"136":-0.09271052284060421,"137":-0.07594650755776675,"138":-0.09226643734322951,"139":0.1525330353973937,"140":0.010395285837331692,"141":-0.009309443744536369,"142":0.12438610454445675,"143":0.04218461380330886,"144":0.0481741140001362,"145":-0.002542024023077774,"146":0.035203262372406174,"147":-0.037863142556714274,"148":-0.023506058720911646,"149":0.0009271211542570428,"150":-0.029509257709415995,"151":-0.006891567673485743,"152":0.06152663612175065,"153":0.06892952431654738,"154":-0.00004556764170690785,"155":-0.14197566857536975,"156":0.03203039044815461,"157":-0.04440835252755752,"158":-0.0004489474708259135,"159":0.10293078123389185,"160":-0.037563289867398736,"161":-0.0363314854520891,"162":0.07571096768368248,"163":-0.06752849274881201,"164":-0.0007166917151609181,"165":-0.005584829366948563,"166":0.12177382950658404,"167":-0.15344591834154417,"168":-0.03934041843570322,"169":0.01249810423088458,"170":0.10463842884814094,"171":0.005585131058733961,"172":0.029074351398771386,"173":0.0521636917079174,"174":0.09091685077826353,"175":0.01042740081242043,"176":0.07436776432836868,"177":0.03187565138548625,"178":0.027420788488764353,"179":-0.0383716453361061,"180":-0.02404155937422709,"181":-0.06277266306343283,"182":0.06350887384159647,"183":-0.028911876242723546,"184":0.12507287804743117,"185":-0.09121499297380975,"186":-0.03226766126379796,"187":-0.017975617115039214,"188":-0.029489211176179645,"189":-0.05168906050111234,"190":0.020851209198911567,"191":-0.1400860787921436,"192":-0.011501322332540894,"193":-0.03071014689065161,"194":-0.023510623769639007,"195":-0.0727884534379324,"196":-0.10411023043252901,"197":0.08078059050733202,"198":-0.041291294264952094,"199":-0.021424093953614266,"200":0.010851753245831462,"201":-0.0027830770560158605,"202":0.09394725266472992,"203":-0.09512676846608617,"204":0.011872505026926718,"205":-0.025880409486616174,"206":-0.0890219745521175,"207":0.08680018541662533,"208":0.03572070261098594,"209":0.023128130834379847,"210":-0.07564981672711907,"211":0.05009060126848093,"212":0.020190007547669735,"213":-0.04929196536849967,"214":0.05855708833200423,"215":0.048819867273076335,"216":0.01861456694914171,"217":-0.07634504670203147,"218":0.013519896835457882,"219":0.010723045675325168,"220":0.07262445119464582,"221":-0.003957510603247017,"222":0.0570667363893562,"223":0.12816972636443388,"224":0.035694989921044314,"225":-0.03711998848986776,"226":-0.03912691353813844,"227":-0.06589793103768213,"228":-0.009813776719064322,"229":0.06796900507814743,"230":0.054111116078207074,"231":0.11004555460203672,"232":-0.026205508210142975,"233":0.10662927110723534,"234":-0.050822610265596625,"235":-0.04523075065525184,"236":0.022078423919884117,"237":0.03261089900960147,"238":0.04730211329648244,"239":-0.03317074309245346,"240":-0.08670898199201105,"241":-0.014894005611728019,"242":-0.09878198629322163,"243":0.0460323365446225,"244":-0.033508806208207335,"245":-0.13940613163577306,"246":0.003952635578567577,"247":0.008741711359216057,"248":-0.06419710529067034,"249":0.024965364097773883,"250":-0.01654428553179027,"251":-0.01463252692469174,"252":0.024097949594415666,"253":0.012382902823514088,"254":-0.007233166632091396}},{"sx":1,"sy":1,"depth":255,"w":{"0":-0.12425222579348141,"1":-0.010805465585851128,"2":-0.011299805580011759,"3":-0.011633409448206967,"4":-0.0066404163008369765,"5":-0.15512820986394765,"6":-0.03552073181234994,"7":-0.02082443108333479,"8":-0.017663533427008805,"9":-0.028166779848040592,"10":-0.10033349168299716,"11":-0.007964205468987543,"12":0.07663135102179361,"13":0.05438232637774565,"14":-0.02336604085645568,"15":0.06468582519568464,"16":0.0005844091746276183,"17":-0.12078498252042856,"18":-0.10813261512262212,"19":0.006745450888174077,"20":-0.057200959635837,"21":0.08532157384456324,"22":0.02816052727082552,"23":0.0038262451088496626,"24":-0.01934725610993623,"25":0.017027706238375125,"26":0.08689599501018731,"27":-0.05143856870967704,"28":-0.10675527202545548,"29":-0.06783265172172864,"30":0.053005492628886486,"31":-0.0042756794090678075,"32":-0.030562418072928865,"33":0.07537734383167981,"34":0.07361398073422273,"35":-0.0052448386368769175,"36":-0.048077922911895755,"37":-0.1138068471257582,"38":-0.037264241322316316,"39":0.11526414866686278,"40":0.02284296462841192,"41":-0.05104323217657898,"42":0.016433653223871796,"43":-0.05070978169484806,"44":-0.02852883442682536,"45":-0.017693510551932308,"46":-0.02742125064963023,"47":0.1330367920831506,"48":0.0290723581391603,"49":-0.007757903274079121,"50":0.08879078366706925,"51":0.031889450003723376,"52":0.0840819601201162,"53":0.12886205280887428,"54":0.0359077367345898,"55":-0.034776354354538346,"56":-0.008374531322591947,"57":0.04746945446020352,"58":-0.04772714803852782,"59":0.05894648494268719,"60":0.006563416851080443,"61":0.051111845240208426,"62":-0.01115675492806188,"63":-0.07731194901292966,"64":-0.02072103909917799,"65":-0.03260319475091077,"66":-0.12599508059434214,"67":-0.010310092268824029,"68":-0.09754188709563473,"69":-0.02006940570959743,"70":-0.024616080939773553,"71":0.02400410250459303,"72":0.020960176652331065,"73":-0.03608510864935135,"74":0.028173782141732988,"75":-0.0011627765343075775,"76":0.06014524100615467,"77":0.011913007662450296,"78":0.0009164968733553493,"79":0.035968515178246244,"80":0.004055163602931806,"81":0.07139694719304787,"82":0.001578291866454259,"83":0.08648648724350541,"84":-0.051067669403586625,"85":0.06110101147199415,"86":-0.003321893523319451,"87":0.027024995540731157,"88":0.026532114746799108,"89":-0.0376850706686853,"90":0.08579160767487216,"91":-0.004917152503027671,"92":-0.0260779752482612,"93":0.008077255028221722,"94":-0.033099376603507626,"95":-0.07037970647610023,"96":-0.07232451565631909,"97":-0.0343771903755298,"98":0.016114410477508345,"99":0.010375777048579967,"100":-0.033768151298781954,"101":-0.008530487652058567,"102":-0.09729125610557879,"103":0.0065344139775415965,"104":-0.013493718509779738,"105":0.007818495444329207,"106":-0.1974017200871072,"107":-0.026678202742101014,"108":0.009383806275529512,"109":0.03499788562155479,"110":0.000559509303081085,"111":-0.010490406753685058,"112":0.033545093865681566,"113":-0.044698068975677546,"114":-0.06368779272670451,"115":0.038062392259104044,"116":-0.008173277705989804,"117":-0.07511029845742673,"118":-0.005075819485410926,"119":-0.03942484520904419,"120":-0.08494829042941919,"121":0.02212034733705414,"122":-0.14640745926468987,"123":0.07800568062035777,"124":0.04795605462314937,"125":-0.04276496577662931,"126":0.043275072828805085,"127":0.033528500388302615,"128":-0.09941910452591853,"129":-0.011914638197918086,"130":-0.05158657386297956,"131":-0.03109262177414312,"132":-0.02851610813726355,"133":0.013278006387410715,"134":0.022727590540050094,"135":-0.029885246197504607,"136":0.015521174993229777,"137":0.015773596445698986,"138":-0.025553943019586984,"139":-0.017997957694498464,"140":-0.051282167710434395,"141":-0.04752885111207897,"142":0.01845776947001805,"143":-0.004971382659918951,"144":-0.059658726848902395,"145":-0.10361704900579248,"146":0.06354076085377354,"147":-0.010379985775802165,"148":0.07368596845597015,"149":-0.03997409548730385,"150":0.011192883119093486,"151":-0.17487852308867632,"152":0.024204838717482014,"153":0.03898862260524927,"154":0.08619533322397788,"155":0.020453591562240397,"156":0.014390219839761053,"157":-0.05982253254241746,"158":0.054514319041338334,"159":0.049933903606083865,"160":0.14139287894624503,"161":-0.01276609522402104,"162":-0.002133660000331353,"163":-0.13011328947041761,"164":-0.09727975676588166,"165":-0.03000414361257096,"166":-0.09483195419122518,"167":0.026187964979067398,"168":0.025803405430114907,"169":-0.022601369198091584,"170":0.016646000064614988,"171":-0.1460062997902922,"172":0.09387691654279004,"173":0.06884972468477797,"174":-0.03938811413077251,"175":0.07165765512444765,"176":0.040027565162514545,"177":-0.05746409322523633,"178":0.044154793915001704,"179":-0.03177708618404859,"180":-0.024288205160874647,"181":0.03598075354477913,"182":0.013207965190914977,"183":-0.044001412112613436,"184":0.06851957978408157,"185":-0.027775376372372707,"186":0.10801027876534919,"187":0.08631484934520403,"188":-0.028023389087568556,"189":-0.05346954960832628,"190":-0.05079716097025672,"191":0.09161644269150455,"192":-0.0871591880163698,"193":0.1246769962543744,"194":0.014924143472002225,"195":-0.029916736113937005,"196":-0.060743199821683726,"197":-0.02318843266648699,"198":-0.04083563880423452,"199":-0.054099845586843456,"200":0.04198396049991867,"201":0.014925270519343078,"202":0.05550792089573342,"203":-0.022031370512392165,"204":0.061120572369369894,"205":0.014914367345956981,"206":0.19392023180089502,"207":0.16098300228706963,"208":0.08370985167729575,"209":-0.004697296381003418,"210":-0.01303472162746002,"211":0.017097524296388857,"212":0.05171248179033791,"213":0.08635732726510643,"214":-0.11569361887884481,"215":0.08303573648378841,"216":0.02130305882520994,"217":-0.11646014734320696,"218":0.04364050902313297,"219":-0.09718287652876466,"220":0.02472100559564012,"221":0.05462539018608494,"222":-0.003467029497303999,"223":0.002037369289273941,"224":-0.006678752727021457,"225":0.0042586890554391875,"226":-0.10074854877620348,"227":-0.03322082541915077,"228":0.04937956114765545,"229":-0.05408057020945981,"230":0.12947954867616743,"231":-0.04405188754086633,"232":-0.04553497863638142,"233":0.021219641612577857,"234":0.023395202648043834,"235":-0.03668456380901856,"236":-0.008294819284959214,"237":0.04764971752758872,"238":-0.056965471755465555,"239":-0.09452231748068785,"240":0.02297905867100434,"241":0.012623168367752428,"242":0.12116365207660028,"243":0.06303790327969139,"244":0.10770187196482935,"245":0.021443487101446574,"246":-0.04927296341709758,"247":0.052227812664440425,"248":-0.050123951659631454,"249":0.0784789950092815,"250":-0.05078765189956156,"251":0.08745885941857295,"252":0.06171662345361048,"253":-0.03368833626916771,"254":-0.048441253711782754}},{"sx":1,"sy":1,"depth":255,"w":{"0":0.006873246648066835,"1":0.005114290925779919,"2":-0.03868981717347508,"3":-0.05298114534877295,"4":-0.011530904727039283,"5":0.030583463091116894,"6":-0.006486996066398458,"7":0.03372333101506747,"8":-0.07382561479170793,"9":-0.05634597581047638,"10":-0.09845906902538734,"11":0.026399353192978918,"12":0.03458717096296739,"13":0.12254755718824877,"14":0.05085894308647495,"15":0.01031636006305622,"16":-0.009280939872246109,"17":0.002207194722296639,"18":0.09985207499718657,"19":-0.0959066653523653,"20":0.059908001867828735,"21":-0.08738983650861183,"22":0.050763113182794244,"23":0.05793571805141247,"24":0.02206587241807873,"25":0.08045294664671732,"26":-0.006204129540804777,"27":-0.0019873664517627895,"28":0.008309932275335536,"29":0.03442357999940621,"30":0.1204324742577866,"31":-0.035457062495060344,"32":0.04375238769420096,"33":-0.03282999820145064,"34":-0.061643229263349954,"35":0.0242164162462209,"36":0.11986383423903935,"37":0.09333646383322453,"38":-0.0829924027320841,"39":0.011315637636610903,"40":0.03989463145499432,"41":0.014357555207902103,"42":-0.007246803935529136,"43":-0.10646984911695803,"44":0.025172326365659855,"45":-0.049357385318738796,"46":0.03129143435859742,"47":-0.006139889990005142,"48":0.032380498011252416,"49":0.013045717748585796,"50":0.08890479312596335,"51":-0.00926589397999249,"52":-0.09197834769635634,"53":-0.05019925351797176,"54":0.09430419119900926,"55":0.09890606719717417,"56":0.007374259372574154,"57":0.08358118105878752,"58":-0.06761709403522244,"59":-0.059609123700844834,"60":0.02338149558282727,"61":-0.013402310285065179,"62":-0.04196171962548884,"63":0.07747591692289554,"64":-0.0252692117515501,"65":-0.0922007637246007,"66":0.04681470513077008,"67":0.035715485309310235,"68":0.11182596798564404,"69":0.041981647906253236,"70":-0.060190275508903816,"71":0.04713645465923227,"72":-0.014281364181112177,"73":0.020212092562700727,"74":-0.03241354247606241,"75":0.03290960475178347,"76":0.0855847515288072,"77":-0.02732049300274868,"78":-0.032655748283081425,"79":0.057138936668908374,"80":0.046946437855505216,"81":0.017887752996975953,"82":0.08117278038951321,"83":-0.015268455708609125,"84":-0.10529931716178391,"85":0.04319841767377126,"86":-0.007537410103538153,"87":0.010759830614957703,"88":0.08776502734393853,"89":-0.009573684287977323,"90":-0.004144960135783971,"91":0.09262861953134344,"92":0.008086346163330123,"93":0.03609324710825497,"94":-0.005757040538681303,"95":0.01649539386402824,"96":0.07664747062122401,"97":0.0541958579510498,"98":-0.046927217473805294,"99":0.0518226696560436,"100":0.07586379295682041,"101":-0.041512815589814074,"102":-0.08085480377914259,"103":0.03850834077086888,"104":-0.010503255032467148,"105":0.0565156739110094,"106":0.07780533734583561,"107":0.02726425648862146,"108":-0.09531138990886955,"109":-0.02445645752543975,"110":-0.010674479477742064,"111":-0.014511039381320291,"112":0.002659797407950631,"113":-0.04565482425259028,"114":0.08345251919551952,"115":0.08657613730185491,"116":-0.01511014518218552,"117":0.011123617304183493,"118":-0.019445985223190423,"119":-0.08831369575076777,"120":-0.0018243676628270894,"121":0.02421776400510905,"122":0.06996245337354996,"123":-0.04354100080114438,"124":0.002043133717676414,"125":-0.024921432444551157,"126":-0.027286719830676705,"127":0.043456967553762445,"128":-0.03403146403014758,"129":0.09761768158982391,"130":-0.011263564475145902,"131":0.14826096356485616,"132":0.015434769436917347,"133":-0.013306570608491402,"134":0.01432005851793532,"135":-0.05579253390306083,"136":0.014588969796059212,"137":0.08011518951951586,"138":0.05873226118177073,"139":0.028724997582530026,"140":0.011800315799139035,"141":0.008021484279923509,"142":0.004252180874918128,"143":0.06575312637248965,"144":0.018347285353287328,"145":-0.1009149755293481,"146":-0.09452458263365432,"147":0.00468861885027934,"148":0.10529528552150692,"149":-0.02285033229357131,"150":0.0654648429839451,"151":0.00008114360172205592,"152":-0.01745967110528915,"153":-0.047343306027783236,"154":0.012349026855654874,"155":-0.02455268312036314,"156":-0.001641552770728219,"157":0.049118729098021424,"158":0.1580167577820034,"159":0.055948912178990944,"160":0.020264990016930277,"161":-0.06068194425188051,"162":-0.05559922128694022,"163":-0.10758555577653486,"164":-0.007597673775652841,"165":-0.007130491616287832,"166":-0.03232440713403237,"167":-0.11243824426973087,"168":0.0168197275208996,"169":0.02584855923918639,"170":-0.05137904549259775,"171":0.08131033951475355,"172":0.010084915090727158,"173":-0.048622270041562145,"174":0.1084094444310451,"175":-0.1311213737670637,"176":0.00021375503173433233,"177":-0.02717347192267561,"178":-0.10377446017958401,"179":-0.03502996394855568,"180":0.044237374801580964,"181":-0.05485552248331037,"182":-0.03580281265422768,"183":-0.14190165113098352,"184":0.006337341519163704,"185":0.04897904320348872,"186":0.021881686447525164,"187":0.015543409481694019,"188":0.04744725845978518,"189":-0.04362928723093649,"190":-0.0014632858532054416,"191":0.022009193021069063,"192":-0.02120936451111364,"193":0.006994605570889838,"194":-0.145104569688842,"195":-0.0131720646912975,"196":-0.06569676040407511,"197":-0.06680682487596733,"198":-0.13352175628032387,"199":0.0680890058955182,"200":-0.1373583894816916,"201":0.059938346361031215,"202":0.043815599196419544,"203":-0.008919928132429915,"204":-0.052991496083430345,"205":-0.04432138404109486,"206":-0.00020226158195386581,"207":0.0709903545857052,"208":-0.1060647698791487,"209":0.004392713252731097,"210":-0.020198665931913527,"211":-0.00432924626313878,"212":0.03208446267884611,"213":-0.07174256878817072,"214":0.004094973059657403,"215":-0.013829468229404819,"216":-0.04696056061936267,"217":-0.09245462587991173,"218":-0.030050039407492894,"219":0.155846095746476,"220":-0.045109271359208745,"221":-0.14259875863189211,"222":0.0071543168203258315,"223":-0.1414717194680236,"224":0.02835343881793625,"225":0.13339555209331821,"226":0.022381245298680578,"227":0.015440448764635701,"228":0.056392747427268075,"229":-0.031734940027431484,"230":0.1370039808599063,"231":0.10334143215381904,"232":0.005064471180118035,"233":-0.06463227462223635,"234":-0.017447556292346043,"235":0.06550455654695782,"236":0.051724772314531736,"237":-0.013868845674839468,"238":-0.09464635934714474,"239":0.050935144797474886,"240":-0.037014047020355094,"241":-0.2326457580459002,"242":0.013397704844565587,"243":-0.09215246065945987,"244":0.11256632000220915,"245":-0.025046350683532236,"246":-0.1020417762362448,"247":0.043940778177338366,"248":0.06662208462621745,"249":0.016064569276575038,"250":0.011774877323330418,"251":0.0828185101767363,"252":0.026429905230608928,"253":-0.029488285776442722,"254":-0.04893352854931968}},{"sx":1,"sy":1,"depth":255,"w":{"0":-0.09148796189496806,"1":-0.016809285935671218,"2":-0.02148310973505281,"3":0.03984862338728362,"4":0.04318722803566386,"5":-0.08959972708649429,"6":-0.024985974810148703,"7":0.06313070687710069,"8":-0.07409683950705044,"9":-0.16283593144952574,"10":-0.05008969091717928,"11":-0.017440377781172953,"12":0.05659627917969299,"13":-0.03339303973179142,"14":0.07513925327465361,"15":0.04128095853848887,"16":-0.059285590845565,"17":-0.023698623002802458,"18":0.014474447766434497,"19":-0.01027172108116965,"20":-0.00399851111907445,"21":-0.05780013448323068,"22":0.04358683356187604,"23":-0.0412564537943719,"24":0.12055692298780339,"25":0.0739004253617453,"26":-0.0057189864914767964,"27":0.05266062882406143,"28":-0.0769335750008228,"29":-0.08464758500788344,"30":-0.030179655062276572,"31":-0.05971890932154314,"32":0.13397750508928638,"33":0.029806503866250483,"34":-0.025449477201245557,"35":-0.04652022950779886,"36":-0.035574155479541465,"37":-0.05443465563059358,"38":-0.03530653900302619,"39":-0.04684241477884767,"40":0.14162890132770634,"41":-0.04798791572117813,"42":-0.1216050137747971,"43":0.049264742157448325,"44":-0.06743726262257194,"45":0.01037366551900271,"46":-0.0346745552045901,"47":-0.0008916400280497847,"48":-0.0897267753862607,"49":0.0004944043349395657,"50":0.05626130026938797,"51":-0.044764392516636144,"52":0.0526664993967249,"53":0.0158772707136545,"54":0.011538364962621832,"55":0.05327504034340208,"56":-0.1234760422149663,"57":-0.028475370931421034,"58":0.011192858493556392,"59":-0.04455919365287827,"60":0.17401245803156318,"61":-0.0484879392745397,"62":0.0013209048830459225,"63":-0.025664056603810416,"64":-0.110630778883178,"65":0.007704858900207869,"66":0.029150919297564963,"67":-0.09875179106703408,"68":-0.024974202545747438,"69":0.010839786877761892,"70":-0.01154717889917186,"71":-0.07625787547401772,"72":-0.009205331446294403,"73":0.04487620525908868,"74":-0.017370541178987235,"75":0.06526630459304583,"76":0.021587559751703896,"77":-0.03242440164686788,"78":0.04700277110274556,"79":0.05193352815715232,"80":0.07875017310770809,"81":-0.04227331175031184,"82":-0.011580950057869252,"83":0.10354782029303251,"84":-0.005739444529587272,"85":-0.02443114891997175,"86":0.13054964119262485,"87":-0.005282575888773121,"88":-0.036305650587163826,"89":-0.03309612114268526,"90":-0.00900449673155819,"91":-0.14072029963212748,"92":-0.0913989575580283,"93":0.04734691422873523,"94":0.015739897506532038,"95":-0.1406757972210297,"96":-0.015418255061919324,"97":-0.06770856019126566,"98":-0.00006482759741466523,"99":-0.08678433840798458,"100":0.05351601134566989,"101":-0.06431535654046168,"102":-0.04248729638391911,"103":-0.05641433111110995,"104":-0.04453405410140244,"105":-0.09849265557031672,"106":-0.1168781661926689,"107":-0.016153887831810054,"108":0.07078341436893447,"109":0.0020883307208139222,"110":-0.03302285364871754,"111":0.0040249915744047056,"112":-0.007705926527009937,"113":-0.009926421246833685,"114":-0.01946057637940428,"115":0.016447924536789862,"116":0.028000780787978456,"117":0.07072772353769276,"118":-0.03480970339357442,"119":0.08049979501546171,"120":-0.038773858431571794,"121":-0.022155692263132222,"122":-0.11857231941739037,"123":-0.011736563873970216,"124":-0.040728069427936185,"125":-0.0929949883113455,"126":0.019100107612952843,"127":-0.04330898827010074,"128":0.047061333162142005,"129":-0.02937937869741365,"130":0.016054146895725343,"131":0.09218280885966483,"132":0.025523859275246717,"133":0.008120571738890463,"134":0.05157862070457837,"135":0.050562110462191244,"136":-0.03393046972906879,"137":-0.040317630008588866,"138":-0.024494000034047256,"139":0.008377237167474292,"140":-0.06731237486762515,"141":0.04233359742694919,"142":-0.04320382608945218,"143":-0.00037913172687118146,"144":-0.0648340614736744,"145":-0.02429491040036179,"146":0.11106635852199229,"147":-0.04565635868568254,"148":-0.11711585474062954,"149":0.06952453713100112,"150":-0.02023384259800263,"151":-0.005934650004138845,"152":0.0006561270299503929,"153":-0.05670992700008573,"154":-0.11411946880434015,"155":0.023325247194143132,"156":-0.01071706535311308,"157":-0.04904884231834293,"158":-0.06363447340901145,"159":0.022135341613938472,"160":-0.11821033502419769,"161":-0.03931313140536912,"162":0.012965378321172573,"163":0.018386716628764694,"164":0.09759686237482856,"165":-0.01387661413987236,"166":-0.08100259521006226,"167":0.0347461496936565,"168":-0.030330330964062492,"169":-0.042476892154036834,"170":0.0133643359265786,"171":0.027077115281623317,"172":0.04760852464807916,"173":0.011673367993180021,"174":0.034431549107496476,"175":0.05207762104872503,"176":-0.006596152211277294,"177":-0.040664604110854,"178":0.04953150814072638,"179":0.026666740754814164,"180":0.011835623125084517,"181":0.13742162286125437,"182":-0.06701372208203901,"183":-0.09199492249388215,"184":-0.014619726963266626,"185":-0.05357845795802837,"186":-0.022631664136289285,"187":0.041478115568498945,"188":-0.008150962353313777,"189":0.019080772547285435,"190":-0.008151348627885408,"191":0.04954660870372943,"192":0.01530991768698641,"193":-0.04934936937708524,"194":-0.11295192925845436,"195":-0.02841907440705739,"196":0.05694691607352556,"197":-0.07292927056579705,"198":0.001775900872636784,"199":0.10007865962629887,"200":-0.025170378100246187,"201":0.06098695361916357,"202":0.10008205694020214,"203":-0.019920460922492476,"204":0.03261029740262842,"205":-0.061067639363052775,"206":0.04167475562301115,"207":0.0037670236444246057,"208":-0.1166075897714046,"209":-0.06741685583854694,"210":0.0656758350725176,"211":0.09913270105545831,"212":-0.10100978803279055,"213":-0.0503774354448807,"214":-0.09191577192068826,"215":-0.027438511306465733,"216":-0.038672027029717004,"217":0.0585838437348114,"218":-0.01639609280720126,"219":0.017620547295490997,"220":0.054849520897978433,"221":-0.06334767842771148,"222":-0.021255383356142032,"223":-0.048450189315969304,"224":-0.021308557346717525,"225":0.025330991516392152,"226":-0.043514049934939514,"227":-0.027494201393855323,"228":-0.01573068574405321,"229":0.10223712426489673,"230":-0.036724820764787613,"231":-0.02699647692686428,"232":-0.0016073404629323733,"233":-0.017830861731657637,"234":-0.05673569790649871,"235":0.0826669599609636,"236":-0.029677750927768688,"237":-0.161546641184571,"238":0.009714461672551787,"239":0.11759978989997547,"240":0.024983952010480877,"241":0.03641966629709767,"242":-0.006125898019689131,"243":0.07250700518597548,"244":0.08417692943972986,"245":0.08586506386726342,"246":-0.05606970260495652,"247":0.0850188320135051,"248":-0.07978274666649392,"249":-0.01955433777405236,"250":0.07842248221609258,"251":-0.006749385833654497,"252":0.035224225976378504,"253":0.045792290386701184,"254":-0.020534941699389405}},{"sx":1,"sy":1,"depth":255,"w":{"0":-0.1240165363573491,"1":0.013923232472515019,"2":-0.06740222549758644,"3":-0.05592565356459843,"4":-0.057399277584794905,"5":-0.052682548114457106,"6":0.005676787411189556,"7":-0.03108079213612891,"8":-0.04664215182328782,"9":0.1002552074185568,"10":0.03047549587551736,"11":0.050450796817233086,"12":0.029049487122776715,"13":0.007059831048888318,"14":0.025903743664848284,"15":0.0592512550846909,"16":-0.02961029607340859,"17":-0.001429616838702954,"18":-0.11717091480728921,"19":-0.1718152845623279,"20":-0.06325605579772194,"21":0.0013817736416605682,"22":0.01852767682444014,"23":0.0894166502768112,"24":-0.10207199586823536,"25":0.09468129534801743,"26":0.06464191672061231,"27":-0.1703828587327185,"28":-0.0694006169922025,"29":-0.05277764710961048,"30":-0.008968161665474685,"31":0.038296603097868975,"32":0.060756732755411935,"33":-0.13460091467061439,"34":0.06664419559665907,"35":0.09360731699166304,"36":-0.0749820097003672,"37":0.05360270557357149,"38":0.09714958744423415,"39":0.07191008242832633,"40":0.008547641162114936,"41":-0.045679459096283494,"42":-0.028501811253194013,"43":-0.14984419115994033,"44":-0.0056092833261745705,"45":-0.026040038843249378,"46":-0.1631593850422279,"47":0.021222676984002393,"48":-0.04944070547382215,"49":-0.05866922303398585,"50":-0.06332159404363262,"51":-0.12862473286698137,"52":-0.0018117786591797366,"53":-0.09283628210393234,"54":0.08261300678061673,"55":-0.03901407811738663,"56":-0.03848763578295047,"57":-0.017513203855814945,"58":-0.07676166951388384,"59":0.02900893770789184,"60":-0.04974465679446128,"61":-0.01319378891335853,"62":-0.1181780541971098,"63":0.05809627366261825,"64":0.04883415508486615,"65":-0.035596281524827966,"66":-0.013463594273368237,"67":-0.10701193366549554,"68":0.034331264800317216,"69":0.005242814038653896,"70":-0.08904945081745688,"71":-0.08511653714433992,"72":-0.08337096521927531,"73":0.06064608429334562,"74":-0.013822370417290179,"75":-0.04868565112153585,"76":0.05056925399869256,"77":0.005758386873511388,"78":-0.10046806422417108,"79":0.05494227528868703,"80":0.035868588526783485,"81":0.013315884917974183,"82":0.038486164674713184,"83":0.046338557191991425,"84":-0.06707859372653695,"85":-0.01937728261888625,"86":0.07093566597334997,"87":0.038590871652459446,"88":-0.04012656582290987,"89":-0.006046115583069219,"90":-0.005163780752127948,"91":-0.01540277192403092,"92":0.05389353270175223,"93":0.0037703191100168995,"94":0.05295075039286267,"95":0.04286622331966014,"96":-0.0004632852488376273,"97":0.08005440437050425,"98":0.07286074670542737,"99":0.045459858698214714,"100":0.04619384916581556,"101":-0.00788218162574226,"102":-0.03622997911325954,"103":0.0972100933299105,"104":-0.017814734835820616,"105":-0.054616214992323504,"106":-0.11487895804042614,"107":0.058236386232151154,"108":-0.046240565276830146,"109":-0.01901423415014125,"110":0.013084263378101767,"111":-0.019614588092489203,"112":0.0202373103146662,"113":-0.02172979698053167,"114":-0.02031431058984663,"115":-0.08404627907325267,"116":0.018356655541957725,"117":-0.06990170667650362,"118":0.016103417008498527,"119":0.13618895735310546,"120":-0.027035249647792144,"121":0.014622177945011375,"122":0.05186815528495455,"123":0.04162637521587166,"124":-0.011353385260489363,"125":0.08352803280719369,"126":-0.031689555906431244,"127":-0.061198064304572614,"128":-0.040999419866905314,"129":0.07922238535081559,"130":-0.04642094508543881,"131":0.10388140983636156,"132":-0.016252848259606996,"133":-0.10143666171159019,"134":0.09497365304393016,"135":-0.03104948956365269,"136":0.03898681182769931,"137":0.034091017058807696,"138":0.03876020245114414,"139":0.015717858600932378,"140":-0.0033902717674218525,"141":-0.0958593880173769,"142":0.06195972802828783,"143":0.008772244596629345,"144":-0.06586633880855405,"145":-0.050405011011268444,"146":0.022730105214361834,"147":0.004907424286407904,"148":0.01971037082572236,"149":0.1136369406445893,"150":0.006425970560384115,"151":0.09993536909180233,"152":-0.062087047935620795,"153":0.06784267169866917,"154":-0.07394390522435694,"155":0.051094171590016155,"156":-0.013563306663466529,"157":0.044338454411624977,"158":-0.026807340008075328,"159":0.033980040375186385,"160":0.11207860682444343,"161":-0.10438576371089023,"162":0.05335894350654206,"163":-0.03850595428817627,"164":0.045839120129507305,"165":0.04977485936563213,"166":-0.05156766741096855,"167":0.08193763456321224,"168":-0.04615340581671874,"169":0.0809182396450281,"170":0.052137762369842945,"171":0.0007461524438180753,"172":-0.06595730633426211,"173":-0.021175936743644295,"174":-0.07915412607345977,"175":-0.0025931577616754415,"176":-0.04054220703346476,"177":-0.11437610652481632,"178":0.02044110271062645,"179":-0.03522695586272276,"180":-0.025422691673450418,"181":0.03878020730722017,"182":0.011336599235520087,"183":-0.10820533235651336,"184":-0.05356742924771678,"185":-0.016590426051803133,"186":0.06718576981260452,"187":-0.06968148277038078,"188":0.07037614519832032,"189":0.09476621905056105,"190":-0.09761924021725545,"191":0.001984920918997094,"192":0.034016951810556896,"193":-0.03946111873457523,"194":-0.002281081099764103,"195":-0.061698838615301066,"196":0.03276783744884715,"197":-0.01291529755054647,"198":0.03074979239542767,"199":0.07517315099298742,"200":0.07979428769546038,"201":-0.03861043138084598,"202":-0.002298238125777871,"203":-0.056536886875583205,"204":0.05138312315355008,"205":0.1196463349369584,"206":0.011094396897001093,"207":-0.09412582034524057,"208":-0.055541787626751916,"209":-0.11369090049562522,"210":0.10061975251613181,"211":0.00683635970571667,"212":-0.10386309570081523,"213":0.0023585757892695715,"214":-0.07870984263014574,"215":0.004522266536370037,"216":-0.036663667295467814,"217":-0.05592817108832088,"218":0.09421585117553521,"219":-0.061032252316981776,"220":0.01668806254257855,"221":-0.12457210460162729,"222":0.05039659850548606,"223":0.06358813032954667,"224":0.05267092763071837,"225":0.02403024951313702,"226":0.016038971690152785,"227":-0.10695507981405485,"228":0.1120603188329558,"229":0.06528299655668239,"230":0.03606192023367317,"231":-0.05937261596627178,"232":-0.0039004893117021593,"233":0.03704761912978877,"234":-0.011628201920819927,"235":0.0320492650672441,"236":0.029769686299641124,"237":0.008740764390761937,"238":-0.033660988333133225,"239":0.06008177733154601,"240":-0.03816518408505336,"241":-0.0352492778950264,"242":-0.0864824962696563,"243":-0.042286784713151664,"244":-0.012250172265582919,"245":-0.00027921331883039513,"246":0.08339903501451577,"247":-0.0830718465271543,"248":0.042548040421081276,"249":0.045943390481024825,"250":0.1225618010953207,"251":-0.1532248592116201,"252":0.029338832115810898,"253":-0.04245552048322143,"254":-0.059757349301890667}},{"sx":1,"sy":1,"depth":255,"w":{"0":0.04320481536753876,"1":0.14892112126352786,"2":0.02242485234053909,"3":-0.011523226348843502,"4":0.04929945666614048,"5":0.0013914476363933409,"6":-0.03499320574783488,"7":0.018340608643565345,"8":0.07294452083122337,"9":0.06391850043635978,"10":0.03993096847994767,"11":0.12017741253980181,"12":0.026265310733631638,"13":-0.07124835013745724,"14":-0.08649778752571351,"15":-0.03024627233072862,"16":-0.0721632813706948,"17":0.03468300110518015,"18":-0.11320383619295322,"19":-0.0732021329564332,"20":0.00805956310378874,"21":-0.09657060384633025,"22":0.11060074993076749,"23":0.021693836859290393,"24":-0.020212983363762347,"25":-0.07055987712288476,"26":0.05986102060739089,"27":-0.030328610603731057,"28":0.06107025579648247,"29":-0.013827788507546289,"30":0.017426438269370532,"31":0.040851244627856886,"32":0.0002915216753705561,"33":0.022162732878518304,"34":0.1741170453002116,"35":-0.02056590955408637,"36":0.08087255455984503,"37":-0.03193602899196315,"38":-0.12025690573216714,"39":0.010932898752914692,"40":0.012187970464417738,"41":-0.005575848187158807,"42":-0.07002516021343289,"43":-0.05230077308749571,"44":-0.012848463312545319,"45":-0.08256596640194463,"46":0.039136077378824984,"47":-0.019830384848141227,"48":0.03423022252114995,"49":0.04118323233311059,"50":-0.008556291593614823,"51":-0.07100542817102384,"52":0.018453317982910736,"53":-0.020953148277255508,"54":0.05685138267368999,"55":-0.02398315567173568,"56":0.023705446271158555,"57":0.03725942576191882,"58":0.10011849647832881,"59":-0.037161741326422595,"60":-0.04048798370147631,"61":-0.010750216962532413,"62":-0.16781445225924685,"63":0.10996851433427153,"64":-0.03248430810889432,"65":-0.12364788262514617,"66":-0.02922072010705281,"67":-0.008880406005422186,"68":0.08385240242675411,"69":0.026170083558364383,"70":-0.012916042681916491,"71":0.03618491604458081,"72":-0.08943627871711504,"73":-0.07173955571430513,"74":0.04097753574843925,"75":-0.0034059110050794084,"76":-0.04868462529270065,"77":-0.014113742881580805,"78":-0.022738230302585295,"79":0.024706716959957627,"80":0.09334528180596487,"81":0.07123121789505583,"82":-0.010713764030269494,"83":0.06434374554929922,"84":-0.05389828740694879,"85":-0.11095546158070427,"86":0.02884009292180859,"87":0.02071713673818618,"88":-0.07417768516053917,"89":-0.0020796785506912723,"90":-0.015124247353248984,"91":-0.03987272264928009,"92":0.021735958481005725,"93":0.0571901315316712,"94":0.01782003993477274,"95":0.00048766572007920343,"96":0.007743609746386616,"97":-0.06797926953214123,"98":0.12127654294358867,"99":0.013448919097534533,"100":0.006869847565960263,"101":0.041461452011243904,"102":0.012006831102943918,"103":-0.09949243744330795,"104":-0.015501307946263261,"105":-0.05366564560417548,"106":-0.043916015173543016,"107":-0.017844374604748112,"108":0.1228059428241546,"109":0.0026157084633083427,"110":-0.06959563982052747,"111":0.0466235788028252,"112":-0.04493069568896893,"113":0.0369132852483393,"114":0.04431810257391357,"115":0.007265386877743483,"116":0.07642275571638957,"117":0.01143525063261797,"118":0.03616651926823396,"119":0.01379274720807923,"120":-0.03355205729638212,"121":-0.03313838181529833,"122":-0.019784869535064704,"123":-0.053425234823796006,"124":-0.11286131196049407,"125":0.03743705617952207,"126":-0.03527407582035127,"127":-0.14612094730905878,"128":-0.02668139697629603,"129":0.033573712479432395,"130":0.11212326166746592,"131":0.03388745487787008,"132":-0.033750133312885365,"133":-0.09011222176792515,"134":0.028294560876748743,"135":-0.04630356718619078,"136":0.05377305096636866,"137":-0.0019028870095822515,"138":0.05259456815177521,"139":-0.021502322782247486,"140":0.021084498408948386,"141":0.04619877252339182,"142":0.15261363749343188,"143":0.05048551835270204,"144":-0.0029471872474452912,"145":0.10110402546936459,"146":0.06958198352157226,"147":0.0687877678425494,"148":-0.0009028466558316195,"149":-0.02553224048041634,"150":-0.07245488328381725,"151":-0.08359727323850576,"152":-0.0754071232392083,"153":-0.12728622605443524,"154":0.005924851551052098,"155":0.04278201713950586,"156":0.05311379208674575,"157":-0.06917840948246146,"158":-0.06803069483178473,"159":-0.05873076777119363,"160":-0.04312244767670271,"161":0.05089637773774668,"162":-0.045537313844726,"163":0.05071365594944204,"164":0.03279452202516265,"165":0.15628027928424645,"166":-0.00103088792627097,"167":-0.008072381028204175,"168":0.08608963049848607,"169":0.030528215010603214,"170":0.1170529011049491,"171":-0.1208880401487194,"172":0.038117458827816336,"173":0.051042810991861615,"174":-0.03863060826739189,"175":-0.007478957445966488,"176":0.03239746360982373,"177":0.10171125127147912,"178":0.0175705626979201,"179":-0.12127887358817212,"180":0.0005830406872095979,"181":-0.0361432833928346,"182":0.18868992731325007,"183":-0.05149015723701617,"184":0.022418923448018095,"185":-0.029373383928464607,"186":-0.0005580093971636805,"187":0.07581966365306027,"188":-0.0055670528804987,"189":0.036685703507670045,"190":0.05609635060847198,"191":0.06723822270503149,"192":0.018950047899822776,"193":-0.023926925635382287,"194":-0.09031817844252783,"195":0.0464244848263161,"196":-0.040752256124361654,"197":0.055468295148508366,"198":0.0316238499150161,"199":-0.1324593461571091,"200":-0.07120451549881546,"201":0.07716989364807755,"202":0.08538188397408317,"203":-0.06334196920884382,"204":-0.07917839912417728,"205":-0.010710318660085814,"206":0.062245457216918904,"207":-0.025492166166407836,"208":0.09817329673033849,"209":0.09208985421626985,"210":0.020579693703878972,"211":0.08838491327581273,"212":-0.060247890924421774,"213":0.05347125413945387,"214":0.04435110221284414,"215":-0.05679147537642654,"216":0.03495058836298595,"217":-0.05853852058863139,"218":0.01831341657574845,"219":-0.007338551546671237,"220":-0.0004322956964441409,"221":-0.011078775802775493,"222":0.03607724376434753,"223":0.08150555007317625,"224":-0.013639589848290449,"225":0.10009654568442897,"226":0.09424964082181672,"227":0.0634315395069015,"228":-0.021390072000531345,"229":-0.05990367985822976,"230":0.07721280357479222,"231":0.04146002000024099,"232":-0.08642987575200592,"233":0.05554067851351497,"234":-0.062249601608946416,"235":-0.008818345210419916,"236":-0.05719652843173183,"237":0.11435696361924069,"238":0.008984490877718038,"239":0.03500141019441954,"240":-0.08331778229956147,"241":0.006930769796959964,"242":0.005765017468373568,"243":0.017168947819922804,"244":-0.017498144816445793,"245":-0.019164941721586344,"246":-0.013337797801282747,"247":-0.07659785704142769,"248":0.021333157767752194,"249":-0.009903730927180242,"250":0.036091830301087764,"251":-0.006295393510904444,"252":0.0150961531122121,"253":-0.16918504200508985,"254":0.07863325412752697}},{"sx":1,"sy":1,"depth":255,"w":{"0":-0.014850109957501755,"1":-0.009890332308545123,"2":0.027239382832281705,"3":-0.01319060458442169,"4":0.1584760723275029,"5":-0.04122282290203979,"6":0.006783049597250406,"7":-0.007377895049097068,"8":-0.05613566987268352,"9":-0.07673414663400836,"10":-0.024350384347246616,"11":-0.05630711058716783,"12":0.01708539992358581,"13":-0.042558016503001866,"14":-0.003406983001226567,"15":-0.006590169335970187,"16":-0.052151590478131685,"17":0.074315572192328,"18":0.030179389418721222,"19":0.035008559274766274,"20":0.0058432145400955015,"21":-0.015241982361237581,"22":-0.047670254805149095,"23":-0.0947950452183279,"24":0.04973039621933543,"25":-0.009616623239423559,"26":0.16303035324136123,"27":0.01279023133012912,"28":-0.0028930176949825237,"29":0.022524452608567464,"30":0.04854349144116399,"31":0.030005541273161556,"32":-0.01569215592753247,"33":0.14232876955970158,"34":0.10717569915380093,"35":-0.04610676855331298,"36":0.06065064210702671,"37":0.040630645334804996,"38":-0.04748708957706634,"39":0.06747142978180015,"40":0.043503491782213424,"41":0.07515437197033849,"42":0.000029718906163999376,"43":-0.06933976981870074,"44":0.048506486306207894,"45":-0.010419372053556917,"46":0.01673664508567505,"47":-0.017499431210676118,"48":0.05080137852436445,"49":-0.02429400066937078,"50":-0.0014530614751017334,"51":0.052772745046296,"52":-0.013322532765080181,"53":-0.0013294869931903105,"54":-0.08917314651256111,"55":-0.05744372518084712,"56":0.03648551558249517,"57":0.0011962459882535242,"58":-0.12507078099245425,"59":0.021159435485028508,"60":0.09140740469459169,"61":0.04298957380577883,"62":-0.052420115076445985,"63":0.09312977428273264,"64":-0.09273600370822387,"65":-0.06241560812186255,"66":0.02365744847470642,"67":-0.09140015906165712,"68":0.021413565528697824,"69":0.044083008995090496,"70":-0.02813302193892875,"71":-0.04706356977753747,"72":0.08306408525287931,"73":0.015214119832644469,"74":0.03463631000360774,"75":0.06007516480345606,"76":-0.05900232774580844,"77":0.040033140278877534,"78":0.02396026830100178,"79":0.020687723743168778,"80":0.01323231302197375,"81":0.0700707527940573,"82":-0.06319596827297082,"83":-0.12720667469029687,"84":-0.0706264051425704,"85":-0.06917241137216577,"86":-0.11120569147089188,"87":-0.008659195444223803,"88":-0.01257977299185427,"89":0.004669198499044465,"90":-0.05699683835438025,"91":0.06810195540257744,"92":-0.009501867935949482,"93":0.026140884061858136,"94":-0.03290365919936464,"95":0.08169723117997627,"96":-0.053958009360771865,"97":0.024735528970479828,"98":0.09780189111441774,"99":0.05335890185639521,"100":0.03954006076754287,"101":0.05357796932706109,"102":-0.10521266060151802,"103":-0.05502459604888738,"104":0.021723227495072335,"105":0.0669948475021248,"106":0.04264839996763989,"107":-0.025642302924430795,"108":-0.07160727849955484,"109":0.1353349420100641,"110":0.01144485230808155,"111":-0.01961863154666418,"112":-0.13639062049722137,"113":0.013746152909672276,"114":0.08956242011110771,"115":0.04257550668390712,"116":0.04343935530608049,"117":0.011444870372726259,"118":0.060136287645839004,"119":0.024636519752447617,"120":0.1011489934068021,"121":-0.07963534314293141,"122":0.004922761387695772,"123":-0.0912918708214119,"124":0.05732336837300266,"125":-0.030134151949449888,"126":-0.021020201627628746,"127":0.007211264396922112,"128":-0.07967707181806571,"129":-0.004711450714785093,"130":0.0319365900424031,"131":0.0007683197773032613,"132":-0.006679612710614255,"133":0.06387601177211884,"134":0.04786572350801231,"135":-0.007718722340713527,