
//<![CDATA[

// a few things don't have var in front of them - they update already existing variables the game needs
lanesSide = 3;
patchesAhead = 37;
patchesBehind = 13;
trainIterations = 100000;

var num_inputs = (lanesSide * 2 + 1) * (patchesAhead + patchesBehind);
var num_actions = 5;
var temporal_window = 3;
var network_size = num_inputs * temporal_window + num_actions * temporal_window + num_inputs;

var layer_defs = [];
layer_defs.push({
    type: 'input',
    out_sx: 1,
    out_sy: 1,
    out_depth: network_size
});
layer_defs.push({
    type: 'fc',
    num_neurons: 1,
    activation: 'relu'
});
layer_defs.push({
    type: 'regression',
    num_neurons: num_actions
});

var tdtrainer_options = {
    learning_rate: 0.001,
    momentum: 0.0,
    batch_size: 64,
    l2_decay: 0.01
};

var opt = {};
opt.temporal_window = temporal_window;
opt.experience_size = 3000;
opt.start_learn_threshold = 500;
opt.gamma = 0.7;
opt.learning_steps_total = 10000;
opt.learning_steps_burnin = 1000;
opt.epsilon_min = 0.0;
opt.epsilon_test_time = 0.0;
opt.layer_defs = layer_defs;
opt.tdtrainer_options = tdtrainer_options;

brain = new deepqlearn.Brain(num_inputs, num_actions, opt);

learn = function (state, lastReward) {
    brain.backward(lastReward);
    var action = brain.forward(state);

    draw_net();
    draw_stats();

    return action;
}

//]]>
    
/*###########*/
if (brain) {
brain.value_net.fromJSON({"layers":[{"out_depth":1415,"out_sx":1,"out_sy":1,"layer_type":"input"},{"out_depth":1,"out_sx":1,"out_sy":1,"layer_type":"fc","num_inputs":1415,"l1_decay_mul":0,"l2_decay_mul":1,"filters":[{"sx":1,"sy":1,"depth":1415,"w":{"0":0.016845013542745677,"1":0.010876986364298524,"2":0.004385688821833934,"3":-0.02519839771265416,"4":-0.020412358580651973,"5":-0.02312085530427722,"6":0.016269053177889035,"7":-0.022817012952086376,"8":-0.00037547485887291934,"9":-0.033727203361579264,"10":0.027204694286543703,"11":0.03417211399186165,"12":-0.04260758741290694,"13":0.016302932266419327,"14":0.032506722588102756,"15":0.0035222811442014645,"16":0.04758837296512117,"17":0.0013104929174470813,"18":0.03931193012274731,"19":-0.01370894148388124,"20":0.014607723953795485,"21":-0.006928465447200477,"22":0.029937017806533926,"23":0.000946324930568005,"24":0.006612888998505069,"25":-0.0436579282126624,"26":0.020155306412405816,"27":0.03653699635658586,"28":0.023188957943831176,"29":-0.02295061096046042,"30":-0.00996964044237074,"31":-0.029451808329848384,"32":0.012023129280686681,"33":-0.019998365591453873,"34":-0.009981870326058524,"35":-0.021608848089220475,"36":0.035360294596472615,"37":0.008655607281605983,"38":-0.03040301700798218,"39":0.0188906020458603,"40":-0.00934714298991707,"41":0.007214399819566085,"42":-0.019509204520070694,"43":-0.04513838449367876,"44":-0.0034230676766885387,"45":0.014598830593786201,"46":-0.01056460541569137,"47":0.00024170320740152045,"48":0.04341219582393933,"49":-0.006567002166440645,"50":0.004817270219094349,"51":-0.018123602746396676,"52":-0.019035879572391286,"53":-0.019688322175581974,"54":-0.012718042503133225,"55":-0.0017532668442173072,"56":-0.011829441278739387,"57":-0.0016132827689745231,"58":-0.011050473046017518,"59":0.04132793424356675,"60":0.04928278093786844,"61":0.011399118801149084,"62":-0.049939812590396385,"63":0.02935509744621225,"64":-0.012188280661595224,"65":0.042454345823046864,"66":-0.014343631077979008,"67":-0.010852520436895058,"68":0.04169673251915357,"69":-0.009789372812119565,"70":0.0028847478492342927,"71":-0.03132539533792127,"72":0.009285817004948424,"73":0.0034913517620912275,"74":0.05100316507462957,"75":-0.003516653892253233,"76":-0.027384492001571177,"77":0.01679607389150551,"78":0.04564709656143177,"79":-0.008273674426100183,"80":0.015457714301459919,"81":-0.03155443178342438,"82":0.01861250591114466,"83":-0.016238756231029668,"84":0.0146919409512097,"85":0.00389181757216957,"86":0.007030076062264769,"87":-0.004364922186383906,"88":0.0065337644726300315,"89":-0.03161718197428839,"90":0.0015362548908722908,"91":-0.013778394364607396,"92":0.0264541546409279,"93":0.009407073254890087,"94":-0.005243426570561573,"95":-0.008939423402353179,"96":-0.04287897267875388,"97":0.01094696013434142,"98":0.00019416586181052436,"99":-0.0022880021959345827,"100":-0.018451449312616535,"101":-0.039834587571843945,"102":-0.043739546323734446,"103":-0.025264333020720373,"104":-0.026422127463153092,"105":0.009426241115691692,"106":0.0028210321732995004,"107":-0.04137900224929875,"108":0.016302955861940627,"109":-0.019551358987335465,"110":-0.008729629761804157,"111":-0.023439419456237173,"112":-0.023004983865616845,"113":-0.012783088868879465,"114":-0.0019202250088243824,"115":-0.005520497399856025,"116":0.03912510085390579,"117":0.003390270899255672,"118":-0.012357889240860568,"119":-0.006615693339517391,"120":-0.06492631502143985,"121":-0.039376284009703555,"122":0.04875458239831164,"123":0.016454625955508437,"124":0.008034748910362358,"125":0.009068694778045922,"126":-0.00846823543401858,"127":-0.04219811546828497,"128":-0.015450051547970571,"129":-0.02711624387743063,"130":-0.0205465703836778,"131":-0.014509037739315781,"132":0.0076000056396448015,"133":0.010635734524326992,"134":0.0013693271362835398,"135":0.007838514823350365,"136":0.0037263503560028347,"137":0.014664767542143848,"138":0.019861032118457977,"139":0.009244540430043503,"140":0.01571620922597597,"141":0.03262047951301754,"142":0.01686782081436264,"143":0.003677023023408769,"144":0.019440819373864496,"145":-0.023181728211074122,"146":0.011334468747943728,"147":0.004256823099286459,"148":0.03965878287298661,"149":-0.025438280202359765,"150":0.011951201189081878,"151":0.03106959045103793,"152":-0.03677945260820736,"153":0.021302633769798344,"154":-0.00715357592225026,"155":-0.025513685876671154,"156":-0.023808330329911025,"157":0.02141135495023425,"158":0.03159927281034274,"159":-0.005996025640685995,"160":0.03381079424890648,"161":-0.037791034726316,"162":-0.006725418851457624,"163":0.010861545675813206,"164":0.01209067092922688,"165":0.01968286111593375,"166":-0.016011615922037245,"167":0.017661939559760878,"168":0.007111300294094483,"169":-0.0036900278527505184,"170":0.06989636075449601,"171":0.05951687749819991,"172":-0.0034462744846177115,"173":-0.007244269253228619,"174":0.013023819939374065,"175":0.03005938907925489,"176":-0.01036723270732848,"177":0.029628091137480217,"178":-0.012306067805253637,"179":-0.028941366063932973,"180":0.022326086050526786,"181":-0.01783396568575935,"182":0.044636751912820315,"183":-0.008987008367411524,"184":0.014269738443931894,"185":0.005251870539084057,"186":0.040752490092134386,"187":-0.0032449058263585265,"188":-0.009090673564481481,"189":-0.014522388189455004,"190":-0.03717272674033278,"191":0.014247572364220237,"192":0.021063269088391696,"193":-0.010580315048707007,"194":0.020264007025291613,"195":0.019534250684653618,"196":0.019771618906758884,"197":0.016222650791053894,"198":0.016152629573371075,"199":-0.01685905545192603,"200":0.026151209227681046,"201":0.012766594815324285,"202":0.00792746661762368,"203":0.004251874899459209,"204":0.05488255527874245,"205":0.02551012059898695,"206":-0.007927086054461444,"207":0.030498893828585796,"208":-0.004148081979067832,"209":-0.01709237422883322,"210":-0.0039503666763753146,"211":0.010583722251549956,"212":-0.04211669607695285,"213":-0.016536488227392083,"214":-0.0208804353684703,"215":0.023377956767125875,"216":0.004639876988738849,"217":0.02115869768209945,"218":-0.04239182879071016,"219":-0.016307674388071968,"220":0.01729797688138514,"221":-0.021495781470793625,"222":-0.027364029823385407,"223":-0.025397898974801447,"224":0.017250343232750043,"225":-0.003552752598826164,"226":-0.02063813280039249,"227":-0.035887276537569054,"228":0.013170921974500068,"229":-0.027752374569231346,"230":0.01122114220833578,"231":-0.03164088315690153,"232":-0.022869091140752095,"233":0.002796949970502225,"234":-0.014036546411344506,"235":-0.029759528376719243,"236":0.03285207106183477,"237":0.05332582713427501,"238":-0.006563508452356626,"239":0.026138204303387032,"240":0.023057966221007184,"241":-0.02064479494495077,"242":-0.01837993226466376,"243":0.006534735993962141,"244":-0.016047013645527054,"245":0.041900727486806094,"246":-0.02254197457024931,"247":0.014114773438701612,"248":0.03681130968621496,"249":-0.03734467661098402,"250":0.022367741108756743,"251":-0.00579618326520384,"252":-0.027137109060319266,"253":0.016016794967366126,"254":0.012863837043697165,"255":-0.01434492729676698,"256":0.012150236301002084,"257":-0.010881192730840532,"258":0.00018746495142216518,"259":0.02233239578672414,"260":-0.010327690620550105,"261":-0.015496879697517167,"262":0.02231119712320683,"263":-0.000382913030263863,"264":0.015558856619641525,"265":-0.04665235782036119,"266":0.005505710160426803,"267":0.007420452139092794,"268":-0.0012844839850773432,"269":0.0021506116678767025,"270":0.011199776110525004,"271":0.030624146533387676,"272":0.0017055985729125833,"273":-0.03958141491075679,"274":-0.020787143290987565,"275":0.010811442414851722,"276":0.010570596420542035,"277":-0.03469254983899984,"278":0.055669321375929615,"279":0.009115703014004873,"280":-0.02595823152805384,"281":0.007101671187662889,"282":-0.006194997060547519,"283":0.0025487036416953607,"284":0.01704293171683663,"285":-0.004043868630969362,"286":-0.020287538474463452,"287":-0.035264957137616175,"288":-0.00025082587501645544,"289":0.04506625737545898,"290":-0.012822826479107527,"291":-0.009103241025547467,"292":0.023255739161400092,"293":-0.025196036413910092,"294":0.02659636504785665,"295":-0.00603158864234415,"296":-0.007349657558908651,"297":-0.040267672393704323,"298":-0.03173975485176762,"299":0.003264372794640025,"300":-0.005728121239579528,"301":-0.0077321127595443104,"302":-0.02846714267779583,"303":0.024662402252438057,"304":0.003350834643785069,"305":-0.026771380627276582,"306":-0.008109642137822446,"307":0.032756248397289384,"308":-0.058139742752120555,"309":0.01443821487810496,"310":0.006914114665132681,"311":0.023330420614536298,"312":0.022836016474397845,"313":-0.004974736557902049,"314":0.02384253638739716,"315":-0.015496178797257251,"316":0.01040286128094367,"317":-0.037292549360700075,"318":-0.012673960202931387,"319":0.007447816185171364,"320":0.031249737317827812,"321":-0.011592948782486142,"322":-0.017078631779480657,"323":0.030395762681517387,"324":0.007679875156504903,"325":-0.0231958798069046,"326":0.011895561007046324,"327":0.005931116953520594,"328":0.03944552971571654,"329":-0.04667830724319845,"330":-0.009320161090636969,"331":-0.0060717741825907804,"332":-0.0005043405019015786,"333":0.009470851310041689,"334":0.047027121553647404,"335":0.01774959830748732,"336":0.018173199584756057,"337":0.04282025115111093,"338":-0.003476415067676439,"339":-0.01279358361366437,"340":0.007318286976695624,"341":-0.035122539889769384,"342":0.024851772330620817,"343":-0.02819183460777766,"344":0.013004880141096709,"345":-0.00240938978920751,"346":0.029197785871646616,"347":0.015948985469670208,"348":0.007973657127584155,"349":-0.0160469118097396,"350":-0.006583168916891686,"351":0.05065163317412464,"352":0.029710839049275378,"353":-0.042535683906545066,"354":-0.035021704041357994,"355":0.031441591894686094,"356":-0.01790224536383803,"357":-0.009579179880752022,"358":-0.018236423156605817,"359":0.029719649981090872,"360":-0.03770681773344099,"361":-0.06193462051840504,"362":0.0015149119573333388,"363":0.028733463228096136,"364":-0.003011247933566043,"365":0.03575806571762106,"366":-0.02525413872854682,"367":-0.02763288184543188,"368":-0.022408303907325712,"369":-0.005266443164618754,"370":-0.011169541951275204,"371":0.0036692861752921882,"372":-0.0036266815971825765,"373":0.032475911290207674,"374":-0.003209834125369621,"375":-0.03333329113807947,"376":-0.018414967235021344,"377":0.02107191545226282,"378":-0.008713627617277744,"379":-0.01624253690774141,"380":-0.034467621946539996,"381":-0.04997144090032608,"382":-0.009372674691644666,"383":-0.0055181815590459645,"384":0.03345362661116054,"385":-0.034709547206886675,"386":0.03989205859181018,"387":-0.03316462115218149,"388":-0.0058612303209523075,"389":-0.014477989904330617,"390":-0.004704247216622548,"391":0.03526533883906466,"392":0.03807946278636691,"393":-0.014521908266830868,"394":0.005791251236855289,"395":0.008153158390354354,"396":-0.009810396732135192,"397":-0.01229546893240457,"398":0.07959949629561473,"399":0.0037827830425219374,"400":0.0069339964009008295,"401":0.01868970210763071,"402":0.038240091641111036,"403":0.01535908415099404,"404":0.03154969221056171,"405":0.05165203799157937,"406":0.017989178709147326,"407":0.008592063579583371,"408":-0.020685740558666916,"409":-0.040713845081876934,"410":-0.0057300529152479835,"411":-0.01789185887476353,"412":-0.02133585989481584,"413":0.005410892567955433,"414":-0.03831490630719862,"415":0.06382816183123001,"416":0.005261085747716651,"417":-0.006891712116538728,"418":0.005363088094115087,"419":-0.02903424803564362,"420":-0.0052278220691421365,"421":0.03121878752700855,"422":-0.02587329985165918,"423":-0.029795711157968474,"424":-0.030849319884415558,"425":-0.009783627157993318,"426":0.008156504363319493,"427":0.025242732424022703,"428":-0.030189806247182923,"429":0.005045064616451516,"430":-0.086748768583525,"431":-0.024696820383972185,"432":0.040035319844733984,"433":0.025392708388675477,"434":-0.0024182927501396586,"435":0.03647861988734671,"436":0.005396042578045927,"437":0.026891103920231314,"438":-0.018324291506784593,"439":-0.00038527648758013294,"440":0.011504004644095836,"441":-0.01101112586492606,"442":0.03667485911214206,"443":-0.021078879454537753,"444":-0.024315891209561354,"445":-0.021829415456725853,"446":-0.011015689120564987,"447":0.003640505769502795,"448":-0.028867898361803562,"449":0.019668091084944585,"450":-0.008671341414936168,"451":0.04121680454725992,"452":0.015475339730058404,"453":-0.04269712436490581,"454":0.002499604440060633,"455":0.062470449481758554,"456":-0.014543230936100176,"457":0.06087540943033527,"458":-0.011757120013075622,"459":-0.020503898070993253,"460":0.021864483637632205,"461":-0.00595614176894715,"462":0.032972852723155636,"463":-0.01607605979135328,"464":-0.018301215923678605,"465":0.00488632484846791,"466":0.013045905631132908,"467":0.009363796329406806,"468":-0.007539373522389261,"469":0.015101946374789794,"470":-0.0025242398562413224,"471":-0.029723819273473864,"472":0.012577876463438307,"473":0.07466991918316739,"474":-0.001634921856705485,"475":0.026332591483061177,"476":0.013540811387703237,"477":0.034116751060105366,"478":0.012600355176489978,"479":-0.04874524403809131,"480":0.024426491968813916,"481":-0.010195249624103774,"482":-0.012690856337129757,"483":0.02420489283524269,"484":0.04626003229835307,"485":0.02658784827341351,"486":0.00015655558803889016,"487":0.031438442252671416,"488":-0.006077361106180458,"489":0.02946765245103324,"490":-0.002766370488958516,"491":0.006521245846141623,"492":-0.0399186388099926,"493":0.07410458185762893,"494":0.011625945517420582,"495":0.01032622015161535,"496":0.02759532492366058,"497":0.022041583391667757,"498":-0.012353623317356389,"499":-0.041110289140794704,"500":-0.019987842566887428,"501":-0.021764748180274757,"502":-0.01006319059950903,"503":0.005716628111457585,"504":0.0015754724510791743,"505":-0.0017506974509281738,"506":-0.017231478608186242,"507":0.008166765669684883,"508":0.04806939295181792,"509":0.05258971176907,"510":-0.04860666446948051,"511":-0.06733555056890933,"512":0.00709453966159738,"513":-0.0018668736795416341,"514":-0.021447968560686176,"515":0.02349791828249339,"516":-0.021559370863011934,"517":-0.030169508618769613,"518":0.02161803398615005,"519":-0.00015629213935390907,"520":-0.013681753242534275,"521":-0.023117458290012084,"522":0.03850510373440225,"523":-0.02283339957304903,"524":0.01936691619901954,"525":-0.019361056937202848,"526":0.027554564862467112,"527":-0.00018016214335427093,"528":0.0015539869846279873,"529":0.02404007668239486,"530":-0.019896504464008286,"531":-0.009621001755476772,"532":-0.054730562637078914,"533":-0.01286455544945213,"534":0.02727440067824304,"535":0.012556849478879702,"536":0.06224729083222828,"537":-0.0043675399237021306,"538":0.02041204218334174,"539":0.016908429809873986,"540":-0.07067770002668408,"541":0.042241574751612054,"542":0.018512442065068455,"543":0.006407226671496141,"544":-0.01374699498149144,"545":-0.049383085951126324,"546":0.039824102351348235,"547":-0.02756592849520453,"548":0.008849560641387031,"549":-0.006541153956602039,"550":-0.0318453140766838,"551":0.03682258504058397,"552":-0.03176943428695824,"553":-0.013751511043150855,"554":-0.0021182381600049587,"555":-0.021737501526408354,"556":0.020805820928123317,"557":-0.051587159680086765,"558":0.013285232524770452,"559":0.01154835230216325,"560":0.05547296520793299,"561":0.02998603200695587,"562":-0.024849086815979228,"563":-0.025208702305947694,"564":0.006402698173450568,"565":0.01223463681587054,"566":-0.003794341548854436,"567":-0.03053157367131936,"568":-0.01108229883254117,"569":-0.046878341566518864,"570":0.0006373300774647405,"571":0.026533488795519655,"572":0.013648779718270582,"573":0.010350049109733741,"574":-0.0047533263043920415,"575":0.009839105857268859,"576":0.005277211587299848,"577":0.017343091842218834,"578":-0.057038675481582146,"579":0.017407888158447724,"580":0.045274987335440324,"581":-0.012260071399433824,"582":0.05549530497640612,"583":-0.018641487222450195,"584":0.012255799728561296,"585":0.00854994801166641,"586":-0.016481151212336728,"587":-0.014342667040447907,"588":0.010561594510081904,"589":0.012278058865915258,"590":-0.015808708514995117,"591":-0.002547650633391745,"592":0.0261935375774478,"593":-0.04124182587072869,"594":0.04015943691034241,"595":0.0034065328376130105,"596":0.042501700457507605,"597":0.06025131258569424,"598":-0.035994516391216085,"599":0.030258617270670463,"600":-0.006608920981606009,"601":-0.00305014278432137,"602":0.004038071388586486,"603":0.014651686420423332,"604":-0.05299275808833115,"605":0.018531497042566104,"606":-0.025935491739066417,"607":0.022420348960490017,"608":-0.005369557700064302,"609":0.060278711755438176,"610":0.020640467830496063,"611":0.015675978785031255,"612":-0.05987424374355715,"613":0.001209046776833912,"614":0.03265534999385615,"615":0.0009380915294833265,"616":0.024285611479397826,"617":0.026054764645794443,"618":0.018856193158234724,"619":-0.006449327672377646,"620":0.012492584276126508,"621":-0.021236322094300077,"622":0.0019358268831091137,"623":-0.003131828406000337,"624":-0.0024379903167439754,"625":0.019209135283468855,"626":0.0031332095297572538,"627":0.0032947818315906363,"628":-0.03328011095121085,"629":-0.001357097743456648,"630":-0.029828116079834766,"631":-0.005608351758139071,"632":-0.013900324369990327,"633":-0.021604706409785686,"634":-0.026434890767744374,"635":-0.016095925410967094,"636":0.01770478815366571,"637":0.034851702190980785,"638":0.004268452917079531,"639":0.01336249273878332,"640":-0.04332962393066088,"641":-0.018830211460476164,"642":-0.010385464890564348,"643":-0.006090609959832959,"644":-0.007963441372043613,"645":0.005635181327794263,"646":0.008125632650406257,"647":0.006482369995793288,"648":0.052229075920288685,"649":-0.01938189274741631,"650":0.03526207288980537,"651":0.02847403028883526,"652":-0.01064836321788391,"653":0.01572465195450794,"654":0.05412545824337983,"655":-0.010144014602835939,"656":0.04120474070934138,"657":0.032393369340251346,"658":0.00828003590989268,"659":-0.03879165635493535,"660":0.0055435522400173,"661":0.02527270731563894,"662":0.0002596924694115245,"663":0.04297229592963163,"664":-0.010948649993504775,"665":-0.023677859526312142,"666":0.024664023509046982,"667":0.0618991344422272,"668":0.0023374976124625117,"669":0.023502887462473046,"670":0.049383124682894346,"671":-0.019465168521050055,"672":-0.02826464302500839,"673":0.020290126195850064,"674":0.006768006677619436,"675":0.022580895078176472,"676":-0.014604134192940746,"677":0.02456744762726377,"678":0.004676776701761709,"679":0.01419447672321392,"680":-0.0066116108615688115,"681":0.008425976873664675,"682":0.032580975642514706,"683":-0.012762181890490672,"684":-0.04757229676213014,"685":0.015619864211307153,"686":-0.0011664572106739922,"687":-0.00582632700774238,"688":0.013313632895939329,"689":0.033549816425896904,"690":0.006620972822254401,"691":-0.0017890239113058188,"692":-0.014756324893891,"693":0.023704306866050177,"694":-0.028962088246680107,"695":0.011251297390729406,"696":0.027495186213060213,"697":0.006890823945675795,"698":-0.0027634184353489233,"699":-0.0013318914771967858,"700":-0.0052838857456853055,"701":-0.06144449488868035,"702":0.023271607715185966,"703":-0.012899776884041914,"704":0.027926355698758454,"705":-0.0068010810068997365,"706":0.035456408792332084,"707":-0.04022770326491125,"708":-0.015389930430791043,"709":0.022855750772623452,"710":0.008282164713845663,"711":0.028676938967353502,"712":-0.028113728365375658,"713":0.007834594431877614,"714":-0.015868611172568613,"715":-0.010466655943049694,"716":0.0050718796847604095,"717":0.01585428209612158,"718":0.036001616363668366,"719":-0.024184503540860627,"720":0.03242369375217736,"721":0.020527298007981417,"722":0.00885774071280055,"723":-0.03228453963519309,"724":0.011331888787927688,"725":0.02011709023591363,"726":0.021319905246345125,"727":-0.0005068770138956089,"728":-0.010696840236756112,"729":-0.007263951094699626,"730":-0.04456528052826786,"731":-0.010059380768226964,"732":-0.030302770785224958,"733":0.01637808258927314,"734":-0.01585693334663994,"735":-0.024892659537756816,"736":0.019169220640319503,"737":0.007421330201822114,"738":0.011201917671985681,"739":-0.024949802187260672,"740":0.0007139647215106494,"741":0.011809892539568463,"742":0.0052960660104018455,"743":0.02854824431121208,"744":0.0018612562105054299,"745":0.009112359809494668,"746":-0.03917818979204236,"747":-0.009168752193696745,"748":-0.007486860417936075,"749":0.01701404384655321,"750":-0.05997443360430437,"751":0.014822888220656005,"752":0.020683857663031116,"753":-0.0018487397116631213,"754":-0.07471114958193999,"755":-0.06393277226919901,"756":-0.02870473733759185,"757":-0.02179815954205987,"758":-0.010849445183780077,"759":-0.010034998512733385,"760":0.02112088040417894,"761":-0.025288257364085603,"762":0.00970476855394502,"763":0.006443466391515637,"764":0.024589045379545576,"765":0.04143828507370316,"766":0.02704963527747018,"767":0.003287425983861493,"768":-0.028147708939583266,"769":0.0003125446840609657,"770":-0.037534911186324724,"771":-0.0030905113311648948,"772":-0.022411334541122367,"773":-0.003344875194979748,"774":-0.002480597366393456,"775":-0.011781142647905295,"776":-0.01681146524799467,"777":0.010748950235463978,"778":0.040347188722766034,"779":0.06107199283631422,"780":-0.02368686088137013,"781":-0.0057264212152081375,"782":0.019712817493297684,"783":-0.019528247463316363,"784":0.007700027727324905,"785":0.01623590876200461,"786":0.007131984033778454,"787":-0.03629109091872624,"788":0.04435670856111703,"789":-0.03672369746521843,"790":0.014839459224787811,"791":-0.007666856956628055,"792":-0.01744597162938389,"793":0.031900454140323366,"794":-0.018812665246663068,"795":-0.030197526233044465,"796":-0.016403922453691034,"797":-0.017821089082020472,"798":-0.014745940114208805,"799":0.0003242763794398788,"800":0.024108561662283364,"801":-0.01506418957667735,"802":0.0691011406727075,"803":0.03318080695140125,"804":-0.005660059989465089,"805":0.02852487395440263,"806":-0.012593985603761357,"807":0.012559013349686505,"808":0.0031247064728693037,"809":0.029756367486290836,"810":0.027637111336910714,"811":0.04045676629462155,"812":0.029515237060174032,"813":0.009866594247979525,"814":0.0021914357860834325,"815":-0.006314876987347185,"816":0.0198316456198718,"817":-0.02011717819865144,"818":-0.010524266927782543,"819":0.003236800993295099,"820":0.00963401576603318,"821":0.02398283209639578,"822":0.03972699591432635,"823":-0.017334893181635808,"824":-0.037442695853723146,"825":-0.023528594828400695,"826":0.010890574321855029,"827":-0.020417483153590703,"828":0.014570877427170068,"829":-0.004812530310805688,"830":-0.005682525472200812,"831":-0.0003652395165549077,"832":-0.07318352666460873,"833":0.013827206957027376,"834":0.02796398995647431,"835":-0.00502732487256866,"836":-0.04780624809343971,"837":-0.025565921096968543,"838":0.008805350739385157,"839":0.03152229670873742,"840":-0.04527995981650758,"841":-0.00787905591154879,"842":-0.012088713826094628,"843":0.01598737531384772,"844":0.04388257309446157,"845":-0.0695498905295773,"846":0.0007042471924116995,"847":0.02409292486400908,"848":0.0018157045808999133,"849":-0.020881096820357867,"850":-0.008994167510747227,"851":0.0013529239943567057,"852":-0.035064818779312695,"853":0.013324346923101374,"854":-0.018730706624635867,"855":0.02533883864128441,"856":0.0013580289995691653,"857":0.025444523754227524,"858":0.012798869799698707,"859":0.0015203952684149937,"860":0.05710107924538817,"861":0.02085927695970868,"862":0.008484871772354559,"863":0.0175056158757272,"864":-0.002582596530234172,"865":-0.028110231728877205,"866":0.06790797703926398,"867":0.012415986002296969,"868":-0.004000043595940632,"869":0.0004461645270466639,"870":0.041112716154190806,"871":0.020790526460766987,"872":-0.0003466495692535524,"873":-0.00321757065745608,"874":-0.04358366564991604,"875":-0.009848574790238759,"876":-0.0012489689829606695,"877":-0.008952586231180405,"878":-0.009569080035360849,"879":0.005481179465533497,"880":-0.004289143586730862,"881":-0.010912335589496374,"882":0.00464871847325902,"883":-0.011420532176760362,"884":-0.012985680619593806,"885":-0.057868128130540854,"886":0.011150389927346783,"887":0.004038158020639419,"888":-0.003503595985050315,"889":0.009432230999202403,"890":0.02515785373756658,"891":-0.016669477648969366,"892":-0.013984118268467946,"893":0.032437706645890435,"894":0.022211633115978603,"895":0.036442615618610195,"896":-0.051327873866001954,"897":-0.005159883526861268,"898":0.033956495736974526,"899":-0.024559970455703687,"900":-0.005936407316077756,"901":0.02661421048658775,"902":-0.002641168045402399,"903":0.024544931001004293,"904":0.0318123071746413,"905":-0.020083329385834212,"906":-0.007623357869484635,"907":-0.019387385355495328,"908":-0.027982239883325044,"909":-0.01539789357251322,"910":-0.016894001124929538,"911":-0.035758874813117035,"912":-0.0024892638213204203,"913":-0.03076258572947794,"914":0.01656401085264707,"915":-0.008783244642620348,"916":0.01228531639043534,"917":0.01146696549753684,"918":0.016040548923980054,"919":0.010041653172677734,"920":-0.023930816751230502,"921":-0.003640157985795206,"922":-0.03554717005748425,"923":0.03628337924739636,"924":-0.023628436147294252,"925":0.03327457396220145,"926":-0.0003173351912811865,"927":-0.005421002553169017,"928":0.017614137746920194,"929":0.0009966144441334024,"930":0.0023428430685164675,"931":0.006490416551932706,"932":0.014735676798912838,"933":-0.05250745651602923,"934":-0.04982509093115547,"935":0.05099116037821899,"936":-0.0020718895639338436,"937":0.003072774081971837,"938":-0.018971380870403093,"939":0.023363561405682985,"940":-0.05352992369975136,"941":0.011752803850627538,"942":-0.05787982357375522,"943":0.0005848085076590044,"944":0.06317606989268192,"945":-0.01941218357158056,"946":0.006841769266957135,"947":0.027725073494592075,"948":0.011819316919053375,"949":0.0008404845896375072,"950":-0.03464213085771355,"951":-0.026911974136956642,"952":-0.0322825542695265,"953":-0.043047028821975426,"954":0.016058110408833193,"955":-0.031617033598248044,"956":0.03359488496485827,"957":-0.038877414614019314,"958":-0.012595778191110846,"959":0.02449596293240048,"960":-0.0133102105316138,"961":0.008409841578974403,"962":0.01771844593309972,"963":0.03706844502852348,"964":0.014545191197399283,"965":0.02350004711005722,"966":-0.005836752008821003,"967":0.011166714970562415,"968":0.018951224270968216,"969":-0.007592289746332892,"970":0.05380356558794504,"971":-0.024558249911796837,"972":-0.011969299566440227,"973":-0.009001213380839417,"974":0.05396590603434856,"975":-0.009755292761500422,"976":-0.07611506461051963,"977":-0.01738737362869153,"978":-0.02690027131669062,"979":0.01800599415611544,"980":-0.019341184511311255,"981":0.02771958451952815,"982":-0.06378952511746745,"983":0.04810379763940284,"984":-0.03852149877256576,"985":0.009867237304395215,"986":0.0018838030992138278,"987":0.000774361160684702,"988":-0.044857642060093086,"989":-0.0256688999125974,"990":0.02838760957315239,"991":0.011356088635239472,"992":0.004181729794209828,"993":-0.004069367095683025,"994":-0.0023462154618070813,"995":-0.03605914301238981,"996":-0.013299877525466939,"997":0.044709259769316376,"998":0.04278576032069696,"999":-0.029168404656094403,"1000":0.011736259798815873,"1001":-0.02030733580052103,"1002":-0.01927277076897674,"1003":0.05146030070830644,"1004":0.01829997904031832,"1005":0.017923775507281182,"1006":-0.002939981094088938,"1007":0.05852911440508268,"1008":0.000743764407317731,"1009":-0.035915091591044654,"1010":0.007174665785206215,"1011":-0.0501185198702333,"1012":-0.010183634447415874,"1013":-0.035419064156493874,"1014":-0.007886596980546086,"1015":0.006947987513196956,"1016":-0.030712530708459376,"1017":0.06477273581983128,"1018":-0.00005109515632146681,"1019":0.007891239849714116,"1020":-0.010539585655767925,"1021":-0.012131682080688738,"1022":-0.07063987529485684,"1023":0.009207735819272454,"1024":-0.026487063166001374,"1025":-0.034908041933887586,"1026":-0.01988462306489788,"1027":0.01518890825016956,"1028":-0.011140885958324845,"1029":-0.011611192462020118,"1030":0.009898308713808068,"1031":-0.030398195533782837,"1032":-0.002549419118299258,"1033":-0.020981748438040956,"1034":-0.0002499209009681276,"1035":0.04928442499578154,"1036":-0.023357125374724327,"1037":0.00283000786396389,"1038":-0.015365599934182954,"1039":0.02569995431996931,"1040":-0.00759806329131053,"1041":0.06461665638589997,"1042":-0.025017702926426615,"1043":0.016406847297982658,"1044":-0.04372492802654909,"1045":0.060523717686390935,"1046":0.04924880081429331,"1047":0.029133586109628788,"1048":-0.015471667674422158,"1049":0.028956842769211878,"1050":0.028846009005266945,"1051":-0.002768848796320586,"1052":0.06323554840365328,"1053":0.004898800579788636,"1054":0.046720480358581916,"1055":0.040330627501931574,"1056":0.021552547189554107,"1057":0.007269517488862369,"1058":-0.0004036121326041423,"1059":0.016928541573544002,"1060":-0.011915040787693237,"1061":0.009310852827517311,"1062":0.03460832922340026,"1063":0.03980431366260178,"1064":-0.03700982647968195,"1065":0.0075094881684523145,"1066":-0.02265816955916056,"1067":-0.019352460334956804,"1068":0.03422744992648929,"1069":-0.03538175397269223,"1070":0.03234238450463098,"1071":0.02719924954497511,"1072":0.01679368812825879,"1073":0.005462467339543225,"1074":0.006619799646599412,"1075":0.013368706461111969,"1076":0.02319117655603252,"1077":-0.010429050502231956,"1078":-0.047725710911801784,"1079":0.0335079299684293,"1080":-0.021279339227861432,"1081":-0.030734528177668256,"1082":-0.007818843977392126,"1083":-0.019310143707122918,"1084":0.021780317532782634,"1085":-0.04386989894372478,"1086":0.011325978702372352,"1087":-0.009588761672562339,"1088":0.010801557695317019,"1089":0.03003341087138995,"1090":0.016599421930787003,"1091":-0.01027260792981457,"1092":0.010546273043225637,"1093":0.01727795310411723,"1094":-0.03017506624146759,"1095":0.010774098930931,"1096":0.010758184161429126,"1097":0.020335641023228098,"1098":-0.035441891805391305,"1099":-0.004382963861823707,"1100":0.019775181699677194,"1101":-0.02700551112948103,"1102":-0.01913170287972645,"1103":-0.017178443220498364,"1104":-0.0029896845411155923,"1105":0.0049912511726919575,"1106":-0.060702112016352394,"1107":0.023247603207340223,"1108":-0.0035967272842619196,"1109":0.006912385518812026,"1110":0.011925093459391155,"1111":-0.015676803742109648,"1112":0.03813373714709062,"1113":-0.0045105022901197065,"1114":0.03851312206540837,"1115":0.02842020680275148,"1116":0.014910231702657996,"1117":-0.009635818452288692,"1118":-0.0033821096556414486,"1119":0.04005593710933158,"1120":-0.01203381279986875,"1121":0.06408849587280012,"1122":-0.01892667181920607,"1123":-0.018321028508433333,"1124":-0.009825274770153204,"1125":-0.04291393386560803,"1126":-0.004660524587270152,"1127":0.02401050730181314,"1128":-0.03314857677852297,"1129":0.03991269719198165,"1130":-0.06350904842099692,"1131":0.05427176847935836,"1132":0.009526670517833355,"1133":0.04232196032049371,"1134":0.019798121893594867,"1135":-0.04236400345992006,"1136":0.014368992098277914,"1137":0.058883557334135535,"1138":-0.009285548391364959,"1139":-0.02233928545744339,"1140":-0.016651982632825493,"1141":0.042691924579847884,"1142":-0.022944409512507254,"1143":-0.0004362493949850399,"1144":-0.02229737247604348,"1145":0.0010651050893805785,"1146":-0.014134333910294193,"1147":-0.04277428233033863,"1148":0.01714557346517951,"1149":0.016291126580329465,"1150":0.0025238666245136314,"1151":0.046933119556619364,"1152":0.008589675658097326,"1153":0.032679403396334225,"1154":-0.04992212747480421,"1155":0.0004911037018660023,"1156":0.012305605400666435,"1157":0.013163562010644518,"1158":0.0072370240472267025,"1159":-0.02188043295699111,"1160":0.015849594952411276,"1161":-0.009181045187488461,"1162":0.006230842655704662,"1163":0.04537039401059352,"1164":-0.011891076233549016,"1165":0.0004050386707274498,"1166":-0.012138501697688828,"1167":-0.011358412630695616,"1168":-0.021320760248920875,"1169":0.006674389260646703,"1170":-0.012468463591787047,"1171":0.0076694172450415925,"1172":-0.008924893262903494,"1173":0.009968029696979493,"1174":-0.05351252291459416,"1175":-0.01836565226115078,"1176":0.017291702648698972,"1177":-0.014495771228789313,"1178":-0.00932333584246702,"1179":0.03454495809909107,"1180":-0.006761342784427845,"1181":0.014107080219602879,"1182":-0.00687899477461625,"1183":0.03589417778164861,"1184":0.026990162438006605,"1185":0.016490692702611165,"1186":0.03378691880081029,"1187":0.016804578285666446,"1188":0.020322841944114926,"1189":0.01979767578517641,"1190":0.013358265345791459,"1191":-0.008829548623563544,"1192":-0.03355866471132927,"1193":-0.003265965105552401,"1194":-0.0009152464455041455,"1195":0.04467025955445186,"1196":-0.023316898335577187,"1197":-0.03292703124653184,"1198":-0.0008736531805464195,"1199":-0.019718304608670762,"1200":-0.023641514467666585,"1201":0.048584487844159745,"1202":0.0019444374729141519,"1203":-0.05967329717058646,"1204":0.0018312667873411482,"1205":0.019219566566953217,"1206":0.005184766519256817,"1207":0.028721138540053356,"1208":-0.008482558734571159,"1209":0.004264890186535724,"1210":-0.030839840205212084,"1211":0.005444084136115701,"1212":0.0023223719931023397,"1213":-0.021221775943957376,"1214":-0.034900607731439735,"1215":-0.01038501632006195,"1216":-0.02374586764040286,"1217":0.002481958141600185,"1218":0.004025716599030409,"1219":-0.008278211424688698,"1220":-0.045764081351247377,"1221":0.016490418555824587,"1222":-0.025163930330985917,"1223":-0.024222029303330228,"1224":-0.012260782991979316,"1225":-0.05878722835251206,"1226":0.023453258534955116,"1227":-0.02602236815729474,"1228":0.027996126418056266,"1229":0.052048865679901204,"1230":0.02313238158285548,"1231":-0.027176374486714106,"1232":-0.02394718972365396,"1233":-0.004418709277430348,"1234":0.012089598079137238,"1235":0.01570334868389537,"1236":-0.01471952108109253,"1237":-0.004528266781094893,"1238":0.04758402950214165,"1239":0.020110162187945344,"1240":0.017946144825359587,"1241":-0.0017031798168302152,"1242":0.0007560779216165538,"1243":-0.05870540291897608,"1244":0.0008780786884404466,"1245":-0.018071294431018212,"1246":0.008652816697825473,"1247":-0.019661041993458313,"1248":0.027256763940534418,"1249":0.016004652800302017,"1250":0.03364028436055297,"1251":0.017318512452134942,"1252":-0.0022349796584331806,"1253":-0.017694836589602823,"1254":-0.052103812239023356,"1255":0.0027715904453722725,"1256":-0.008564588252118541,"1257":-0.03493127641456932,"1258":-0.00066992069026541,"1259":0.04374007830030333,"1260":-0.05526581969272177,"1261":-0.053968946384474824,"1262":0.03464408674053535,"1263":0.025537253270177245,"1264":-0.032982616494755965,"1265":-0.002897282839766453,"1266":0.009133919152410186,"1267":-0.014969001335502309,"1268":-0.03614138671590791,"1269":-0.04062544053760139,"1270":-0.0030819557331282434,"1271":-0.021337507301646953,"1272":0.020502624377911557,"1273":0.002448942237841553,"1274":0.012940265581654953,"1275":-0.026721655256877044,"1276":-0.03644200040413124,"1277":-0.01489966766482933,"1278":-0.024175786328291454,"1279":0.01576852250615428,"1280":-0.0061659283029138505,"1281":0.07434550833061342,"1282":0.01962461806928175,"1283":0.005640279132280179,"1284":-0.025860299655017942,"1285":-0.058595836252452994,"1286":-0.006085525592078608,"1287":-0.0018453285991000155,"1288":0.027625529070817022,"1289":0.033403903062881005,"1290":-0.013116708365310382,"1291":-0.007909384238767797,"1292":-0.03367748880794987,"1293":-0.022998596904788355,"1294":0.020464251552466606,"1295":-0.025900072336882116,"1296":-0.010881433689108985,"1297":0.01598437701385866,"1298":-0.03177759428489909,"1299":0.019507649864212082,"1300":0.037170127859452215,"1301":-0.00028573148652760147,"1302":0.006251841797835169,"1303":-0.0018748697247480209,"1304":-0.030951780344642733,"1305":-0.035115563445690154,"1306":-0.01171010073596184,"1307":-0.031094207915224614,"1308":0.029562148293808238,"1309":0.015421057392261999,"1310":-0.011721987971251768,"1311":0.030599302539834984,"1312":0.019700866005485186,"1313":-0.010330293483819917,"1314":-0.03190690684324881,"1315":-0.027324188371538355,"1316":0.036083779803123134,"1317":0.005931331375792812,"1318":-0.03746584844129389,"1319":-0.008687542313022822,"1320":-0.023715546832000986,"1321":-0.030880463372429553,"1322":0.02100943890515905,"1323":0.026467617393811597,"1324":-0.04722684218122977,"1325":-0.028165617285098303,"1326":-0.009972122160358645,"1327":-0.023226002049440413,"1328":-0.013423497152508651,"1329":0.0011037878511198317,"1330":0.0406628151296976,"1331":0.042869246220749335,"1332":0.021220179375180635,"1333":-0.010525267751878835,"1334":-0.02627911284232759,"1335":-0.03758207249150919,"1336":0.021535482275426815,"1337":-0.0205028252736826,"1338":0.0192224274605484,"1339":-0.007854283443994386,"1340":-0.007144636242022242,"1341":0.036218799494889084,"1342":-0.00933876457237112,"1343":-0.033586333921545,"1344":0.009844779489523548,"1345":-0.03290769545406105,"1346":0.045770652957867426,"1347":-0.02782266921319783,"1348":-0.0374771206821472,"1349":0.03901706388734719,"1350":-0.056978000213477195,"1351":-0.04378686427861493,"1352":0.019932999230243453,"1353":-0.01173240786824753,"1354":-0.0022096955061268867,"1355":0.02799912733919073,"1356":0.04781666519010684,"1357":-0.00585640996871112,"1358":-0.01874862664752749,"1359":0.03813342531769806,"1360":-0.0336310242984806,"1361":0.0012068695987196313,"1362":-0.026635518263516872,"1363":-0.022634331419506576,"1364":0.012215709753694657,"1365":0.043437677593262884,"1366":-0.0005264489773159214,"1367":0.016386180021664507,"1368":-0.013332399158396523,"1369":0.0046775166626307945,"1370":-0.040821608878347695,"1371":0.0010847006516891383,"1372":0.024982457659295194,"1373":-0.019413050356749017,"1374":0.017486919847649877,"1375":0.017555269078143428,"1376":-0.0037180105173497137,"1377":-0.03571230809024239,"1378":-0.03506225752471036,"1379":0.010212402464924131,"1380":-0.016701333111280785,"1381":-0.014284490081835893,"1382":0.05456621988111124,"1383":-0.0196990922242456,"1384":0.00410207946438691,"1385":0.03325134962960093,"1386":0.010571769142786267,"1387":0.002017509664912967,"1388":0.006246105876599332,"1389":0.022183990261886548,"1390":0.030204429752382973,"1391":0.0186535030223503,"1392":-0.010497215451985986,"1393":0.023567266828472308,"1394":0.005331350619249579,"1395":0.06634010853855682,"1396":0.016376126212359603,"1397":-0.008277493371756152,"1398":0.020199878920866686,"1399":0.0006040369223883997,"1400":-0.0039041962726571755,"1401":-0.005817325167273584,"1402":0.025236671259010485,"1403":0.02516517664822153,"1404":-0.04742988268417418,"1405":0.060160318326754676,"1406":-0.012523285013123357,"1407":-0.022132027747957923,"1408":0.022468018357354198,"1409":0.05055457438169656,"1410":-0.017142024180325954,"1411":0.007570440116848769,"1412":0.047999532749333676,"1413":-0.008569875685623726,"1414":-0.005649892394375789}}],"biases":{"sx":1,"sy":1,"depth":1,"w":{"0":0.1}}},{"out_depth":1,"out_sx":1,"out_sy":1,"layer_type":"relu"},{"out_depth":5,"out_sx":1,"out_sy":1,"layer_type":"fc","num_inputs":1,"l1_decay_mul":0,"l2_decay_mul":1,"filters":[{"sx":1,"sy":1,"depth":1,"w":{"0":-0.06790164504100374}},{"sx":1,"sy":1,"depth":1,"w":{"0":-0.9838093774700812}},{"sx":1,"sy":1,"depth":1,"w":{"0":-2.069980759612042}},{"sx":1,"sy":1,"depth":1,"w":{"0":1.7999106643064458}},{"sx":1,"sy":1,"depth":1,"w":{"0":-0.5574440864314748}}],"biases":{"sx":1,"sy":1,"depth":5,"w":{"0":0,"1":0,"2":0,"3":0,"4":0}}},{"out_depth":5,"out_sx":1,"out_sy":1,"layer_type":"regression","num_inputs":5}]});
}